<?xml version="1.0"?>
<opencv_storage>
<cascade>
  <stageType>BOOST</stageType>
  <featureType>HAAR</featureType>
  <height>20</height>
  <width>20</width>
  <stageParams>
    <boostType>GAB</boostType>
    <minHitRate>9.9900001287460327e-01</minHitRate>
    <maxFalseAlarm>5.0000000000000000e-01</maxFalseAlarm>
    <weightTrimRate>9.4999999999999996e-01</weightTrimRate>
    <maxDepth>1</maxDepth>
    <maxWeakCount>100</maxWeakCount></stageParams>
  <featureParams>
    <maxCatCount>0</maxCatCount>
    <featSize>1</featSize>
    <mode>ALL</mode></featureParams>
  <stageNum>20</stageNum>
  <stages>
    <!-- stage 0 -->
    <_>
      <maxWeakCount>19</maxWeakCount>
      <stageThreshold>-1.8605720996856689e+00</stageThreshold>
      <weakClassifiers>
        <_>
          <internalNodes>
            0 -1 274 -5.4874520748853683e-02</internalNodes>
          <leafValues>
            4.3739837408065796e-01 -6.9870132207870483e-01</leafValues></_>
        <_>
          <internalNodes>
            0 -1 193 -1.2358196824789047e-01</internalNodes>
          <leafValues>
            3.9685449004173279e-01 -2.9183068871498108e-01</leafValues></_>
        <_>
          <internalNodes>
            0 -1 602 -1.7903228290379047e-03</internalNodes>
          <leafValues>
            -7.0575743913650513e-01 1.5340594947338104e-01</leafValues></_>
        <_>
          <internalNodes>
            0 -1 557 -8.7225768947973847e-04</internalNodes>
          <leafValues>
            -5.8018290996551514e-01 2.0222131907939911e-01</leafValues></_>
        <_>
          <internalNodes>
            0 -1 415 -7.4765586759895086e-04</internalNodes>
          <leafValues>
            -5.4622280597686768e-01 1.5688443183898926e-01</leafValues></_>
        <_>
          <internalNodes>
            0 -1 654 6.7615974694490433e-04</internalNodes>
          <leafValues>
            1.3484711945056915e-01 -5.4022580385208130e-01</leafValues></_>
        <_>
          <internalNodes>
            0 -1 642 -2.7005919255316257e-03</internalNodes>
          <leafValues>
            -7.0030224323272705e-01 1.2166607379913330e-01</leafValues></_>
        <_>
          <internalNodes>
            0 -1 643 8.1064883852377534e-04</internalNodes>
          <leafValues>
            1.7833101749420166e-01 -5.1697778701782227e-01</leafValues></_>
        <_>
          <internalNodes>
            0 -1 375 3.3167324960231781e-02</internalNodes>
          <leafValues>
            -1.9477313756942749e-01 4.6250924468040466e-01</leafValues></_>
        <_>
          <internalNodes>
            0 -1 96 -9.6478976309299469e-02</internalNodes>
          <leafValues>
            6.6691404581069946e-01 -1.1544992774724960e-01</leafValues></_>
        <_>
          <internalNodes>
            0 -1 778 -3.1056560575962067e-02</internalNodes>
          <leafValues>
            5.5545741319656372e-01 -1.5013907849788666e-01</leafValues></_>
        <_>
          <internalNodes>
            0 -1 59 4.6109571121633053e-04</internalNodes>
          <leafValues>
            1.8472930788993835e-01 -4.3848553299903870e-01</leafValues></_>
        <_>
          <internalNodes>
            0 -1 59 -4.6026613563299179e-04</internalNodes>
          <leafValues>
            -4.5610442757606506e-01 1.8034052848815918e-01</leafValues></_>
        <_>
          <internalNodes>
            0 -1 338 1.9077148288488388e-02</internalNodes>
          <leafValues>
            1.1918264627456665e-01 -6.4957207441329956e-01</leafValues></_>
        <_>
          <internalNodes>
            0 -1 8 -2.6870870590209961e-01</internalNodes>
          <leafValues>
            -7.7287375926971436e-01 1.0081022977828979e-01</leafValues></_>
        <_>
          <internalNodes>
            0 -1 20 1.6675785183906555e-01</internalNodes>
          <leafValues>
            -1.4655041694641113e-01 5.7781010866165161e-01</leafValues></_>
        <_>
          <internalNodes>
            0 -1 712 8.5435167420655489e-04</internalNodes>
          <leafValues>
            1.5214398503303528e-01 -4.7417691349983215e-01</leafValues></_>
        <_>
          <internalNodes>
            0 -1 551 7.6886382885277271e-04</internalNodes>
          <leafValues>
            1.0402512550354004e-01 -7.1290862560272217e-01</leafValues></_>
        <_>
          <internalNodes>
            0 -1 561 1.1915968498215079e-03</internalNodes>
          <leafValues>
            1.3588863611221313e-01 -4.8833957314491272e-01</leafValues></_></weakClassifiers></_>
    <!-- stage 1 -->
    <_>
      <maxWeakCount>21</maxWeakCount>
      <stageThreshold>-1.9432226419448853e+00</stageThreshold>
      <weakClassifiers>
        <_>
          <internalNodes>
            0 -1 291 -1.7318263649940491e-02</internalNodes>
          <leafValues>
            4.7404450178146362e-01 -6.6639935970306396e-01</leafValues></_>
        <_>
          <internalNodes>
            0 -1 162 -1.5977451577782631e-02</internalNodes>
          <leafValues>
            4.8187637329101562e-01 -3.4406462311744690e-01</leafValues></_>
        <_>
          <internalNodes>
            0 -1 66 -5.3766146302223206e-02</internalNodes>
          <leafValues>
            -7.7955007553100586e-01 1.4846904575824738e-01</leafValues></_>
        <_>
          <internalNodes>
            0 -1 265 1.4350479841232300e-01</internalNodes>
          <leafValues>
            1.6540387272834778e-01 -7.0067244768142700e-01</leafValues></_>
        <_>
          <internalNodes>
            0 -1 185 -1.8018435686826706e-02</internalNodes>
          <leafValues>
            5.9080499410629272e-01 -1.5254585444927216e-01</leafValues></_>
        <_>
          <internalNodes>
            0 -1 726 1.2604491785168648e-02</internalNodes>
          <leafValues>
            -2.0178700983524323e-01 4.1064870357513428e-01</leafValues></_>
        <_>
          <internalNodes>
            0 -1 70 1.7259067296981812e-01</internalNodes>
          <leafValues>
            1.7519378662109375e-01 -5.5785143375396729e-01</leafValues></_>
        <_>
          <internalNodes>
            0 -1 47 -1.8584372103214264e-01</internalNodes>
          <leafValues>
            -7.0276963710784912e-01 9.5833636820316315e-02</leafValues></_>
        <_>
          <internalNodes>
            0 -1 863 2.7283274102956057e-03</internalNodes>
          <leafValues>
            -1.5320843458175659e-01 7.4361604452133179e-01</leafValues></_>
        <_>
          <internalNodes>
            0 -1 649 -3.6107930354773998e-03</internalNodes>
          <leafValues>
            7.1208614110946655e-01 -4.4249486178159714e-02</leafValues></_>
        <_>
          <internalNodes>
            0 -1 518 4.0106372907757759e-03</internalNodes>
          <leafValues>
            -8.6226440966129303e-02 6.7191928625106812e-01</leafValues></_>
        <_>
          <internalNodes>
            0 -1 281 1.3281412422657013e-02</internalNodes>
          <leafValues>
            1.3006022572517395e-01 -5.1629012823104858e-01</leafValues></_>
        <_>
          <internalNodes>
            0 -1 456 8.4979131817817688e-02</internalNodes>
          <leafValues>
            1.0142228007316589e-01 -5.9768939018249512e-01</leafValues></_>
        <_>
          <internalNodes>
            0 -1 390 -5.6982655078172684e-02</internalNodes>
          <leafValues>
            -7.5115758180618286e-01 9.4564378261566162e-02</leafValues></_>
        <_>
          <internalNodes>
            0 -1 387 -5.4500319063663483e-02</internalNodes>
          <leafValues>
            -6.2433570623397827e-01 9.3480773270130157e-02</leafValues></_>
        <_>
          <internalNodes>
            0 -1 400 1.6482193022966385e-02</internalNodes>
          <leafValues>
            9.9356427788734436e-02 -6.7190837860107422e-01</leafValues></_>
        <_>
          <internalNodes>
            0 -1 521 -4.8728496767580509e-03</internalNodes>
          <leafValues>
            7.2423738241195679e-01 -1.1464894562959671e-01</leafValues></_>
        <_>
          <internalNodes>
            0 -1 319 4.0703840553760529e-02</internalNodes>
          <leafValues>
            -9.1975681483745575e-02 5.2316004037857056e-01</leafValues></_>
        <_>
          <internalNodes>
            0 -1 825 -4.5973975211381912e-03</internalNodes>
          <leafValues>
            7.4849027395248413e-01 -9.1498807072639465e-02</leafValues></_>
        <_>
          <internalNodes>
            0 -1 26 2.6642195880413055e-02</internalNodes>
          <leafValues>
            -1.1777879297733307e-01 4.3544232845306396e-01</leafValues></_>
        <_>
          <internalNodes>
            0 -1 190 -4.4410757720470428e-02</internalNodes>
          <leafValues>
            5.9599840641021729e-01 -1.1654733121395111e-01</leafValues></_></weakClassifiers></_>
    <!-- stage 2 -->
    <_>
      <maxWeakCount>21</maxWeakCount>
      <stageThreshold>-1.8897976875305176e+00</stageThreshold>
      <weakClassifiers>
        <_>
          <internalNodes>
            0 -1 178 -1.5466199256479740e-02</internalNodes>
          <leafValues>
            4.7896721959114075e-01 -6.4669018983840942e-01</leafValues></_>
        <_>
          <internalNodes>
            0 -1 800 -1.3372672721743584e-02</internalNodes>
          <leafValues>
            5.3722983598709106e-01 -2.7266737818717957e-01</leafValues></_>
        <_>
          <internalNodes>
            0 -1 512 6.8029193207621574e-03</internalNodes>
          <leafValues>
            -3.9232611656188965e-01 3.2714217901229858e-01</leafValues></_>
        <_>
          <internalNodes>
            0 -1 185 -1.1368241161108017e-02</internalNodes>
          <leafValues>
            5.6724309921264648e-01 -1.8728931248188019e-01</leafValues></_>
        <_>
          <internalNodes>
            0 -1 868 5.6987438350915909e-02</internalNodes>
          <leafValues>
            1.3193520903587341e-01 -7.7069109678268433e-01</leafValues></_>
        <_>
          <internalNodes>
            0 -1 344 -1.7185506294481456e-04</internalNodes>
          <leafValues>
            2.6377564668655396e-01 -3.5881561040878296e-01</leafValues></_>
        <_>
          <internalNodes>
            0 -1 739 -2.4003896862268448e-02</internalNodes>
          <leafValues>
            5.6394767761230469e-01 -1.6044083237648010e-01</leafValues></_>
        <_>
          <internalNodes>
            0 -1 432 -1.4664807356894016e-02</internalNodes>
          <leafValues>
            3.8635426759719849e-01 -2.1268892288208008e-01</leafValues></_>
        <_>
          <internalNodes>
            0 -1 74 6.9771893322467804e-05</internalNodes>
          <leafValues>
            -2.9969257116317749e-01 2.9111966490745544e-01</leafValues></_>
        <_>
          <internalNodes>
            0 -1 13 1.8386149406433105e-01</internalNodes>
          <leafValues>
            -1.3911782205104828e-01 5.8628416061401367e-01</leafValues></_>
        <_>
          <internalNodes>
            0 -1 28 -2.1171152591705322e-02</internalNodes>
          <leafValues>
            5.1215499639511108e-01 -1.3528434932231903e-01</leafValues></_>
        <_>
          <internalNodes>
            0 -1 29 -2.5702252984046936e-01</internalNodes>
          <leafValues>
            -6.8266803026199341e-01 1.3419596850872040e-01</leafValues></_>
        <_>
          <internalNodes>
            0 -1 301 2.4389166384935379e-02</internalNodes>
          <leafValues>
            -1.4297606050968170e-01 6.5110546350479126e-01</leafValues></_>
        <_>
          <internalNodes>
            0 -1 329 -4.5067310333251953e-02</internalNodes>
          <leafValues>
            4.4442439079284668e-01 -1.2959046661853790e-01</leafValues></_>
        <_>
          <internalNodes>
            0 -1 257 -6.3365340232849121e-02</internalNodes>
          <leafValues>
            7.2073382139205933e-01 -1.0494748502969742e-01</leafValues></_>
        <_>
          <internalNodes>
            0 -1 801 -2.7886533644050360e-05</internalNodes>
          <leafValues>
            2.8659605979919434e-01 -2.4435667693614960e-01</leafValues></_>
        <_>
          <internalNodes>
            0 -1 80 3.2972745597362518e-02</internalNodes>
          <leafValues>
            1.0244391858577728e-01 -7.4192571640014648e-01</leafValues></_>
        <_>
          <internalNodes>
            0 -1 513 7.6383827254176140e-03</internalNodes>
          <leafValues>
            -1.6664236783981323e-01 4.3886885046958923e-01</leafValues></_>
        <_>
          <internalNodes>
            0 -1 88 -2.5125775486230850e-02</internalNodes>
          <leafValues>
            -7.0462721586227417e-01 9.2704147100448608e-02</leafValues></_>
        <_>
          <internalNodes>
            0 -1 571 -7.9891551285982132e-03</internalNodes>
          <leafValues>
            5.1573419570922852e-01 -1.3705617189407349e-01</leafValues></_>
        <_>
          <internalNodes>
            0 -1 609 1.3360442826524377e-03</internalNodes>
          <leafValues>
            8.6022302508354187e-02 -7.4773812294006348e-01</leafValues></_></weakClassifiers></_>
    <!-- stage 3 -->
    <_>
      <maxWeakCount>26</maxWeakCount>
      <stageThreshold>-1.7931395769119263e+00</stageThreshold>
      <weakClassifiers>
        <_>
          <internalNodes>
            0 -1 267 -1.8774998188018799e-01</internalNodes>
          <leafValues>
            5.5147647857666016e-01 -3.9553520083427429e-01</leafValues></_>
        <_>
          <internalNodes>
            0 -1 600 -1.0936439037322998e-02</internalNodes>
          <leafValues>
            3.7841060757637024e-01 -2.9962363839149475e-01</leafValues></_>
        <_>
          <internalNodes>
            0 -1 643 -1.1112773790955544e-03</internalNodes>
          <leafValues>
            -8.2870537042617798e-01 1.3967715203762054e-01</leafValues></_>
        <_>
          <internalNodes>
            0 -1 228 4.0954314172267914e-02</internalNodes>
          <leafValues>
            -2.0295564830303192e-01 5.6448894739151001e-01</leafValues></_>
        <_>
          <internalNodes>
            0 -1 353 -1.7643984407186508e-02</internalNodes>
          <leafValues>
            2.3580546677112579e-01 -3.4367889165878296e-01</leafValues></_>
        <_>
          <internalNodes>
            0 -1 467 -1.2448966503143311e-02</internalNodes>
          <leafValues>
            3.8972723484039307e-01 -2.2115159034729004e-01</leafValues></_>
        <_>
          <internalNodes>
            0 -1 420 -3.5113349556922913e-02</internalNodes>
          <leafValues>
            3.9153888821601868e-01 -2.6769360899925232e-01</leafValues></_>
        <_>
          <internalNodes>
            0 -1 614 -9.9820597097277641e-04</internalNodes>
          <leafValues>
            -7.2201657295227051e-01 1.2700459361076355e-01</leafValues></_>
        <_>
          <internalNodes>
            0 -1 397 2.1746477112174034e-02</internalNodes>
          <leafValues>
            -1.8238544464111328e-01 5.4806166887283325e-01</leafValues></_>
        <_>
          <internalNodes>
            0 -1 139 3.4682616591453552e-02</internalNodes>
          <leafValues>
            -1.1421662569046021e-01 6.5638792514801025e-01</leafValues></_>
        <_>
          <internalNodes>
            0 -1 802 -2.2804629057645798e-02</internalNodes>
          <leafValues>
            5.2202773094177246e-01 -1.4442870020866394e-01</leafValues></_>
        <_>
          <internalNodes>
            0 -1 644 9.9973322357982397e-04</internalNodes>
          <leafValues>
            1.6312815248966217e-01 -4.8710057139396667e-01</leafValues></_>
        <_>
          <internalNodes>
            0 -1 531 -2.8397321701049805e-02</internalNodes>
          <leafValues>
            3.8011571764945984e-01 -2.4430571496486664e-01</leafValues></_>
        <_>
          <internalNodes>
            0 -1 509 8.3936145529150963e-03</internalNodes>
          <leafValues>
            1.0694198310375214e-01 -6.1101067066192627e-01</leafValues></_>
        <_>
          <internalNodes>
            0 -1 742 -9.0212444774806499e-04</internalNodes>
          <leafValues>
            -4.6126177906990051e-01 1.2684676051139832e-01</leafValues></_>
        <_>
          <internalNodes>
            0 -1 384 -1.1305768042802811e-02</internalNodes>
          <leafValues>
            3.8261601328849792e-01 -1.7608053982257843e-01</leafValues></_>
        <_>
          <internalNodes>
            0 -1 260 -1.6556188464164734e-02</internalNodes>
          <leafValues>
            3.7957781553268433e-01 -1.7918340861797333e-01</leafValues></_>
        <_>
          <internalNodes>
            0 -1 115 -9.6205121371895075e-04</internalNodes>
          <leafValues>
            -4.8047137260437012e-01 1.4571528136730194e-01</leafValues></_>
        <_>
          <internalNodes>
            0 -1 355 -4.1806392371654510e-02</internalNodes>
          <leafValues>
            5.5671268701553345e-01 -1.3223592936992645e-01</leafValues></_>
        <_>
          <internalNodes>
            0 -1 119 -4.5775342732667923e-03</internalNodes>
          <leafValues>
            3.0760151147842407e-01 -2.3464204370975494e-01</leafValues></_>
        <_>
          <internalNodes>
            0 -1 563 -8.3732348866760731e-04</internalNodes>
          <leafValues>
            -4.8139885067939758e-01 1.2676009535789490e-01</leafValues></_>
        <_>
          <internalNodes>
            0 -1 9 -3.8615858554840088e-01</internalNodes>
          <leafValues>
            -6.9603204727172852e-01 7.8018002212047577e-02</leafValues></_>
        <_>
          <internalNodes>
            0 -1 818 -4.5281101018190384e-02</internalNodes>
          <leafValues>
            4.8256373405456543e-01 -1.2854224443435669e-01</leafValues></_>
        <_>
          <internalNodes>
            0 -1 779 -2.6117235422134399e-02</internalNodes>
          <leafValues>
            3.2645192742347717e-01 -1.9540366530418396e-01</leafValues></_>
        <_>
          <internalNodes>
            0 -1 868 5.2175145596265793e-02</internalNodes>
          <leafValues>
            1.0654188692569733e-01 -5.7817149162292480e-01</leafValues></_>
        <_>
          <internalNodes>
            0 -1 161 7.6171447290107608e-04</internalNodes>
          <leafValues>
            1.2183910608291626e-01 -4.5855522155761719e-01</leafValues></_></weakClassifiers></_>
    <!-- stage 4 -->
    <_>
      <maxWeakCount>18</maxWeakCount>
      <stageThreshold>-1.8143588304519653e+00</stageThreshold>
      <weakClassifiers>
        <_>
          <internalNodes>
            0 -1 470 -7.8585833311080933e-02</internalNodes>
          <leafValues>
            5.4006677865982056e-01 -3.5904550552368164e-01</leafValues></_>
        <_>
          <internalNodes>
            0 -1 97 1.7461907863616943e-01</internalNodes>
          <leafValues>
            -1.7907729744911194e-01 7.4187266826629639e-01</leafValues></_>
        <_>
          <internalNodes>
            0 -1 681 -1.0771154193207622e-03</internalNodes>
          <leafValues>
            -7.5344812870025635e-01 1.8011070787906647e-01</leafValues></_>
        <_>
          <internalNodes>
            0 -1 64 -1.1119218170642853e-01</internalNodes>
          <leafValues>
            7.4344378709793091e-01 -1.9847677648067474e-01</leafValues></_>
        <_>
          <internalNodes>
            0 -1 616 -1.1194095714017749e-03</internalNodes>
          <leafValues>
            -7.7654057741165161e-01 2.5147065520286560e-01</leafValues></_>
        <_>
          <internalNodes>
            0 -1 616 1.0964462999254465e-03</internalNodes>
          <leafValues>
            9.3477204442024231e-02 -7.0174717903137207e-01</leafValues></_>
        <_>
          <internalNodes>
            0 -1 475 -9.9338712170720100e-03</internalNodes>
          <leafValues>
            3.7752002477645874e-01 -3.4808441996574402e-01</leafValues></_>
        <_>
          <internalNodes>
            0 -1 392 5.2716672420501709e-02</internalNodes>
          <leafValues>
            -1.3037544488906860e-01 7.7129650115966797e-01</leafValues></_>
        <_>
          <internalNodes>
            0 -1 502 1.1384984245523810e-03</internalNodes>
          <leafValues>
            1.3874875009059906e-01 -7.9408276081085205e-01</leafValues></_>
        <_>
          <internalNodes>
            0 -1 502 -1.0679860133677721e-03</internalNodes>
          <leafValues>
            -5.4377382993698120e-01 1.7100445926189423e-01</leafValues></_>
        <_>
          <internalNodes>
            0 -1 285 -5.8258578181266785e-02</internalNodes>
          <leafValues>
            2.7729272842407227e-01 -3.9679789543151855e-01</leafValues></_>
        <_>
          <internalNodes>
            0 -1 527 -1.6778023913502693e-02</internalNodes>
          <leafValues>
            4.3938109278678894e-01 -2.1496894955635071e-01</leafValues></_>
        <_>
          <internalNodes>
            0 -1 147 9.6447914838790894e-02</internalNodes>
          <leafValues>
            -1.8660911917686462e-01 5.7410043478012085e-01</leafValues></_>
        <_>
          <internalNodes>
            0 -1 609 -1.0313104139640927e-03</internalNodes>
          <leafValues>
            -5.5914771556854248e-01 2.0166330039501190e-01</leafValues></_>
        <_>
          <internalNodes>
            0 -1 482 -1.1661199387162924e-03</internalNodes>
          <leafValues>
            -6.2041682004928589e-01 1.2542234361171722e-01</leafValues></_>
        <_>
          <internalNodes>
            0 -1 358 -1.5276273712515831e-02</internalNodes>
          <leafValues>
            3.9026066660881042e-01 -2.3615507781505585e-01</leafValues></_>
        <_>
          <internalNodes>
            0 -1 135 -6.1334893107414246e-02</internalNodes>
          <leafValues>
            6.6366374492645264e-01 -1.6592341661453247e-01</leafValues></_>
        <_>
          <internalNodes>
            0 -1 609 1.2833846267312765e-03</internalNodes>
          <leafValues>
            1.2512098252773285e-01 -8.0570930242538452e-01</leafValues></_></weakClassifiers></_>
    <!-- stage 5 -->
    <_>
      <maxWeakCount>24</maxWeakCount>
      <stageThreshold>-1.5813342332839966e+00</stageThreshold>
      <weakClassifiers>
        <_>
          <internalNodes>
            0 -1 555 -1.0563742835074663e-03</internalNodes>
          <leafValues>
            -6.6556507349014282e-01 2.2442612051963806e-01</leafValues></_>
        <_>
          <internalNodes>
            0 -1 485 -3.1068004667758942e-02</internalNodes>
          <leafValues>
            2.5845643877983093e-01 -4.6399345993995667e-01</leafValues></_>
        <_>
          <internalNodes>
            0 -1 557 -1.0720938444137573e-03</internalNodes>
          <leafValues>
            -7.4454963207244873e-01 2.2200801968574524e-01</leafValues></_>
        <_>
          <internalNodes>
            0 -1 557 -4.1113533370662481e-05</internalNodes>
          <leafValues>
            4.2970436811447144e-01 -2.8401589393615723e-01</leafValues></_>
        <_>
          <internalNodes>
            0 -1 557 4.2783602111740038e-05</internalNodes>
          <leafValues>
            -3.1965726613998413e-01 4.3393528461456299e-01</leafValues></_>
        <_>
          <internalNodes>
            0 -1 557 1.0720526333898306e-03</internalNodes>
          <leafValues>
            1.8320329487323761e-01 -6.9224137067794800e-01</leafValues></_>
        <_>
          <internalNodes>
            0 -1 555 -1.6910853446461260e-05</internalNodes>
          <leafValues>
            3.7399560213088989e-01 -3.1954848766326904e-01</leafValues></_>
        <_>
          <internalNodes>
            0 -1 198 -6.7988254129886627e-02</internalNodes>
          <leafValues>
            3.3250150084495544e-01 -3.5481664538383484e-01</leafValues></_>
        <_>
          <internalNodes>
            0 -1 141 1.3728794455528259e-01</internalNodes>
          <leafValues>
            -1.1029125005006790e-01 7.4763232469558716e-01</leafValues></_>
        <_>
          <internalNodes>
            0 -1 12 -3.2699260115623474e-01</internalNodes>
          <leafValues>
            7.5144445896148682e-01 -1.2900173664093018e-01</leafValues></_>
        <_>
          <internalNodes>
            0 -1 423 9.6572929760441184e-04</internalNodes>
          <leafValues>
            1.7390170693397522e-01 -6.5141010284423828e-01</leafValues></_>
        <_>
          <internalNodes>
            0 -1 489 -9.5221435185521841e-04</internalNodes>
          <leafValues>
            -6.2622326612472534e-01 1.1448861658573151e-01</leafValues></_>
        <_>
          <internalNodes>
            0 -1 489 1.2425620807334781e-03</internalNodes>
          <leafValues>
            1.2423848360776901e-01 -6.7033344507217407e-01</leafValues></_>
        <_>
          <internalNodes>
            0 -1 501 -1.5101848170161247e-02</internalNodes>
          <leafValues>
            2.9035383462905884e-01 -3.2007998228073120e-01</leafValues></_>
        <_>
          <internalNodes>
            0 -1 90 -8.5644654929637909e-02</internalNodes>
          <leafValues>
            6.1961275339126587e-01 -1.5163658559322357e-01</leafValues></_>
        <_>
          <internalNodes>
            0 -1 793 -1.0274384170770645e-02</internalNodes>
          <leafValues>
            3.0249881744384766e-01 -2.5906643271446228e-01</leafValues></_>
        <_>
          <internalNodes>
            0 -1 564 -1.0357762221246958e-03</internalNodes>
          <leafValues>
            -5.9166103601455688e-01 1.6243074834346771e-01</leafValues></_>
        <_>
          <internalNodes>
            0 -1 564 -1.7824477254180238e-05</internalNodes>
          <leafValues>
            3.2272985577583313e-01 -2.4353903532028198e-01</leafValues></_>
        <_>
          <internalNodes>
            0 -1 823 -4.2966336011886597e-02</internalNodes>
          <leafValues>
            5.8723294734954834e-01 -1.3656209409236908e-01</leafValues></_>
        <_>
          <internalNodes>
            0 -1 350 -1.0108656715601683e-03</internalNodes>
          <leafValues>
            -4.5277976989746094e-01 1.6318821907043457e-01</leafValues></_>
        <_>
          <internalNodes>
            0 -1 471 -2.3507494479417801e-02</internalNodes>
          <leafValues>
            3.9956590533256531e-01 -1.8244010210037231e-01</leafValues></_>
        <_>
          <internalNodes>
            0 -1 477 2.8974778950214386e-02</internalNodes>
          <leafValues>
            -9.6347145736217499e-02 7.0954561233520508e-01</leafValues></_>
        <_>
          <internalNodes>
            0 -1 673 9.6351106185466051e-04</internalNodes>
          <leafValues>
            1.3296127319335938e-01 -6.1762470006942749e-01</leafValues></_>
        <_>
          <internalNodes>
            0 -1 506 3.5946301068179309e-05</internalNodes>
          <leafValues>
            -2.2041165828704834e-01 3.1239205598831177e-01</leafValues></_></weakClassifiers></_>
    <!-- stage 6 -->
    <_>
      <maxWeakCount>41</maxWeakCount>
      <stageThreshold>-1.6252313852310181e+00</stageThreshold>
      <weakClassifiers>
        <_>
          <internalNodes>
            0 -1 121 -5.1273800432682037e-02</internalNodes>
          <leafValues>
            3.5795834660530090e-01 -3.5274651646614075e-01</leafValues></_>
        <_>
          <internalNodes>
            0 -1 711 1.5827282331883907e-03</internalNodes>
          <leafValues>
            1.6456452012062073e-01 -4.4105017185211182e-01</leafValues></_>
        <_>
          <internalNodes>
            0 -1 300 -9.4162672758102417e-03</internalNodes>
          <leafValues>
            1.6896329820156097e-01 -4.8307281732559204e-01</leafValues></_>
        <_>
          <internalNodes>
            0 -1 615 1.0757811833173037e-03</internalNodes>
          <leafValues>
            1.3947324454784393e-01 -4.7151476144790649e-01</leafValues></_>
        <_>
          <internalNodes>
            0 -1 681 8.6165242828428745e-04</internalNodes>
          <leafValues>
            1.6208049654960632e-01 -4.0136337280273438e-01</leafValues></_>
        <_>
          <internalNodes>
            0 -1 455 -1.0701926425099373e-02</internalNodes>
          <leafValues>
            3.2499691843986511e-01 -2.0345371961593628e-01</leafValues></_>
        <_>
          <internalNodes>
            0 -1 349 -2.4222908541560173e-03</internalNodes>
          <leafValues>
            1.3424710929393768e-01 -3.9397445321083069e-01</leafValues></_>
        <_>
          <internalNodes>
            0 -1 342 9.4034530222415924e-02</internalNodes>
          <leafValues>
            9.9178932607173920e-02 -7.6505011320114136e-01</leafValues></_>
        <_>
          <internalNodes>
            0 -1 242 -1.8595591187477112e-02</internalNodes>
          <leafValues>
            4.0876045823097229e-01 -1.4708445966243744e-01</leafValues></_>
        <_>
          <internalNodes>
            0 -1 1 -5.2749481983482838e-04</internalNodes>
          <leafValues>
            -4.2848598957061768e-01 1.1046118289232254e-01</leafValues></_>
        <_>
          <internalNodes>
            0 -1 1 4.4949539005756378e-04</internalNodes>
          <leafValues>
            1.3958744704723358e-01 -3.8676559925079346e-01</leafValues></_>
        <_>
          <internalNodes>
            0 -1 743 -3.7870614323765039e-03</internalNodes>
          <leafValues>
            6.2236201763153076e-01 -7.6057516038417816e-02</leafValues></_>
        <_>
          <internalNodes>
            0 -1 558 -1.1146622709929943e-03</internalNodes>
          <leafValues>
            -5.5458080768585205e-01 8.9266791939735413e-02</leafValues></_>
        <_>
          <internalNodes>
            0 -1 229 -7.1577941998839378e-03</internalNodes>
          <leafValues>
            2.5034815073013306e-01 -2.2468844056129456e-01</leafValues></_>
        <_>
          <internalNodes>
            0 -1 863 3.0011944472789764e-03</internalNodes>
          <leafValues>
            -6.8466886878013611e-02 6.5542876720428467e-01</leafValues></_>
        <_>
          <internalNodes>
            0 -1 413 -3.0361453536897898e-03</internalNodes>
          <leafValues>
            2.3987853527069092e-01 -2.2262145578861237e-01</leafValues></_>
        <_>
          <internalNodes>
            0 -1 494 -1.1473984923213720e-03</internalNodes>
          <leafValues>
            -5.4163569211959839e-01 8.2318559288978577e-02</leafValues></_>
        <_>
          <internalNodes>
            0 -1 399 9.9910739809274673e-03</internalNodes>
          <leafValues>
            -1.3495795428752899e-01 4.6273070573806763e-01</leafValues></_>
        <_>
          <internalNodes>
            0 -1 83 2.1613499149680138e-02</internalNodes>
          <leafValues>
            9.9092841148376465e-02 -5.0121891498565674e-01</leafValues></_>
        <_>
          <internalNodes>
            0 -1 691 -3.9875898510217667e-03</internalNodes>
          <leafValues>
            5.6722325086593628e-01 -8.4547132253646851e-02</leafValues></_>
        <_>
          <internalNodes>
            0 -1 461 4.2129042558372021e-03</internalNodes>
          <leafValues>
            -7.9285301268100739e-02 5.5989265441894531e-01</leafValues></_>
        <_>
          <internalNodes>
            0 -1 534 4.4392249546945095e-03</internalNodes>
          <leafValues>
            -7.2000309824943542e-02 6.2125694751739502e-01</leafValues></_>
        <_>
          <internalNodes>
            0 -1 844 -1.1963086202740669e-02</internalNodes>
          <leafValues>
            4.7849357128143311e-01 -9.0790852904319763e-02</leafValues></_>
        <_>
          <internalNodes>
            0 -1 463 -2.7044735848903656e-02</internalNodes>
          <leafValues>
            -6.6264194250106812e-01 6.8701229989528656e-02</leafValues></_>
        <_>
          <internalNodes>
            0 -1 32 -3.6984863691031933e-03</internalNodes>
          <leafValues>
            4.7441139817237854e-01 -1.0226450860500336e-01</leafValues></_>
        <_>
          <internalNodes>
            0 -1 32 3.3314069733023643e-03</internalNodes>
          <leafValues>
            -8.7771065533161163e-02 5.4283833503723145e-01</leafValues></_>
        <_>
          <internalNodes>
            0 -1 36 1.9312832504510880e-02</internalNodes>
          <leafValues>
            1.0832674056291580e-01 -4.9088907241821289e-01</leafValues></_>
        <_>
          <internalNodes>
            0 -1 79 -5.7101260870695114e-02</internalNodes>
          <leafValues>
            -6.0347688198089600e-01 9.2443786561489105e-02</leafValues></_>
        <_>
          <internalNodes>
            0 -1 649 -3.3765507396310568e-03</internalNodes>
          <leafValues>
            4.9715712666511536e-01 -1.0453099757432938e-01</leafValues></_>
        <_>
          <internalNodes>
            0 -1 530 -6.3112885691225529e-03</internalNodes>
          <leafValues>
            2.9412198066711426e-01 -1.6155819594860077e-01</leafValues></_>
        <_>
          <internalNodes>
            0 -1 94 6.4673513174057007e-02</internalNodes>
          <leafValues>
            -8.4937728941440582e-02 5.9977400302886963e-01</leafValues></_>
        <_>
          <internalNodes>
            0 -1 264 7.5785806402564049e-03</internalNodes>
          <leafValues>
            -1.3108806312084198e-01 3.8030964136123657e-01</leafValues></_>
        <_>
          <internalNodes>
            0 -1 464 -1.2522909091785550e-03</internalNodes>
          <leafValues>
            -5.3649258613586426e-01 1.0133751481771469e-01</leafValues></_>
        <_>
          <internalNodes>
            0 -1 383 -4.9848137423396111e-03</internalNodes>
          <leafValues>
            6.1825203895568848e-01 -8.6304776370525360e-02</leafValues></_>
        <_>
          <internalNodes>
            0 -1 490 -9.3971489695832133e-04</internalNodes>
          <leafValues>
            -4.0651196241378784e-01 1.2535919249057770e-01</leafValues></_>
        <_>
          <internalNodes>
            0 -1 548 -3.2021473161876202e-03</internalNodes>
          <leafValues>
            1.6193765401840210e-01 -2.8852522373199463e-01</leafValues></_>
        <_>
          <internalNodes>
            0 -1 205 -3.5469390451908112e-02</internalNodes>
          <leafValues>
            3.0059307813644409e-01 -1.9392886757850647e-01</leafValues></_>
        <_>
          <internalNodes>
            0 -1 674 -7.0936852134764194e-03</internalNodes>
          <leafValues>
            -5.2768629789352417e-01 1.1069404333829880e-01</leafValues></_>
        <_>
          <internalNodes>
            0 -1 680 8.7798270396888256e-04</internalNodes>
          <leafValues>
            1.3100206851959229e-01 -4.1508793830871582e-01</leafValues></_>
        <_>
          <internalNodes>
            0 -1 604 -5.4870843887329102e-03</internalNodes>
          <leafValues>
            1.9464522600173950e-01 -2.7252247929573059e-01</leafValues></_>
        <_>
          <internalNodes>
            0 -1 808 -1.0468471795320511e-02</internalNodes>
          <leafValues>
            4.1015997529029846e-01 -1.4075767993927002e-01</leafValues></_></weakClassifiers></_>
    <!-- stage 7 -->
    <_>
      <maxWeakCount>41</maxWeakCount>
      <stageThreshold>-1.5264556407928467e+00</stageThreshold>
      <weakClassifiers>
        <_>
          <internalNodes>
            0 -1 729 -1.6450192779302597e-02</internalNodes>
          <leafValues>
            2.7630180120468140e-01 -4.6511629223823547e-01</leafValues></_>
        <_>
          <internalNodes>
            0 -1 800 -1.2466046959161758e-02</internalNodes>
          <leafValues>
            4.2958188056945801e-01 -2.8821411728858948e-01</leafValues></_>
        <_>
          <internalNodes>
            0 -1 636 -1.1515839025378227e-02</internalNodes>
          <leafValues>
            2.5995779037475586e-01 -3.1475293636322021e-01</leafValues></_>
        <_>
          <internalNodes>
            0 -1 316 9.0504482388496399e-02</internalNodes>
          <leafValues>
            -7.0223897695541382e-02 6.7644685506820679e-01</leafValues></_>
        <_>
          <internalNodes>
            0 -1 243 -1.0683318600058556e-02</internalNodes>
          <leafValues>
            2.8514239192008972e-01 -2.3376141488552094e-01</leafValues></_>
        <_>
          <internalNodes>
            0 -1 312 6.8917372263967991e-03</internalNodes>
          <leafValues>
            -1.1725728213787079e-01 4.3856951594352722e-01</leafValues></_>
        <_>
          <internalNodes>
            0 -1 847 1.0353406891226768e-02</internalNodes>
          <leafValues>
            -1.3198111951351166e-01 4.4791361689567566e-01</leafValues></_>
        <_>
          <internalNodes>
            0 -1 195 -1.7501479387283325e-01</internalNodes>
          <leafValues>
            -5.6385779380798340e-01 9.0542890131473541e-02</leafValues></_>
        <_>
          <internalNodes>
            0 -1 284 -2.3017119616270065e-02</internalNodes>
          <leafValues>
            1.6800524294376373e-01 -3.1770953536033630e-01</leafValues></_>
        <_>
          <internalNodes>
            0 -1 682 6.0199247673153877e-04</internalNodes>
          <leafValues>
            1.5320117771625519e-01 -3.3010327816009521e-01</leafValues></_>
        <_>
          <internalNodes>
            0 -1 16 -3.5368597507476807e-01</internalNodes>
          <leafValues>
            -8.4499990940093994e-01 4.6446587890386581e-02</leafValues></_>
        <_>
          <internalNodes>
            0 -1 846 5.3604599088430405e-02</internalNodes>
          <leafValues>
            5.1559321582317352e-02 -8.9893126487731934e-01</leafValues></_>
        <_>
          <internalNodes>
            0 -1 468 -2.7435403317213058e-02</internalNodes>
          <leafValues>
            -7.0094054937362671e-01 5.8071311563253403e-02</leafValues></_>
        <_>
          <internalNodes>
            0 -1 432 -1.2710491195321083e-02</internalNodes>
          <leafValues>
            2.2734408080577850e-01 -2.0352596044540405e-01</leafValues></_>
        <_>
          <internalNodes>
            0 -1 163 -1.0565884411334991e-02</internalNodes>
          <leafValues>
            2.2176294028759003e-01 -2.2981068491935730e-01</leafValues></_>
        <_>
          <internalNodes>
            0 -1 749 6.0881394892930984e-04</internalNodes>
          <leafValues>
            1.3661383092403412e-01 -3.4602203965187073e-01</leafValues></_>
        <_>
          <internalNodes>
            0 -1 573 3.7740305997431278e-03</internalNodes>
          <leafValues>
            -9.0973295271396637e-02 5.1276892423629761e-01</leafValues></_>
        <_>
          <internalNodes>
            0 -1 751 3.7957327440381050e-03</internalNodes>
          <leafValues>
            -7.8678913414478302e-02 5.1735359430313110e-01</leafValues></_>
        <_>
          <internalNodes>
            0 -1 664 -4.1545061394572258e-03</internalNodes>
          <leafValues>
            6.0711824893951416e-01 -6.6537529230117798e-02</leafValues></_>
        <_>
          <internalNodes>
            0 -1 614 9.2633219901472330e-04</internalNodes>
          <leafValues>
            9.8359689116477966e-02 -4.5203775167465210e-01</leafValues></_>
        <_>
          <internalNodes>
            0 -1 714 6.2955275643616915e-04</internalNodes>
          <leafValues>
            1.3066397607326508e-01 -3.2988691329956055e-01</leafValues></_>
        <_>
          <internalNodes>
            0 -1 528 1.6553726047277451e-02</internalNodes>
          <leafValues>
            -1.1910212785005569e-01 3.7090510129928589e-01</leafValues></_>
        <_>
          <internalNodes>
            0 -1 529 -1.0879697278141975e-02</internalNodes>
          <leafValues>
            3.4919780492782593e-01 -1.4467310905456543e-01</leafValues></_>
        <_>
          <internalNodes>
            0 -1 72 -3.3718220947775990e-05</internalNodes>
          <leafValues>
            1.8146361410617828e-01 -2.6871773600578308e-01</leafValues></_>
        <_>
          <internalNodes>
            0 -1 129 -1.4465566724538803e-02</internalNodes>
          <leafValues>
            -7.7871352434158325e-01 6.0116596519947052e-02</leafValues></_>
        <_>
          <internalNodes>
            0 -1 48 -4.0440354496240616e-03</internalNodes>
          <leafValues>
            5.0387930870056152e-01 -1.0121981799602509e-01</leafValues></_>
        <_>
          <internalNodes>
            0 -1 433 -1.9952368456870317e-03</internalNodes>
          <leafValues>
            1.7576827108860016e-01 -2.7102279663085938e-01</leafValues></_>
        <_>
          <internalNodes>
            0 -1 688 -4.1825605876510963e-05</internalNodes>
          <leafValues>
            2.7679196000099182e-01 -2.0597442984580994e-01</leafValues></_>
        <_>
          <internalNodes>
            0 -1 352 -4.6147175133228302e-02</internalNodes>
          <leafValues>
            -6.7482787370681763e-01 6.1347633600234985e-02</leafValues></_>
        <_>
          <internalNodes>
            0 -1 839 6.3957218080759048e-03</internalNodes>
          <leafValues>
            -1.5151768922805786e-01 2.7244442701339722e-01</leafValues></_>
        <_>
          <internalNodes>
            0 -1 500 -3.8845821109134704e-05</internalNodes>
          <leafValues>
            1.6689988970756531e-01 -2.7310451865196228e-01</leafValues></_>
        <_>
          <internalNodes>
            0 -1 73 -1.3704508543014526e-01</internalNodes>
          <leafValues>
            -6.0466998815536499e-01 6.8675361573696136e-02</leafValues></_>
        <_>
          <internalNodes>
            0 -1 515 3.9764251559972763e-03</internalNodes>
          <leafValues>
            -9.0525910258293152e-02 5.0523400306701660e-01</leafValues></_>
        <_>
          <internalNodes>
            0 -1 515 -3.5952338948845863e-03</internalNodes>
          <leafValues>
            4.9493214488029480e-01 -8.0065131187438965e-02</leafValues></_>
        <_>
          <internalNodes>
            0 -1 386 2.1628843620419502e-02</internalNodes>
          <leafValues>
            1.0080228000879288e-01 -4.2528599500656128e-01</leafValues></_>
        <_>
          <internalNodes>
            0 -1 698 -4.6819606795907021e-03</internalNodes>
          <leafValues>
            5.6985056400299072e-01 -7.9131014645099640e-02</leafValues></_>
        <_>
          <internalNodes>
            0 -1 819 -9.7096674144268036e-03</internalNodes>
          <leafValues>
            3.0820655822753906e-01 -1.2721179425716400e-01</leafValues></_>
        <_>
          <internalNodes>
            0 -1 161 5.7131110224872828e-04</internalNodes>
          <leafValues>
            1.1656988412141800e-01 -3.8442379236221313e-01</leafValues></_>
        <_>
          <internalNodes>
            0 -1 128 -5.4934103973209858e-03</internalNodes>
          <leafValues>
            2.5371864438056946e-01 -1.8108500540256500e-01</leafValues></_>
        <_>
          <internalNodes>
            0 -1 117 7.4859382584691048e-03</internalNodes>
          <leafValues>
            -1.2532863020896912e-01 4.0460950136184692e-01</leafValues></_>
        <_>
          <internalNodes>
            0 -1 768 -5.0303628086112440e-05</internalNodes>
          <leafValues>
            2.4682374298572540e-01 -1.7837426066398621e-01</leafValues></_></weakClassifiers></_>
    <!-- stage 8 -->
    <_>
      <maxWeakCount>33</maxWeakCount>
      <stageThreshold>-1.7464829683303833e+00</stageThreshold>
      <weakClassifiers>
        <_>
          <internalNodes>
            0 -1 148 -2.2678728401660919e-01</internalNodes>
          <leafValues>
            3.9316987991333008e-01 -2.4165768921375275e-01</leafValues></_>
        <_>
          <internalNodes>
            0 -1 489 1.9034632714465261e-05</internalNodes>
          <leafValues>
            -2.0204924046993256e-01 3.7067368626594543e-01</leafValues></_>
        <_>
          <internalNodes>
            0 -1 489 -1.9461473129922524e-05</internalNodes>
          <leafValues>
            4.3586164712905884e-01 -2.7440223097801208e-01</leafValues></_>
        <_>
          <internalNodes>
            0 -1 794 -2.2089555859565735e-02</internalNodes>
          <leafValues>
            3.7043508887290955e-01 -1.9672848284244537e-01</leafValues></_>
        <_>
          <internalNodes>
            0 -1 774 -1.5542795881628990e-03</internalNodes>
          <leafValues>
            -4.5766556262969971e-01 1.3405434787273407e-01</leafValues></_>
        <_>
          <internalNodes>
            0 -1 774 1.5829969197511673e-03</internalNodes>
          <leafValues>
            1.8926240503787994e-01 -4.5707073807716370e-01</leafValues></_>
        <_>
          <internalNodes>
            0 -1 489 -1.1861082166433334e-03</internalNodes>
          <leafValues>
            -5.7864761352539062e-01 1.0740510374307632e-01</leafValues></_>
        <_>
          <internalNodes>
            0 -1 254 -5.9927098453044891e-02</internalNodes>
          <leafValues>
            5.1733857393264771e-01 -1.6907070577144623e-01</leafValues></_>
        <_>
          <internalNodes>
            0 -1 489 1.5663327649235725e-03</internalNodes>
          <leafValues>
            1.3710559904575348e-01 -6.4790403842926025e-01</leafValues></_>
        <_>
          <internalNodes>
            0 -1 489 1.9034632714465261e-05</internalNodes>
          <leafValues>
            -2.4592500925064087e-01 3.0471077561378479e-01</leafValues></_>
        <_>
          <internalNodes>
            0 -1 489 -1.9461473129922524e-05</internalNodes>
          <leafValues>
            3.2873469591140747e-01 -1.7533177137374878e-01</leafValues></_>
        <_>
          <internalNodes>
            0 -1 235 5.6644167751073837e-02</internalNodes>
          <leafValues>
            -9.4890430569648743e-02 5.3302127122879028e-01</leafValues></_>
        <_>
          <internalNodes>
            0 -1 424 -1.7824477254180238e-05</internalNodes>
          <leafValues>
            2.4825997650623322e-01 -1.9923472404479980e-01</leafValues></_>
        <_>
          <internalNodes>
            0 -1 424 4.3278072553221136e-05</internalNodes>
          <leafValues>
            -2.2624969482421875e-01 3.1338948011398315e-01</leafValues></_>
        <_>
          <internalNodes>
            0 -1 422 -1.1315455194562674e-03</internalNodes>
          <leafValues>
            -4.6716940402984619e-01 1.4064742624759674e-01</leafValues></_>
        <_>
          <internalNodes>
            0 -1 355 -5.1237367093563080e-02</internalNodes>
          <leafValues>
            4.6488350629806519e-01 -1.2348783016204834e-01</leafValues></_>
        <_>
          <internalNodes>
            0 -1 323 2.1855631843209267e-02</internalNodes>
          <leafValues>
            1.1020936071872711e-01 -5.6402128934860229e-01</leafValues></_>
        <_>
          <internalNodes>
            0 -1 365 1.8902896044892259e-05</internalNodes>
          <leafValues>
            -1.6985173523426056e-01 2.7730244398117065e-01</leafValues></_>
        <_>
          <internalNodes>
            0 -1 306 1.9807997887255624e-05</internalNodes>
          <leafValues>
            -2.0548966526985168e-01 2.3459468781948090e-01</leafValues></_>
        <_>
          <internalNodes>
            0 -1 255 3.6105047911405563e-02</internalNodes>
          <leafValues>
            -8.2555040717124939e-02 4.8468554019927979e-01</leafValues></_>
        <_>
          <internalNodes>
            0 -1 11 -8.2033202052116394e-02</internalNodes>
          <leafValues>
            4.1209468245506287e-01 -1.2084741145372391e-01</leafValues></_>
        <_>
          <internalNodes>
            0 -1 280 -1.1178897321224213e-01</internalNodes>
          <leafValues>
            1.9551844894886017e-01 -2.7210959792137146e-01</leafValues></_>
        <_>
          <internalNodes>
            0 -1 204 -6.9686393253505230e-03</internalNodes>
          <leafValues>
            2.6142516732215881e-01 -1.9850842654705048e-01</leafValues></_>
        <_>
          <internalNodes>
            0 -1 286 -1.2314387131482363e-03</internalNodes>
          <leafValues>
            -4.1756665706634521e-01 1.1819543689489365e-01</leafValues></_>
        <_>
          <internalNodes>
            0 -1 765 -1.8107278272509575e-02</internalNodes>
          <leafValues>
            2.8262776136398315e-01 -1.7504890263080597e-01</leafValues></_>
        <_>
          <internalNodes>
            0 -1 682 -2.0217668861732818e-05</internalNodes>
          <leafValues>
            3.1002318859100342e-01 -1.4621980488300323e-01</leafValues></_>
        <_>
          <internalNodes>
            0 -1 142 -3.2474189996719360e-02</internalNodes>
          <leafValues>
            4.3238338828086853e-01 -1.1871730536222458e-01</leafValues></_>
        <_>
          <internalNodes>
            0 -1 707 2.0854800823144615e-05</internalNodes>
          <leafValues>
            -1.6716612875461578e-01 2.8221794962882996e-01</leafValues></_>
        <_>
          <internalNodes>
            0 -1 553 1.4486657455563545e-03</internalNodes>
          <leafValues>
            6.7386604845523834e-02 -7.1664875745773315e-01</leafValues></_>
        <_>
          <internalNodes>
            0 -1 647 -2.1186404410400428e-05</internalNodes>
          <leafValues>
            2.3631247878074646e-01 -1.8662130832672119e-01</leafValues></_>
        <_>
          <internalNodes>
            0 -1 479 3.7332384381443262e-03</internalNodes>
          <leafValues>
            -8.8264040648937225e-02 5.0383430719375610e-01</leafValues></_>
        <_>
          <internalNodes>
            0 -1 805 -1.2738557998090982e-03</internalNodes>
          <leafValues>
            -4.7343620657920837e-01 9.9741876125335693e-02</leafValues></_>
        <_>
          <internalNodes>
            0 -1 805 -4.0879680454963818e-05</internalNodes>
          <leafValues>
            2.4962586164474487e-01 -1.9342389702796936e-01</leafValues></_></weakClassifiers></_>
    <!-- stage 9 -->
    <_>
      <maxWeakCount>47</maxWeakCount>
      <stageThreshold>-1.4555045366287231e+00</stageThreshold>
      <weakClassifiers>
        <_>
          <internalNodes>
            0 -1 351 5.4094837978482246e-03</internalNodes>
          <leafValues>
            1.2766389548778534e-01 -5.8620691299438477e-01</leafValues></_>
        <_>
          <internalNodes>
            0 -1 701 -4.3283333070576191e-03</internalNodes>
          <leafValues>
            1.8354347348213196e-01 -3.6750712990760803e-01</leafValues></_>
        <_>
          <internalNodes>
            0 -1 428 -1.4456182252615690e-03</internalNodes>
          <leafValues>
            -4.3681985139846802e-01 1.7640648782253265e-01</leafValues></_>
        <_>
          <internalNodes>
            0 -1 711 -1.5359435928985476e-03</internalNodes>
          <leafValues>
            -6.1685955524444580e-01 9.2373095452785492e-02</leafValues></_>
        <_>
          <internalNodes>
            0 -1 33 1.9178409129381180e-02</internalNodes>
          <leafValues>
            -1.7772124707698822e-01 3.4333503246307373e-01</leafValues></_>
        <_>
          <internalNodes>
            0 -1 644 -1.1745525989681482e-03</internalNodes>
          <leafValues>
            -6.7826694250106812e-01 5.6870471686124802e-02</leafValues></_>
        <_>
          <internalNodes>
            0 -1 668 1.1476302752271295e-03</internalNodes>
          <leafValues>
            9.7822643816471100e-02 -4.4419938325881958e-01</leafValues></_>
        <_>
          <internalNodes>
            0 -1 840 3.7764497101306915e-03</internalNodes>
          <leafValues>
            -6.2983006238937378e-02 6.8232500553131104e-01</leafValues></_>
        <_>
          <internalNodes>
            0 -1 139 4.3108325451612473e-02</internalNodes>
          <leafValues>
            -8.5385046899318695e-02 5.6203556060791016e-01</leafValues></_>
        <_>
          <internalNodes>
            0 -1 543 -9.5540692564100027e-04</internalNodes>
          <leafValues>
            1.5769463777542114e-01 -2.8151321411132812e-01</leafValues></_>
        <_>
          <internalNodes>
            0 -1 333 -3.4652337431907654e-02</internalNodes>
          <leafValues>
            3.2147359848022461e-01 -1.5974153578281403e-01</leafValues></_>
        <_>
          <internalNodes>
            0 -1 111 2.2397255524992943e-02</internalNodes>
          <leafValues>
            -1.1831089109182358e-01 4.8893401026725769e-01</leafValues></_>
        <_>
          <internalNodes>
            0 -1 694 1.2942442297935486e-01</internalNodes>
          <leafValues>
            -7.5268626213073730e-02 4.7881782054901123e-01</leafValues></_>
        <_>
          <internalNodes>
            0 -1 402 1.1189755052328110e-02</internalNodes>
          <leafValues>
            7.3456011712551117e-02 -5.4839438199996948e-01</leafValues></_>
        <_>
          <internalNodes>
            0 -1 643 8.9900917373597622e-04</internalNodes>
          <leafValues>
            1.0119071602821350e-01 -4.2198258638381958e-01</leafValues></_>
        <_>
          <internalNodes>
            0 -1 619 4.3327212333679199e-03</internalNodes>
          <leafValues>
            -9.3817569315433502e-02 4.7978046536445618e-01</leafValues></_>
        <_>
          <internalNodes>
            0 -1 620 4.3672444298863411e-03</internalNodes>
          <leafValues>
            -7.1459792554378510e-02 5.0214159488677979e-01</leafValues></_>
        <_>
          <internalNodes>
            0 -1 439 -1.3306299224495888e-02</internalNodes>
          <leafValues>
            -4.8491594195365906e-01 8.3683207631111145e-02</leafValues></_>
        <_>
          <internalNodes>
            0 -1 632 5.7543143630027771e-02</internalNodes>
          <leafValues>
            -1.1389269679784775e-01 3.4994307160377502e-01</leafValues></_>
        <_>
          <internalNodes>
            0 -1 799 -5.4076993837952614e-03</internalNodes>
          <leafValues>
            3.3834773302078247e-01 -1.2534019351005554e-01</leafValues></_>
        <_>
          <internalNodes>
            0 -1 224 1.8861401826143265e-02</internalNodes>
          <leafValues>
            5.6992325931787491e-02 -5.7915997505187988e-01</leafValues></_>
        <_>
          <internalNodes>
            0 -1 618 3.4156150650233030e-03</internalNodes>
          <leafValues>
            -9.2815667390823364e-02 4.1369029879570007e-01</leafValues></_>
        <_>
          <internalNodes>
            0 -1 476 2.3280162364244461e-02</internalNodes>
          <leafValues>
            6.5415427088737488e-02 -5.9636402130126953e-01</leafValues></_>
        <_>
          <internalNodes>
            0 -1 354 -1.1411201208829880e-02</internalNodes>
          <leafValues>
            1.6240739822387695e-01 -2.3659124970436096e-01</leafValues></_>
        <_>
          <internalNodes>
            0 -1 431 5.4895251989364624e-02</internalNodes>
          <leafValues>
            -8.1912852823734283e-02 5.4732966423034668e-01</leafValues></_>
        <_>
          <internalNodes>
            0 -1 385 -1.5057598240673542e-02</internalNodes>
          <leafValues>
            -6.8377083539962769e-01 6.2557682394981384e-02</leafValues></_>
        <_>
          <internalNodes>
            0 -1 53 -3.2074875198304653e-03</internalNodes>
          <leafValues>
            5.5763345956802368e-01 -7.2378836572170258e-02</leafValues></_>
        <_>
          <internalNodes>
            0 -1 188 -3.1423151493072510e-02</internalNodes>
          <leafValues>
            -6.8329310417175293e-01 6.0781199485063553e-02</leafValues></_>
        <_>
          <internalNodes>
            0 -1 52 -3.5738195292651653e-03</internalNodes>
          <leafValues>
            4.0190285444259644e-01 -1.0021237283945084e-01</leafValues></_>
        <_>
          <internalNodes>
            0 -1 486 7.1624055504798889e-02</internalNodes>
          <leafValues>
            -5.8855906128883362e-02 6.2067252397537231e-01</leafValues></_>
        <_>
          <internalNodes>
            0 -1 599 -8.9923124760389328e-03</internalNodes>
          <leafValues>
            2.2115182876586914e-01 -1.9532185792922974e-01</leafValues></_>
        <_>
          <internalNodes>
            0 -1 0 -6.3619547290727496e-04</internalNodes>
          <leafValues>
            -4.1453257203102112e-01 9.4845555722713470e-02</leafValues></_>
        <_>
          <internalNodes>
            0 -1 0 4.8805290134623647e-04</internalNodes>
          <leafValues>
            1.2557885050773621e-01 -3.9952099323272705e-01</leafValues></_>
        <_>
          <internalNodes>
            0 -1 55 3.2493632752448320e-03</internalNodes>
          <leafValues>
            -9.3756079673767090e-02 4.6332406997680664e-01</leafValues></_>
        <_>
          <internalNodes>
            0 -1 662 -1.1403917334973812e-02</internalNodes>
          <leafValues>
            2.9298245906829834e-01 -1.2719604372978210e-01</leafValues></_>
        <_>
          <internalNodes>
            0 -1 757 -1.3407908380031586e-02</internalNodes>
          <leafValues>
            3.7687849998474121e-01 -1.1548539996147156e-01</leafValues></_>
        <_>
          <internalNodes>
            0 -1 41 3.0667025595903397e-02</internalNodes>
          <leafValues>
            -9.8347716033458710e-02 4.1078993678092957e-01</leafValues></_>
        <_>
          <internalNodes>
            0 -1 849 -5.9720342978835106e-03</internalNodes>
          <leafValues>
            4.7002390027046204e-01 -7.7391639351844788e-02</leafValues></_>
        <_>
          <internalNodes>
            0 -1 860 -7.4825505726039410e-04</internalNodes>
          <leafValues>
            -3.7385025620460510e-01 1.0485181212425232e-01</leafValues></_>
        <_>
          <internalNodes>
            0 -1 127 3.5915421321988106e-03</internalNodes>
          <leafValues>
            -8.2834661006927490e-02 4.6390518546104431e-01</leafValues></_>
        <_>
          <internalNodes>
            0 -1 258 -6.3596248626708984e-02</internalNodes>
          <leafValues>
            -8.1947779655456543e-01 4.7029543668031693e-02</leafValues></_>
        <_>
          <internalNodes>
            0 -1 510 4.3686981371138245e-05</internalNodes>
          <leafValues>
            -1.6168233752250671e-01 2.3088790476322174e-01</leafValues></_>
        <_>
          <internalNodes>
            0 -1 507 1.6860845498740673e-03</internalNodes>
          <leafValues>
            8.4769658744335175e-02 -5.4298663139343262e-01</leafValues></_>
        <_>
          <internalNodes>
            0 -1 106 1.4344936609268188e-01</internalNodes>
          <leafValues>
            5.1244512200355530e-02 -6.6025596857070923e-01</leafValues></_>
        <_>
          <internalNodes>
            0 -1 249 3.6494340747594833e-03</internalNodes>
          <leafValues>
            -6.4694277942180634e-02 6.1187309026718140e-01</leafValues></_>
        <_>
          <internalNodes>
            0 -1 858 -1.0666148737072945e-03</internalNodes>
          <leafValues>
            -4.0062549710273743e-01 9.5291994512081146e-02</leafValues></_>
        <_>
          <internalNodes>
            0 -1 812 -1.6290407627820969e-02</internalNodes>
          <leafValues>
            3.5546487569808960e-01 -1.0275053977966309e-01</leafValues></_></weakClassifiers></_>
    <!-- stage 10 -->
    <_>
      <maxWeakCount>47</maxWeakCount>
      <stageThreshold>-1.4687960147857666e+00</stageThreshold>
      <weakClassifiers>
        <_>
          <internalNodes>
            0 -1 405 -1.5984933823347092e-02</internalNodes>
          <leafValues>
            3.5314995050430298e-01 -2.1249333024024963e-01</leafValues></_>
        <_>
          <internalNodes>
            0 -1 285 -5.4423917084932327e-02</internalNodes>
          <leafValues>
            1.6098019480705261e-01 -3.9825820922851562e-01</leafValues></_>
        <_>
          <internalNodes>
            0 -1 678 -1.7232311656698585e-03</internalNodes>
          <leafValues>
            -4.6219712495803833e-01 1.2148520350456238e-01</leafValues></_>
        <_>
          <internalNodes>
            0 -1 765 -8.0063557252287865e-03</internalNodes>
          <leafValues>
            2.1945540606975555e-01 -2.3431602120399475e-01</leafValues></_>
        <_>
          <internalNodes>
            0 -1 712 -3.6304241803009063e-05</internalNodes>
          <leafValues>
            3.1306421756744385e-01 -1.5438894927501678e-01</leafValues></_>
        <_>
          <internalNodes>
            0 -1 710 1.7753945940057747e-05</internalNodes>
          <leafValues>
            -1.8105009198188782e-01 2.5359347462654114e-01</leafValues></_>
        <_>
          <internalNodes>
            0 -1 710 -2.2348453057929873e-05</internalNodes>
          <leafValues>
            2.5876563787460327e-01 -1.8531452119350433e-01</leafValues></_>
        <_>
          <internalNodes>
            0 -1 166 1.0996829718351364e-02</internalNodes>
          <leafValues>
            -1.4710529148578644e-01 2.9413062334060669e-01</leafValues></_>
        <_>
          <internalNodes>
            0 -1 391 -5.6433521211147308e-02</internalNodes>
          <leafValues>
            -6.5533643960952759e-01 2.3578334599733353e-02</leafValues></_>
        <_>
          <internalNodes>
            0 -1 51 -2.8501059859991074e-02</internalNodes>
          <leafValues>
            -6.1146378517150879e-01 5.6939478963613510e-02</leafValues></_>
        <_>
          <internalNodes>
            0 -1 780 4.9123264849185944e-02</internalNodes>
          <leafValues>
            6.0020595788955688e-02 -7.5086498260498047e-01</leafValues></_>
        <_>
          <internalNodes>
            0 -1 546 3.5004266537725925e-03</internalNodes>
          <leafValues>
            7.8276798129081726e-02 -4.6279269456863403e-01</leafValues></_>
        <_>
          <internalNodes>
            0 -1 493 -1.2229720130562782e-02</internalNodes>
          <leafValues>
            1.8658383190631866e-01 -1.9866269826889038e-01</leafValues></_>
        <_>
          <internalNodes>
            0 -1 495 -1.4210271183401346e-03</internalNodes>
          <leafValues>
            -4.3668353557586670e-01 1.0705226659774780e-01</leafValues></_>
        <_>
          <internalNodes>
            0 -1 488 1.8947677314281464e-01</internalNodes>
          <leafValues>
            5.1977887749671936e-02 -6.5604370832443237e-01</leafValues></_>
        <_>
          <internalNodes>
            0 -1 189 -1.8620116636157036e-02</internalNodes>
          <leafValues>
            -6.3050228357315063e-01 5.2156005054712296e-02</leafValues></_>
        <_>
          <internalNodes>
            0 -1 835 3.1615800689905882e-03</internalNodes>
          <leafValues>
            -8.7460458278656006e-02 4.6198594570159912e-01</leafValues></_>
        <_>
          <internalNodes>
            0 -1 502 4.2851468606386334e-05</internalNodes>
          <leafValues>
            -1.3989712297916412e-01 2.6563224196434021e-01</leafValues></_>
        <_>
          <internalNodes>
            0 -1 502 -2.2246891603572294e-05</internalNodes>
          <leafValues>
            2.1175873279571533e-01 -2.2309309244155884e-01</leafValues></_>
        <_>
          <internalNodes>
            0 -1 502 -1.1368104023858905e-03</internalNodes>
          <leafValues>
            -4.5212984085083008e-01 1.1090769618749619e-01</leafValues></_>
        <_>
          <internalNodes>
            0 -1 835 -3.2808179967105389e-03</internalNodes>
          <leafValues>
            4.4861498475074768e-01 -9.4203226268291473e-02</leafValues></_>
        <_>
          <internalNodes>
            0 -1 182 -1.6127632930874825e-02</internalNodes>
          <leafValues>
            2.6599529385566711e-01 -1.4064131677150726e-01</leafValues></_>
        <_>
          <internalNodes>
            0 -1 98 1.6912790015339851e-03</internalNodes>
          <leafValues>
            1.1262427270412445e-01 -3.4359571337699890e-01</leafValues></_>
        <_>
          <internalNodes>
            0 -1 321 1.3074019923806190e-02</internalNodes>
          <leafValues>
            -1.1888047307729721e-01 3.4559619426727295e-01</leafValues></_>
        <_>
          <internalNodes>
            0 -1 526 -3.6730386316776276e-02</internalNodes>
          <leafValues>
            -5.8309900760650635e-01 6.6207274794578552e-02</leafValues></_>
        <_>
          <internalNodes>
            0 -1 552 1.6731179130147211e-05</internalNodes>
          <leafValues>
            -1.7104335129261017e-01 2.0671395957469940e-01</leafValues></_>
        <_>
          <internalNodes>
            0 -1 552 -1.8807402739184909e-05</internalNodes>
          <leafValues>
            2.5703895092010498e-01 -1.8112070858478546e-01</leafValues></_>
        <_>
          <internalNodes>
            0 -1 631 -4.3653482571244240e-03</internalNodes>
          <leafValues>
            5.3365099430084229e-01 -6.3166536390781403e-02</leafValues></_>
        <_>
          <internalNodes>
            0 -1 630 -3.7529934197664261e-03</internalNodes>
          <leafValues>
            4.5920553803443909e-01 -8.3671815693378448e-02</leafValues></_>
        <_>
          <internalNodes>
            0 -1 628 -4.1002407670021057e-03</internalNodes>
          <leafValues>
            4.9909785389900208e-01 -7.5266070663928986e-02</leafValues></_>
        <_>
          <internalNodes>
            0 -1 108 -1.0375435650348663e-01</internalNodes>
          <leafValues>
            -3.9041388034820557e-01 1.0089675337076187e-01</leafValues></_>
        <_>
          <internalNodes>
            0 -1 788 1.3093658722937107e-02</internalNodes>
          <leafValues>
            -1.0788661986589432e-01 3.5525053739547729e-01</leafValues></_>
        <_>
          <internalNodes>
            0 -1 796 -7.8393146395683289e-04</internalNodes>
          <leafValues>
            -4.2222869396209717e-01 1.0683690756559372e-01</leafValues></_>
        <_>
          <internalNodes>
            0 -1 650 1.1123440228402615e-02</internalNodes>
          <leafValues>
            -9.1724753379821777e-02 3.8403823971748352e-01</leafValues></_>
        <_>
          <internalNodes>
            0 -1 550 9.6362864132970572e-04</internalNodes>
          <leafValues>
            6.5781168639659882e-02 -5.4447579383850098e-01</leafValues></_>
        <_>
          <internalNodes>
            0 -1 756 -4.6834882348775864e-02</internalNodes>
          <leafValues>
            -7.5921642780303955e-01 3.9232518523931503e-02</leafValues></_>
        <_>
          <internalNodes>
            0 -1 492 -7.8027420677244663e-03</internalNodes>
          <leafValues>
            1.6678909957408905e-01 -2.2950826585292816e-01</leafValues></_>
        <_>
          <internalNodes>
            0 -1 271 -1.1713425628840923e-02</internalNodes>
          <leafValues>
            2.8295078873634338e-01 -1.3874608278274536e-01</leafValues></_>
        <_>
          <internalNodes>
            0 -1 98 -1.4767955290153623e-03</internalNodes>
          <leafValues>
            -3.2668894529342651e-01 1.0991709679365158e-01</leafValues></_>
        <_>
          <internalNodes>
            0 -1 92 -2.7952515520155430e-03</internalNodes>
          <leafValues>
            4.9163940548896790e-01 -6.9731719791889191e-02</leafValues></_>
        <_>
          <internalNodes>
            0 -1 303 -1.2358503416180611e-02</internalNodes>
          <leafValues>
            3.3035859465599060e-01 -1.1010013520717621e-01</leafValues></_>
        <_>
          <internalNodes>
            0 -1 447 -4.1238716221414506e-05</internalNodes>
          <leafValues>
            2.3445752263069153e-01 -1.5244561433792114e-01</leafValues></_>
        <_>
          <internalNodes>
            0 -1 177 1.5031114220619202e-02</internalNodes>
          <leafValues>
            -9.2626243829727173e-02 3.8228735327720642e-01</leafValues></_>
        <_>
          <internalNodes>
            0 -1 289 -4.5856345444917679e-02</internalNodes>
          <leafValues>
            -6.9065177440643311e-01 5.1433969289064407e-02</leafValues></_>
        <_>
          <internalNodes>
            0 -1 134 -3.7871869280934334e-03</internalNodes>
          <leafValues>
            3.0368751287460327e-01 -1.1608041822910309e-01</leafValues></_>
        <_>
          <internalNodes>
            0 -1 452 2.5967430323362350e-02</internalNodes>
          <leafValues>
            -1.2826900184154510e-01 2.6255121827125549e-01</leafValues></_>
        <_>
          <internalNodes>
            0 -1 688 -1.8777900550048798e-05</internalNodes>
          <leafValues>
            2.1147842705249786e-01 -1.6495229303836823e-01</leafValues></_></weakClassifiers></_>
    <!-- stage 11 -->
    <_>
      <maxWeakCount>50</maxWeakCount>
      <stageThreshold>-1.5255345106124878e+00</stageThreshold>
      <weakClassifiers>
        <_>
          <internalNodes>
            0 -1 164 -3.3581815659999847e-02</internalNodes>
          <leafValues>
            2.1257726848125458e-01 -3.4708204865455627e-01</leafValues></_>
        <_>
          <internalNodes>
            0 -1 809 1.5255872160196304e-02</internalNodes>
          <leafValues>
            -1.5217147767543793e-01 4.0577539801597595e-01</leafValues></_>
        <_>
          <internalNodes>
            0 -1 648 7.0176116423681378e-04</internalNodes>
          <leafValues>
            1.5129993855953217e-01 -4.1260299086570740e-01</leafValues></_>
        <_>
          <internalNodes>
            0 -1 350 -6.5874785650521517e-04</internalNodes>
          <leafValues>
            -3.4594532847404480e-01 1.5709745883941650e-01</leafValues></_>
        <_>
          <internalNodes>
            0 -1 278 -3.0697090551257133e-03</internalNodes>
          <leafValues>
            1.8506877124309540e-01 -2.6785284280776978e-01</leafValues></_>
        <_>
          <internalNodes>
            0 -1 579 -8.8367506861686707e-02</internalNodes>
          <leafValues>
            7.5660973787307739e-01 -1.0436786711215973e-01</leafValues></_>
        <_>
          <internalNodes>
            0 -1 601 -7.9656648449599743e-04</internalNodes>
          <leafValues>
            -2.9752805829048157e-01 2.0277026295661926e-01</leafValues></_>
        <_>
          <internalNodes>
            0 -1 719 6.5174186602234840e-04</internalNodes>
          <leafValues>
            8.7457738816738129e-02 -4.3122756481170654e-01</leafValues></_>
        <_>
          <internalNodes>
            0 -1 484 -2.1765779703855515e-02</internalNodes>
          <leafValues>
            2.4651056528091431e-01 -2.6197016239166260e-01</leafValues></_>
        <_>
          <internalNodes>
            0 -1 717 6.8463134812191129e-04</internalNodes>
          <leafValues>
            1.2617014348506927e-01 -3.8813468813896179e-01</leafValues></_>
        <_>
          <internalNodes>
            0 -1 251 -2.4211565032601357e-02</internalNodes>
          <leafValues>
            4.3595823645591736e-01 -1.2814329564571381e-01</leafValues></_>
        <_>
          <internalNodes>
            0 -1 718 9.0957898646593094e-03</internalNodes>
          <leafValues>
            -7.8640401363372803e-02 4.2263293266296387e-01</leafValues></_>
        <_>
          <internalNodes>
            0 -1 379 3.4621274098753929e-03</internalNodes>
          <leafValues>
            -1.0937806963920593e-01 4.3784239888191223e-01</leafValues></_>
        <_>
          <internalNodes>
            0 -1 376 3.3647636882960796e-03</internalNodes>
          <leafValues>
            -1.0988347977399826e-01 4.7774788737297058e-01</leafValues></_>
        <_>
          <internalNodes>
            0 -1 179 -1.0080629587173462e-01</internalNodes>
          <leafValues>
            -5.7881665229797363e-01 1.0802337527275085e-01</leafValues></_>
        <_>
          <internalNodes>
            0 -1 55 -4.0227952413260937e-03</internalNodes>
          <leafValues>
            4.1166311502456665e-01 -1.2699556350708008e-01</leafValues></_>
        <_>
          <internalNodes>
            0 -1 458 -7.0911413058638573e-04</internalNodes>
          <leafValues>
            -3.9202174544334412e-01 1.3322389125823975e-01</leafValues></_>
        <_>
          <internalNodes>
            0 -1 69 -3.9495071396231651e-03</internalNodes>
          <leafValues>
            7.1219527721405029e-01 -8.0791413784027100e-02</leafValues></_>
        <_>
          <internalNodes>
            0 -1 836 1.3150257058441639e-02</internalNodes>
          <leafValues>
            -9.1671839356422424e-02 3.3645382523536682e-01</leafValues></_>
        <_>
          <internalNodes>
            0 -1 833 9.5011154189705849e-04</internalNodes>
          <leafValues>
            7.8565426170825958e-02 -4.4716483354568481e-01</leafValues></_>
        <_>
          <internalNodes>
            0 -1 446 3.3660563640296459e-03</internalNodes>
          <leafValues>
            -9.1321483254432678e-02 4.1877093911170959e-01</leafValues></_>
        <_>
          <internalNodes>
            0 -1 445 7.2393869049847126e-04</internalNodes>
          <leafValues>
            1.3423500955104828e-01 -3.2012018561363220e-01</leafValues></_>
        <_>
          <internalNodes>
            0 -1 658 -4.1284761391580105e-03</internalNodes>
          <leafValues>
            5.1557117700576782e-01 -6.2716506421566010e-02</leafValues></_>
        <_>
          <internalNodes>
            0 -1 658 4.6467147767543793e-03</internalNodes>
          <leafValues>
            -7.0002831518650055e-02 4.9839803576469421e-01</leafValues></_>
        <_>
          <internalNodes>
            0 -1 357 -7.3605217039585114e-03</internalNodes>
          <leafValues>
            1.8181541562080383e-01 -2.0399445295333862e-01</leafValues></_>
        <_>
          <internalNodes>
            0 -1 592 2.8614280745387077e-02</internalNodes>
          <leafValues>
            -7.0940613746643066e-02 5.1498067378997803e-01</leafValues></_>
        <_>
          <internalNodes>
            0 -1 508 -4.1893245652318001e-03</internalNodes>
          <leafValues>
            1.4901664853096008e-01 -2.5627821683883667e-01</leafValues></_>
        <_>
          <internalNodes>
            0 -1 709 7.7926641097292304e-04</internalNodes>
          <leafValues>
            1.2385594844818115e-01 -3.4981802105903625e-01</leafValues></_>
        <_>
          <internalNodes>
            0 -1 212 -4.5482821762561798e-02</internalNodes>
          <leafValues>
            2.3580764234066010e-01 -1.6138413548469543e-01</leafValues></_>
        <_>
          <internalNodes>
            0 -1 262 -3.3546864986419678e-02</internalNodes>
          <leafValues>
            -5.1160407066345215e-01 7.9539820551872253e-02</leafValues></_>
        <_>
          <internalNodes>
            0 -1 752 5.9386261273175478e-04</internalNodes>
          <leafValues>
            1.0412307083606720e-01 -3.4405994415283203e-01</leafValues></_>
        <_>
          <internalNodes>
            0 -1 554 -4.0321405977010727e-03</internalNodes>
          <leafValues>
            1.5657615661621094e-01 -2.2705800831317902e-01</leafValues></_>
        <_>
          <internalNodes>
            0 -1 308 1.9289158284664154e-02</internalNodes>
          <leafValues>
            5.4203405976295471e-02 -6.0234165191650391e-01</leafValues></_>
        <_>
          <internalNodes>
            0 -1 283 -4.7484584152698517e-02</internalNodes>
          <leafValues>
            -5.3642094135284424e-01 6.0377206653356552e-02</leafValues></_>
        <_>
          <internalNodes>
            0 -1 381 3.0571923125535250e-03</internalNodes>
          <leafValues>
            -8.8011674582958221e-02 4.1355380415916443e-01</leafValues></_>
        <_>
          <internalNodes>
            0 -1 744 -4.1941618546843529e-03</internalNodes>
          <leafValues>
            4.0523177385330200e-01 -7.9505942761898041e-02</leafValues></_>
        <_>
          <internalNodes>
            0 -1 639 1.8559799063950777e-03</internalNodes>
          <leafValues>
            9.5349207520484924e-02 -4.3162685632705688e-01</leafValues></_>
        <_>
          <internalNodes>
            0 -1 731 4.3424242176115513e-03</internalNodes>
          <leafValues>
            -7.8753001987934113e-02 4.8435261845588684e-01</leafValues></_>
        <_>
          <internalNodes>
            0 -1 268 -3.8950138259679079e-03</internalNodes>
          <leafValues>
            2.1484991908073425e-01 -1.6483423113822937e-01</leafValues></_>
        <_>
          <internalNodes>
            0 -1 388 3.1663339585065842e-02</internalNodes>
          <leafValues>
            -1.1833894997835159e-01 3.1416204571723938e-01</leafValues></_>
        <_>
          <internalNodes>
            0 -1 253 3.7106640636920929e-02</internalNodes>
          <leafValues>
            -9.6202112734317780e-02 4.0122562646865845e-01</leafValues></_>
        <_>
          <internalNodes>
            0 -1 120 -2.4697534739971161e-02</internalNodes>
          <leafValues>
            2.7191725373268127e-01 -1.4810837805271149e-01</leafValues></_>
        <_>
          <internalNodes>
            0 -1 346 -2.4075141176581383e-02</internalNodes>
          <leafValues>
            2.0071612298488617e-01 -2.0988889038562775e-01</leafValues></_>
        <_>
          <internalNodes>
            0 -1 404 8.4914721082895994e-04</internalNodes>
          <leafValues>
            9.8276481032371521e-02 -4.2533600330352783e-01</leafValues></_>
        <_>
          <internalNodes>
            0 -1 313 3.4980759955942631e-03</internalNodes>
          <leafValues>
            -6.1921086162328720e-02 6.7271149158477783e-01</leafValues></_>
        <_>
          <internalNodes>
            0 -1 652 3.4177112393081188e-03</internalNodes>
          <leafValues>
            -7.7181659638881683e-02 4.3725898861885071e-01</leafValues></_>
        <_>
          <internalNodes>
            0 -1 776 -3.1728256493806839e-02</internalNodes>
          <leafValues>
            8.1006205081939697e-01 -4.1174143552780151e-02</leafValues></_>
        <_>
          <internalNodes>
            0 -1 56 -3.5851420834660530e-03</internalNodes>
          <leafValues>
            6.2663763761520386e-01 -4.6969417482614517e-02</leafValues></_>
        <_>
          <internalNodes>
            0 -1 617 7.9001288395375013e-04</internalNodes>
          <leafValues>
            8.8088892400264740e-02 -4.6203356981277466e-01</leafValues></_>
        <_>
          <internalNodes>
            0 -1 651 6.6047953441739082e-04</internalNodes>
          <leafValues>
            1.2427388131618500e-01 -2.9707199335098267e-01</leafValues></_></weakClassifiers></_>
    <!-- stage 12 -->
    <_>
      <maxWeakCount>60</maxWeakCount>
      <stageThreshold>-1.4758446216583252e+00</stageThreshold>
      <weakClassifiers>
        <_>
          <internalNodes>
            0 -1 831 1.6719475388526917e-02</internalNodes>
          <leafValues>
            -1.6706673800945282e-01 3.7949836254119873e-01</leafValues></_>
        <_>
          <internalNodes>
            0 -1 729 -2.7471084147691727e-02</internalNodes>
          <leafValues>
            2.1966443955898285e-01 -2.6161369681358337e-01</leafValues></_>
        <_>
          <internalNodes>
            0 -1 19 1.5571104362607002e-02</internalNodes>
          <leafValues>
            -1.4331340789794922e-01 2.9708254337310791e-01</leafValues></_>
        <_>
          <internalNodes>
            0 -1 62 9.1578245162963867e-02</internalNodes>
          <leafValues>
            -1.3051253557205200e-01 3.6072123050689697e-01</leafValues></_>
        <_>
          <internalNodes>
            0 -1 304 -5.5068326182663441e-03</internalNodes>
          <leafValues>
            2.0385825634002686e-01 -2.0468708872795105e-01</leafValues></_>
        <_>
          <internalNodes>
            0 -1 786 -1.2040146626532078e-02</internalNodes>
          <leafValues>
            2.8082063794136047e-01 -1.1958278715610504e-01</leafValues></_>
        <_>
          <internalNodes>
            0 -1 364 -2.0716104656457901e-02</internalNodes>
          <leafValues>
            -5.5486279726028442e-01 1.0165675729513168e-01</leafValues></_>
        <_>
          <internalNodes>
            0 -1 565 -4.6146946260705590e-05</internalNodes>
          <leafValues>
            2.4378311634063721e-01 -1.7718328535556793e-01</leafValues></_>
        <_>
          <internalNodes>
            0 -1 566 4.2858453525695950e-05</internalNodes>
          <leafValues>
            -1.8977557122707367e-01 2.4254964292049408e-01</leafValues></_>
        <_>
          <internalNodes>
            0 -1 617 -1.3456640299409628e-03</internalNodes>
          <leafValues>
            -5.4793655872344971e-01 5.1261976361274719e-02</leafValues></_>
        <_>
          <internalNodes>
            0 -1 190 -4.4233225286006927e-02</internalNodes>
          <leafValues>
            4.3267428874969482e-01 -9.2801198363304138e-02</leafValues></_>
        <_>
          <internalNodes>
            0 -1 155 -8.2906363531947136e-03</internalNodes>
          <leafValues>
            2.0537075400352478e-01 -2.0042932033538818e-01</leafValues></_>
        <_>
          <internalNodes>
            0 -1 170 1.2011270970106125e-02</internalNodes>
          <leafValues>
            -9.0852007269859314e-02 4.5717158913612366e-01</leafValues></_>
        <_>
          <internalNodes>
            0 -1 109 -1.3321428559720516e-03</internalNodes>
          <leafValues>
            -4.2912808060646057e-01 1.0508367419242859e-01</leafValues></_>
        <_>
          <internalNodes>
            0 -1 102 1.0310411453247070e-02</internalNodes>
          <leafValues>
            -1.2099338322877884e-01 4.0770953893661499e-01</leafValues></_>
        <_>
          <internalNodes>
            0 -1 569 5.2574745495803654e-05</internalNodes>
          <leafValues>
            -1.3510417938232422e-01 2.4800792336463928e-01</leafValues></_>
        <_>
          <internalNodes>
            0 -1 781 -4.1848901659250259e-02</internalNodes>
          <leafValues>
            -6.2958568334579468e-01 4.0564388036727905e-02</leafValues></_>
        <_>
          <internalNodes>
            0 -1 450 -1.0238002287223935e-03</internalNodes>
          <leafValues>
            -3.7968540191650391e-01 9.0162910521030426e-02</leafValues></_>
        <_>
          <internalNodes>
            0 -1 377 4.3846732005476952e-03</internalNodes>
          <leafValues>
            -1.5484331548213959e-01 2.7829116582870483e-01</leafValues></_>
        <_>
          <internalNodes>
            0 -1 514 -7.5349654071033001e-04</internalNodes>
          <leafValues>
            -3.5895186662673950e-01 9.1041646897792816e-02</leafValues></_>
        <_>
          <internalNodes>
            0 -1 568 -4.0630613511893898e-05</internalNodes>
          <leafValues>
            2.0002801716327667e-01 -1.8052908778190613e-01</leafValues></_>
        <_>
          <internalNodes>
            0 -1 427 -4.6607675030827522e-03</internalNodes>
          <leafValues>
            2.4535392224788666e-01 -1.5098117291927338e-01</leafValues></_>
        <_>
          <internalNodes>
            0 -1 536 -4.1771065443754196e-03</internalNodes>
          <leafValues>
            4.4206660985946655e-01 -8.2013443112373352e-02</leafValues></_>
        <_>
          <internalNodes>
            0 -1 81 -8.7217420339584351e-02</internalNodes>
          <leafValues>
            -7.1819734573364258e-01 5.2481487393379211e-02</leafValues></_>
        <_>
          <internalNodes>
            0 -1 42 -7.1614325046539307e-02</internalNodes>
          <leafValues>
            -5.5413973331451416e-01 5.0550226122140884e-02</leafValues></_>
        <_>
          <internalNodes>
            0 -1 140 -2.6055078953504562e-02</internalNodes>
          <leafValues>
            5.5753087997436523e-01 -6.3181310892105103e-02</leafValues></_>
        <_>
          <internalNodes>
            0 -1 722 -5.5120477918535471e-04</internalNodes>
          <leafValues>
            -3.3814108371734619e-01 1.0048080235719681e-01</leafValues></_>
        <_>
          <internalNodes>
            0 -1 32 -2.8983561787754297e-03</internalNodes>
          <leafValues>
            3.6062300205230713e-01 -9.2303588986396790e-02</leafValues></_>
        <_>
          <internalNodes>
            0 -1 598 -7.6003698632121086e-03</internalNodes>
          <leafValues>
            1.4261206984519958e-01 -2.2799062728881836e-01</leafValues></_>
        <_>
          <internalNodes>
            0 -1 690 9.2212390154600143e-04</internalNodes>
          <leafValues>
            8.1086710095405579e-02 -3.8737696409225464e-01</leafValues></_>
        <_>
          <internalNodes>
            0 -1 864 1.1004325002431870e-02</internalNodes>
          <leafValues>
            -1.2586045265197754e-01 2.8898242115974426e-01</leafValues></_>
        <_>
          <internalNodes>
            0 -1 807 -1.3894489035010338e-02</internalNodes>
          <leafValues>
            3.9945727586746216e-01 -8.8343158364295959e-02</leafValues></_>
        <_>
          <internalNodes>
            0 -1 679 -1.1390762403607368e-02</internalNodes>
          <leafValues>
            -5.3767621517181396e-01 7.3870778083801270e-02</leafValues></_>
        <_>
          <internalNodes>
            0 -1 38 3.1090669333934784e-02</internalNodes>
          <leafValues>
            5.1927372813224792e-02 -5.4595208168029785e-01</leafValues></_>
        <_>
          <internalNodes>
            0 -1 87 -1.5509564429521561e-02</internalNodes>
          <leafValues>
            -7.5408655405044556e-01 3.9397910237312317e-02</leafValues></_>
        <_>
          <internalNodes>
            0 -1 720 -4.2993230745196342e-03</internalNodes>
          <leafValues>
            4.0498223900794983e-01 -8.9964471757411957e-02</leafValues></_>
        <_>
          <internalNodes>
            0 -1 660 -1.0066593997180462e-02</internalNodes>
          <leafValues>
            2.9156762361526489e-01 -1.0747781395912170e-01</leafValues></_>
        <_>
          <internalNodes>
            0 -1 366 -4.0733841160545126e-05</internalNodes>
          <leafValues>
            2.1961073577404022e-01 -1.4510829746723175e-01</leafValues></_>
        <_>
          <internalNodes>
            0 -1 370 3.4117777831852436e-03</internalNodes>
          <leafValues>
            -5.4457440972328186e-02 5.5034130811691284e-01</leafValues></_>
        <_>
          <internalNodes>
            0 -1 436 1.5454925596714020e-03</internalNodes>
          <leafValues>
            1.1024351418018341e-01 -2.9813498258590698e-01</leafValues></_>
        <_>
          <internalNodes>
            0 -1 223 1.1402606032788754e-03</internalNodes>
          <leafValues>
            -1.7080615460872650e-01 2.0041798055171967e-01</leafValues></_>
        <_>
          <internalNodes>
            0 -1 567 -1.2825431767851114e-03</internalNodes>
          <leafValues>
            -3.7265792489051819e-01 8.9629173278808594e-02</leafValues></_>
        <_>
          <internalNodes>
            0 -1 593 -4.2293006554245949e-03</internalNodes>
          <leafValues>
            1.6011868417263031e-01 -1.9684760272502899e-01</leafValues></_>
        <_>
          <internalNodes>
            0 -1 712 9.1264740331098437e-04</internalNodes>
          <leafValues>
            1.0586017370223999e-01 -3.3050215244293213e-01</leafValues></_>
        <_>
          <internalNodes>
            0 -1 713 3.5038860514760017e-03</internalNodes>
          <leafValues>
            -7.5835779309272766e-02 4.5870664715766907e-01</leafValues></_>
        <_>
          <internalNodes>
            0 -1 540 7.0778871886432171e-03</internalNodes>
          <leafValues>
            6.3064813613891602e-02 -5.3515207767486572e-01</leafValues></_>
        <_>
          <internalNodes>
            0 -1 416 -7.2132265195250511e-03</internalNodes>
          <leafValues>
            2.0270845293998718e-01 -1.5318109095096588e-01</leafValues></_>
        <_>
          <internalNodes>
            0 -1 296 -7.2490522870793939e-04</internalNodes>
          <leafValues>
            -2.9846125841140747e-01 1.1230862885713577e-01</leafValues></_>
        <_>
          <internalNodes>
            0 -1 359 5.2454178221523762e-03</internalNodes>
          <leafValues>
            -1.3807438313961029e-01 2.5319105386734009e-01</leafValues></_>
        <_>
          <internalNodes>
            0 -1 724 -1.6355529427528381e-02</internalNodes>
          <leafValues>
            3.5088625550270081e-01 -9.2053696513175964e-02</leafValues></_>
        <_>
          <internalNodes>
            0 -1 848 1.1259454302489758e-02</internalNodes>
          <leafValues>
            -7.9099006950855255e-02 3.7863397598266602e-01</leafValues></_>
        <_>
          <internalNodes>
            0 -1 186 1.9638165831565857e-02</internalNodes>
          <leafValues>
            5.3759384900331497e-02 -6.2809669971466064e-01</leafValues></_>
        <_>
          <internalNodes>
            0 -1 389 -2.5759588927030563e-02</internalNodes>
          <leafValues>
            -4.6685332059860229e-01 6.1613760888576508e-02</leafValues></_>
        <_>
          <internalNodes>
            0 -1 496 -1.1450337246060371e-02</internalNodes>
          <leafValues>
            2.9530695080757141e-01 -1.0778762400150299e-01</leafValues></_>
        <_>
          <internalNodes>
            0 -1 233 2.1481238305568695e-02</internalNodes>
          <leafValues>
            5.8372173458337784e-02 -5.6787371635437012e-01</leafValues></_>
        <_>
          <internalNodes>
            0 -1 766 8.3841849118471146e-04</internalNodes>
          <leafValues>
            7.8711219131946564e-02 -3.6543086171150208e-01</leafValues></_>
        <_>
          <internalNodes>
            0 -1 760 2.7697826735675335e-03</internalNodes>
          <leafValues>
            -1.7492546141147614e-01 1.9396871328353882e-01</leafValues></_>
        <_>
          <internalNodes>
            0 -1 217 1.4894519001245499e-02</internalNodes>
          <leafValues>
            -1.0530339926481247e-01 2.9757717251777649e-01</leafValues></_>
        <_>
          <internalNodes>
            0 -1 114 -2.7490030974149704e-02</internalNodes>
          <leafValues>
            -6.6029721498489380e-01 4.9972616136074066e-02</leafValues></_>
        <_>
          <internalNodes>
            0 -1 511 4.0790597267914563e-05</internalNodes>
          <leafValues>
            -1.6070507466793060e-01 1.9976688921451569e-01</leafValues></_></weakClassifiers></_>
    <!-- stage 13 -->
    <_>
      <maxWeakCount>59</maxWeakCount>
      <stageThreshold>-1.3776460886001587e+00</stageThreshold>
      <weakClassifiers>
        <_>
          <internalNodes>
            0 -1 75 2.1317549049854279e-02</internalNodes>
          <leafValues>
            -2.0055866241455078e-01 2.9669421911239624e-01</leafValues></_>
        <_>
          <internalNodes>
            0 -1 762 -1.0153532028198242e-02</internalNodes>
          <leafValues>
            1.5717913210391998e-01 -3.2470673322677612e-01</leafValues></_>
        <_>
          <internalNodes>
            0 -1 811 1.3575819320976734e-02</internalNodes>
          <leafValues>
            -1.2730433046817780e-01 3.2812291383743286e-01</leafValues></_>
        <_>
          <internalNodes>
            0 -1 862 -1.7346579115837812e-03</internalNodes>
          <leafValues>
            -3.8615354895591736e-01 6.4548477530479431e-02</leafValues></_>
        <_>
          <internalNodes>
            0 -1 815 -3.4921797923743725e-03</internalNodes>
          <leafValues>
            4.3387892842292786e-01 -7.2742514312267303e-02</leafValues></_>
        <_>
          <internalNodes>
            0 -1 837 3.9382847025990486e-03</internalNodes>
          <leafValues>
            -6.9034628570079803e-02 4.9395054578781128e-01</leafValues></_>
        <_>
          <internalNodes>
            0 -1 100 -1.3234069943428040e-01</internalNodes>
          <leafValues>
            -6.3362264633178711e-01 5.4477721452713013e-02</leafValues></_>
        <_>
          <internalNodes>
            0 -1 870 1.6369770746678114e-03</internalNodes>
          <leafValues>
            1.2782870233058929e-01 -3.3918282389640808e-01</leafValues></_>
        <_>
          <internalNodes>
            0 -1 43 2.7916198596358299e-03</internalNodes>
          <leafValues>
            -9.3144029378890991e-02 3.9377966523170471e-01</leafValues></_>
        <_>
          <internalNodes>
            0 -1 759 1.8068498000502586e-02</internalNodes>
          <leafValues>
            -1.1400526016950607e-01 3.2000166177749634e-01</leafValues></_>
        <_>
          <internalNodes>
            0 -1 473 3.3387872390449047e-03</internalNodes>
          <leafValues>
            -7.9931266605854034e-02 4.0198937058448792e-01</leafValues></_>
        <_>
          <internalNodes>
            0 -1 591 -1.3612138107419014e-02</internalNodes>
          <leafValues>
            -2.9392379522323608e-01 1.0553587228059769e-01</leafValues></_>
        <_>
          <internalNodes>
            0 -1 792 -1.4057833701372147e-02</internalNodes>
          <leafValues>
            4.0346041321754456e-01 -7.1758560836315155e-02</leafValues></_>
        <_>
          <internalNodes>
            0 -1 585 1.3357080519199371e-02</internalNodes>
          <leafValues>
            1.0500233620405197e-01 -3.2527464628219604e-01</leafValues></_>
        <_>
          <internalNodes>
            0 -1 748 -2.9394081793725491e-03</internalNodes>
          <leafValues>
            2.1883848309516907e-01 -1.5530772507190704e-01</leafValues></_>
        <_>
          <internalNodes>
            0 -1 85 8.2555774133652449e-04</internalNodes>
          <leafValues>
            1.0420521348714828e-01 -3.5851916670799255e-01</leafValues></_>
        <_>
          <internalNodes>
            0 -1 294 -3.4961258061230183e-03</internalNodes>
          <leafValues>
            1.3678376376628876e-01 -2.1746461093425751e-01</leafValues></_>
        <_>
          <internalNodes>
            0 -1 783 -9.7525231540203094e-03</internalNodes>
          <leafValues>
            1.8967959284782410e-01 -1.7241047322750092e-01</leafValues></_>
        <_>
          <internalNodes>
            0 -1 449 -5.0113518227590248e-05</internalNodes>
          <leafValues>
            2.2873510420322418e-01 -1.4034490287303925e-01</leafValues></_>
        <_>
          <internalNodes>
            0 -1 206 -2.1623440552502871e-03</internalNodes>
          <leafValues>
            1.2607537209987640e-01 -2.3473408818244934e-01</leafValues></_>
        <_>
          <internalNodes>
            0 -1 538 1.1965673416852951e-02</internalNodes>
          <leafValues>
            -8.3395227789878845e-02 4.2297074198722839e-01</leafValues></_>
        <_>
          <internalNodes>
            0 -1 122 -2.4224145337939262e-02</internalNodes>
          <leafValues>
            -4.5758318901062012e-01 7.4628971517086029e-02</leafValues></_>
        <_>
          <internalNodes>
            0 -1 737 8.9879352599382401e-03</internalNodes>
          <leafValues>
            -1.0703656077384949e-01 3.1412383913993835e-01</leafValues></_>
        <_>
          <internalNodes>
            0 -1 560 -3.9129874494392425e-05</internalNodes>
          <leafValues>
            2.2841216623783112e-01 -1.4553593099117279e-01</leafValues></_>
        <_>
          <internalNodes>
            0 -1 560 3.7631427403539419e-05</internalNodes>
          <leafValues>
            -1.9952297210693359e-01 2.6475569605827332e-01</leafValues></_>
        <_>
          <internalNodes>
            0 -1 84 -8.1269606947898865e-02</internalNodes>
          <leafValues>
            -6.4748185873031616e-01 4.2674601078033447e-02</leafValues></_>
        <_>
          <internalNodes>
            0 -1 559 4.5133918320061639e-05</internalNodes>
          <leafValues>
            -1.4252470433712006e-01 2.1259167790412903e-01</leafValues></_>
        <_>
          <internalNodes>
            0 -1 691 -3.4661581739783287e-03</internalNodes>
          <leafValues>
            3.8401180505752563e-01 -7.8394465148448944e-02</leafValues></_>
        <_>
          <internalNodes>
            0 -1 126 -1.1758648324757814e-03</internalNodes>
          <leafValues>
            -4.1681107878684998e-01 7.1514934301376343e-02</leafValues></_>
        <_>
          <internalNodes>
            0 -1 331 4.8751756548881531e-03</internalNodes>
          <leafValues>
            -1.3056351244449615e-01 2.3052504658699036e-01</leafValues></_>
        <_>
          <internalNodes>
            0 -1 95 -4.6073377132415771e-02</internalNodes>
          <leafValues>
            3.7747675180435181e-01 -8.5582874715328217e-02</leafValues></_>
        <_>
          <internalNodes>
            0 -1 63 9.4001039862632751e-02</internalNodes>
          <leafValues>
            -1.0704738646745682e-01 2.8708156943321228e-01</leafValues></_>
        <_>
          <internalNodes>
            0 -1 372 3.4847168717533350e-03</internalNodes>
          <leafValues>
            -9.0437762439250946e-02 3.6148408055305481e-01</leafValues></_>
        <_>
          <internalNodes>
            0 -1 854 1.1432163883000612e-03</internalNodes>
          <leafValues>
            1.2123256921768188e-01 -2.3708578944206238e-01</leafValues></_>
        <_>
          <internalNodes>
            0 -1 403 1.7636086791753769e-02</internalNodes>
          <leafValues>
            4.3327242136001587e-02 -6.1700409650802612e-01</leafValues></_>
        <_>
          <internalNodes>
            0 -1 574 -4.4219889678061008e-03</internalNodes>
          <leafValues>
            4.3422099947929382e-01 -7.2525829076766968e-02</leafValues></_>
        <_>
          <internalNodes>
            0 -1 348 -2.4532172828912735e-02</internalNodes>
          <leafValues>
            3.0654647946357727e-01 -8.7404012680053711e-02</leafValues></_>
        <_>
          <internalNodes>
            0 -1 171 1.0793277062475681e-02</internalNodes>
          <leafValues>
            -1.2123408168554306e-01 2.9022192955017090e-01</leafValues></_>
        <_>
          <internalNodes>
            0 -1 39 -4.7732982784509659e-03</internalNodes>
          <leafValues>
            4.6304345130920410e-01 -6.4698755741119385e-02</leafValues></_>
        <_>
          <internalNodes>
            0 -1 613 3.9717615436529741e-05</internalNodes>
          <leafValues>
            -1.2876147031784058e-01 2.2857604920864105e-01</leafValues></_>
        <_>
          <internalNodes>
            0 -1 401 4.4802390038967133e-03</internalNodes>
          <leafValues>
            1.0364820808172226e-01 -3.3207663893699646e-01</leafValues></_>
        <_>
          <internalNodes>
            0 -1 654 8.6011318489909172e-04</internalNodes>
          <leafValues>
            7.4045315384864807e-02 -3.9272013306617737e-01</leafValues></_>
        <_>
          <internalNodes>
            0 -1 473 -3.6987196654081345e-03</internalNodes>
          <leafValues>
            3.6801099777221680e-01 -8.2742974162101746e-02</leafValues></_>
