<?xml version="1.0"?>
<opencv_storage>
<cascade>
  <stageType>BOOST</stageType>
  <featureType>HAAR</featureType>
  <height>20</height>
  <width>20</width>
  <stageParams>
    <boostType>GAB</boostType>
    <minHitRate>9.9900001287460327e-01</minHitRate>
    <maxFalseAlarm>5.0000000000000000e-01</maxFalseAlarm>
    <weightTrimRate>9.4999999999999996e-01</weightTrimRate>
    <maxDepth>1</maxDepth>
    <maxWeakCount>100</maxWeakCount></stageParams>
  <featureParams>
    <maxCatCount>0</maxCatCount>
    <featSize>1</featSize>
    <mode>ALL</mode></featureParams>
  <stageNum>20</stageNum>
  <stages>
    <!-- stage 0 -->
    <_>
      <maxWeakCount>9</maxWeakCount>
      <stageThreshold>-1.5915970802307129e+00</stageThreshold>
      <weakClassifiers>
        <_>
          <internalNodes>
            0 -1 242 3.4391753375530243e-02</internalNodes>
          <leafValues>
            -6.9302946329116821e-01 6.8567639589309692e-01</leafValues></_>
        <_>
          <internalNodes>
            0 -1 369 5.9355877339839935e-02</internalNodes>
          <leafValues>
            -2.7090576291084290e-01 6.5192538499832153e-01</leafValues></_>
        <_>
          <internalNodes>
            0 -1 74 -5.6166533380746841e-02</internalNodes>
          <leafValues>
            8.3833414316177368e-01 -2.9012513160705566e-01</leafValues></_>
        <_>
          <internalNodes>
            0 -1 281 4.5196427963674068e-03</internalNodes>
          <leafValues>
            -4.0274596214294434e-01 4.1662597656250000e-01</leafValues></_>
        <_>
          <internalNodes>
            0 -1 152 6.2254250049591064e-02</internalNodes>
          <leafValues>
            -2.3371163010597229e-01 7.7284115552902222e-01</leafValues></_>
        <_>
          <internalNodes>
            0 -1 460 5.6589856743812561e-02</internalNodes>
          <leafValues>
            -3.1558129191398621e-01 6.0260480642318726e-01</leafValues></_>
        <_>
          <internalNodes>
            0 -1 26 1.2855999171733856e-01</internalNodes>
          <leafValues>
            2.6209279894828796e-01 -6.2877249717712402e-01</leafValues></_>
        <_>
          <internalNodes>
            0 -1 103 -1.0568864643573761e-01</internalNodes>
          <leafValues>
            7.6879227161407471e-01 -1.7386655509471893e-01</leafValues></_>
        <_>
          <internalNodes>
            0 -1 90 8.3164736628532410e-02</internalNodes>
          <leafValues>
            -2.9291328787803650e-01 5.2627599239349365e-01</leafValues></_></weakClassifiers></_>
    <!-- stage 1 -->
    <_>
      <maxWeakCount>22</maxWeakCount>
      <stageThreshold>-1.9767912626266479e+00</stageThreshold>
      <weakClassifiers>
        <_>
          <internalNodes>
            0 -1 242 3.6698743700981140e-02</internalNodes>
          <leafValues>
            -6.1930501461029053e-01 4.7038123011589050e-01</leafValues></_>
        <_>
          <internalNodes>
            0 -1 152 -8.3094120025634766e-02</internalNodes>
          <leafValues>
            7.7887994050979614e-01 -1.6587582230567932e-01</leafValues></_>
        <_>
          <internalNodes>
            0 -1 261 4.9313388764858246e-02</internalNodes>
          <leafValues>
            -4.8711889982223511e-01 4.9400687217712402e-01</leafValues></_>
        <_>
          <internalNodes>
            0 -1 473 -4.5212819240987301e-03</internalNodes>
          <leafValues>
            3.5800796747207642e-01 -2.7175956964492798e-01</leafValues></_>
        <_>
          <internalNodes>
            0 -1 120 7.8074639895930886e-04</internalNodes>
          <leafValues>
            1.4775814116001129e-01 -6.7724841833114624e-01</leafValues></_>
        <_>
          <internalNodes>
            0 -1 161 4.8836901783943176e-02</internalNodes>
          <leafValues>
            -1.6696348786354065e-01 5.9621077775955200e-01</leafValues></_>
        <_>
          <internalNodes>
            0 -1 461 6.3114598393440247e-02</internalNodes>
          <leafValues>
            -2.7064290642738342e-01 4.2884308099746704e-01</leafValues></_>
        <_>
          <internalNodes>
            0 -1 43 3.8877141475677490e-01</internalNodes>
          <leafValues>
            1.5448939800262451e-01 -9.4838351011276245e-01</leafValues></_>
        <_>
          <internalNodes>
            0 -1 281 7.2651607915759087e-03</internalNodes>
          <leafValues>
            -3.8543653488159180e-01 1.9367499649524689e-01</leafValues></_>
        <_>
          <internalNodes>
            0 -1 475 -7.6810945756733418e-04</internalNodes>
          <leafValues>
            -6.1155980825424194e-01 1.5419520437717438e-01</leafValues></_>
        <_>
          <internalNodes>
            0 -1 98 6.1831772327423096e-02</internalNodes>
          <leafValues>
            -2.2823227941989899e-01 3.8549897074699402e-01</leafValues></_>
        <_>
          <internalNodes>
            0 -1 114 4.3166961520910263e-02</internalNodes>
          <leafValues>
            -2.4211123585700989e-01 4.6371296048164368e-01</leafValues></_>
        <_>
          <internalNodes>
            0 -1 206 -1.1152101214975119e-03</internalNodes>
          <leafValues>
            -5.4144608974456787e-01 1.8637944757938385e-01</leafValues></_>
        <_>
          <internalNodes>
            0 -1 305 1.7766043543815613e-01</internalNodes>
          <leafValues>
            1.1195129901170731e-01 -7.5879389047622681e-01</leafValues></_>
        <_>
          <internalNodes>
            0 -1 81 -6.7170127294957638e-04</internalNodes>
          <leafValues>
            -4.8553222417831421e-01 1.5458726882934570e-01</leafValues></_>
        <_>
          <internalNodes>
            0 -1 333 5.6271553039550781e-03</internalNodes>
          <leafValues>
            -3.3858379721641541e-01 2.6600515842437744e-01</leafValues></_>
        <_>
          <internalNodes>
            0 -1 345 6.9389794953167439e-04</internalNodes>
          <leafValues>
            1.0294391214847565e-01 -8.3416825532913208e-01</leafValues></_>
        <_>
          <internalNodes>
            0 -1 388 5.5778294336050749e-04</internalNodes>
          <leafValues>
            2.0979823172092438e-01 -3.8475820422172546e-01</leafValues></_>
        <_>
          <internalNodes>
            0 -1 393 5.3159110248088837e-03</internalNodes>
          <leafValues>
            -2.2621110081672668e-01 3.9085686206817627e-01</leafValues></_>
        <_>
          <internalNodes>
            0 -1 491 -1.4832545071840286e-02</internalNodes>
          <leafValues>
            3.6196002364158630e-01 -2.5693783164024353e-01</leafValues></_>
        <_>
          <internalNodes>
            0 -1 34 1.1052672564983368e-01</internalNodes>
          <leafValues>
            -1.6208520531654358e-01 5.0220429897308350e-01</leafValues></_>
        <_>
          <internalNodes>
            0 -1 508 -9.8569178953766823e-04</internalNodes>
          <leafValues>
            -5.3863960504531860e-01 1.3706012070178986e-01</leafValues></_></weakClassifiers></_>
    <!-- stage 2 -->
    <_>
      <maxWeakCount>23</maxWeakCount>
      <stageThreshold>-1.6369169950485229e+00</stageThreshold>
      <weakClassifiers>
        <_>
          <internalNodes>
            0 -1 242 4.9876157194375992e-02</internalNodes>
          <leafValues>
            -4.1366907954216003e-01 3.5714286565780640e-01</leafValues></_>
        <_>
          <internalNodes>
            0 -1 152 -8.9194752275943756e-02</internalNodes>
          <leafValues>
            7.2753512859344482e-01 -1.3674741983413696e-01</leafValues></_>
        <_>
          <internalNodes>
            0 -1 152 7.2346776723861694e-02</internalNodes>
          <leafValues>
            -2.3815448582172394e-01 6.8560451269149780e-01</leafValues></_>
        <_>
          <internalNodes>
            0 -1 101 3.1877037882804871e-01</internalNodes>
          <leafValues>
            1.6723223030567169e-01 -8.6652868986129761e-01</leafValues></_>
        <_>
          <internalNodes>
            0 -1 317 6.1017170548439026e-02</internalNodes>
          <leafValues>
            -2.4290207028388977e-01 4.1992747783660889e-01</leafValues></_>
        <_>
          <internalNodes>
            0 -1 306 5.7435393333435059e-02</internalNodes>
          <leafValues>
            -2.9395315051078796e-01 3.5881358385086060e-01</leafValues></_>
        <_>
          <internalNodes>
            0 -1 126 6.9993839133530855e-04</internalNodes>
          <leafValues>
            1.8450374901294708e-01 -5.8209306001663208e-01</leafValues></_>
        <_>
          <internalNodes>
            0 -1 498 -3.7032891996204853e-03</internalNodes>
          <leafValues>
            1.9897869229316711e-01 -3.7874361872673035e-01</leafValues></_>
        <_>
          <internalNodes>
            0 -1 263 8.6745500564575195e-02</internalNodes>
          <leafValues>
            1.0390271991491318e-01 -9.4638174772262573e-01</leafValues></_>
        <_>
          <internalNodes>
            0 -1 106 -1.3175751268863678e-01</internalNodes>
          <leafValues>
            6.3208037614822388e-01 -1.4831593632698059e-01</leafValues></_>
        <_>
          <internalNodes>
            0 -1 390 7.6731236185878515e-04</internalNodes>
          <leafValues>
            1.1369674652814865e-01 -8.5240465402603149e-01</leafValues></_>
        <_>
          <internalNodes>
            0 -1 458 4.9656687770038843e-04</internalNodes>
          <leafValues>
            1.4164376258850098e-01 -4.7784674167633057e-01</leafValues></_>
        <_>
          <internalNodes>
            0 -1 439 -1.2347356230020523e-01</internalNodes>
          <leafValues>
            -8.2818770408630371e-01 9.2410475015640259e-02</leafValues></_>
        <_>
          <internalNodes>
            0 -1 141 -5.8654259191825986e-04</internalNodes>
          <leafValues>
            -4.8853528499603271e-01 1.2414023280143738e-01</leafValues></_>
        <_>
          <internalNodes>
            0 -1 438 -4.6619414351880550e-03</internalNodes>
          <leafValues>
            1.9260640442371368e-01 -3.3050885796546936e-01</leafValues></_>
        <_>
          <internalNodes>
            0 -1 396 6.9210189394652843e-04</internalNodes>
          <leafValues>
            1.1316695064306259e-01 -7.1037977933883667e-01</leafValues></_>
        <_>
          <internalNodes>
            0 -1 487 6.9970608456060290e-04</internalNodes>
          <leafValues>
            1.2237510830163956e-01 -5.1204818487167358e-01</leafValues></_>
        <_>
          <internalNodes>
            0 -1 505 1.0188795858994126e-03</internalNodes>
          <leafValues>
            1.4999453723430634e-01 -4.4750711321830750e-01</leafValues></_>
        <_>
          <internalNodes>
            0 -1 161 -3.9556168019771576e-02</internalNodes>
          <leafValues>
            4.8093616962432861e-01 -1.7534741759300232e-01</leafValues></_>
        <_>
          <internalNodes>
            0 -1 533 -3.5007114056497812e-03</internalNodes>
          <leafValues>
            5.6746250391006470e-01 -1.1883023381233215e-01</leafValues></_>
        <_>
          <internalNodes>
            0 -1 281 4.4568190351128578e-03</internalNodes>
          <leafValues>
            -3.0545604228973389e-01 2.0569927990436554e-01</leafValues></_>
        <_>
          <internalNodes>
            0 -1 390 -5.5617326870560646e-04</internalNodes>
          <leafValues>
            -2.9880464076995850e-01 2.2003217041492462e-01</leafValues></_>
        <_>
          <internalNodes>
            0 -1 288 -4.3121892958879471e-03</internalNodes>
          <leafValues>
            4.5537349581718445e-01 -1.9496643543243408e-01</leafValues></_></weakClassifiers></_>
    <!-- stage 3 -->
    <_>
      <maxWeakCount>24</maxWeakCount>
      <stageThreshold>-1.5231325626373291e+00</stageThreshold>
      <weakClassifiers>
        <_>
          <internalNodes>
            0 -1 333 2.6007371488958597e-03</internalNodes>
          <leafValues>
            -4.9146285653114319e-01 2.7785024046897888e-01</leafValues></_>
        <_>
          <internalNodes>
            0 -1 208 6.4829960465431213e-02</internalNodes>
          <leafValues>
            -2.7222681045532227e-01 3.9990657567977905e-01</leafValues></_>
        <_>
          <internalNodes>
            0 -1 152 -7.9828627407550812e-02</internalNodes>
          <leafValues>
            7.0445460081100464e-01 -1.4241382479667664e-01</leafValues></_>
        <_>
          <internalNodes>
            0 -1 330 -1.9149534404277802e-02</internalNodes>
          <leafValues>
            3.8338994979858398e-01 -4.0032950043678284e-01</leafValues></_>
        <_>
          <internalNodes>
            0 -1 385 -4.1729160584509373e-03</internalNodes>
          <leafValues>
            2.7428287267684937e-01 -3.5904383659362793e-01</leafValues></_>
        <_>
          <internalNodes>
            0 -1 386 1.5906983613967896e-01</internalNodes>
          <leafValues>
            -1.7124800384044647e-01 5.1651972532272339e-01</leafValues></_>
        <_>
          <internalNodes>
            0 -1 489 6.6163547337055206e-02</internalNodes>
          <leafValues>
            -1.8878182768821716e-01 4.1902983188629150e-01</leafValues></_>
        <_>
          <internalNodes>
            0 -1 146 1.2574067711830139e-01</internalNodes>
          <leafValues>
            -1.4453777670860291e-01 7.4725079536437988e-01</leafValues></_>
        <_>
          <internalNodes>
            0 -1 109 -4.0496744215488434e-02</internalNodes>
          <leafValues>
            5.5537253618240356e-01 -1.1539379507303238e-01</leafValues></_>
        <_>
          <internalNodes>
            0 -1 48 5.5424645543098450e-02</internalNodes>
          <leafValues>
            -2.0192600786685944e-01 4.1310903429985046e-01</leafValues></_>
        <_>
          <internalNodes>
            0 -1 500 -1.0073529556393623e-03</internalNodes>
          <leafValues>
            -4.0596294403076172e-01 1.9765949249267578e-01</leafValues></_>
        <_>
          <internalNodes>
            0 -1 135 2.3739361763000488e-01</internalNodes>
          <leafValues>
            9.0857289731502533e-02 -7.8215634822845459e-01</leafValues></_>
        <_>
          <internalNodes>
            0 -1 33 2.0057506859302521e-02</internalNodes>
          <leafValues>
            -2.1166062355041504e-01 3.5713827610015869e-01</leafValues></_>
        <_>
          <internalNodes>
            0 -1 271 -2.6850404683500528e-03</internalNodes>
          <leafValues>
            2.5659313797950745e-01 -2.7892038226127625e-01</leafValues></_>
        <_>
          <internalNodes>
            0 -1 508 8.1960612442344427e-04</internalNodes>
          <leafValues>
            1.5043680369853973e-01 -4.8710674047470093e-01</leafValues></_>
        <_>
          <internalNodes>
            0 -1 406 -3.3409753814339638e-03</internalNodes>
          <leafValues>
            2.0512089133262634e-01 -3.2175821065902710e-01</leafValues></_>
        <_>
          <internalNodes>
            0 -1 87 8.9891925454139709e-03</internalNodes>
          <leafValues>
            -1.9232702255249023e-01 3.6206510663032532e-01</leafValues></_>
        <_>
          <internalNodes>
            0 -1 410 -5.9911988675594330e-02</internalNodes>
          <leafValues>
            -8.8084650039672852e-01 8.6894318461418152e-02</leafValues></_>
        <_>
          <internalNodes>
            0 -1 239 -5.5960018653422594e-04</internalNodes>
          <leafValues>
            -4.6941861510276794e-01 1.1481762677431107e-01</leafValues></_>
        <_>
          <internalNodes>
            0 -1 108 1.3201364874839783e-01</internalNodes>
          <leafValues>
            8.3839640021324158e-02 -7.4181926250457764e-01</leafValues></_>
        <_>
          <internalNodes>
            0 -1 234 -5.3557455539703369e-03</internalNodes>
          <leafValues>
            2.1111577749252319e-01 -2.7190291881561279e-01</leafValues></_>
        <_>
          <internalNodes>
            0 -1 91 -1.9701451063156128e-02</internalNodes>
          <leafValues>
            6.3600665330886841e-01 -1.1034946143627167e-01</leafValues></_>
        <_>
          <internalNodes>
            0 -1 144 -5.1950782537460327e-02</internalNodes>
          <leafValues>
            5.6053024530410767e-01 -1.0455821454524994e-01</leafValues></_>
        <_>
          <internalNodes>
            0 -1 258 -8.4554753266274929e-04</internalNodes>
          <leafValues>
            -5.7128596305847168e-01 1.4274558424949646e-01</leafValues></_></weakClassifiers></_>
    <!-- stage 4 -->
    <_>
      <maxWeakCount>30</maxWeakCount>
      <stageThreshold>-1.7200995683670044e+00</stageThreshold>
      <weakClassifiers>
        <_>
          <internalNodes>
            0 -1 293 -9.9360942840576172e-03</internalNodes>
          <leafValues>
            3.1681531667709351e-01 -3.2256978750228882e-01</leafValues></_>
        <_>
          <internalNodes>
            0 -1 476 -8.2916896790266037e-03</internalNodes>
          <leafValues>
            4.0961921215057373e-01 -2.1245396137237549e-01</leafValues></_>
        <_>
          <internalNodes>
            0 -1 460 8.9019328355789185e-02</internalNodes>
          <leafValues>
            -1.9248434901237488e-01 4.5704069733619690e-01</leafValues></_>
        <_>
          <internalNodes>
            0 -1 199 4.1073188185691833e-02</internalNodes>
          <leafValues>
            -1.9833180308341980e-01 5.4944133758544922e-01</leafValues></_>
        <_>
          <internalNodes>
            0 -1 291 -1.9816655665636063e-02</internalNodes>
          <leafValues>
            3.3018222451210022e-01 -3.2210224866867065e-01</leafValues></_>
        <_>
          <internalNodes>
            0 -1 516 1.7851570621132851e-02</internalNodes>
          <leafValues>
            -2.1390348672866821e-01 3.3407062292098999e-01</leafValues></_>
        <_>
          <internalNodes>
            0 -1 43 3.5614216327667236e-01</internalNodes>
          <leafValues>
            1.0367455333471298e-01 -7.8939586877822876e-01</leafValues></_>
        <_>
          <internalNodes>
            0 -1 462 4.2597115039825439e-02</internalNodes>
          <leafValues>
            -1.7092069983482361e-01 4.4525459408760071e-01</leafValues></_>
        <_>
          <internalNodes>
            0 -1 512 8.3282843232154846e-02</internalNodes>
          <leafValues>
            8.7929911911487579e-02 -7.8422576189041138e-01</leafValues></_>
        <_>
          <internalNodes>
            0 -1 95 1.2466475367546082e-01</internalNodes>
          <leafValues>
            1.1566925048828125e-01 -5.6110143661499023e-01</leafValues></_>
        <_>
          <internalNodes>
            0 -1 3 1.4681132510304451e-02</internalNodes>
          <leafValues>
            -1.4212819933891296e-01 4.7262731194496155e-01</leafValues></_>
        <_>
          <internalNodes>
            0 -1 251 2.1552756428718567e-02</internalNodes>
          <leafValues>
            -2.8664469718933105e-01 2.0690737664699554e-01</leafValues></_>
        <_>
          <internalNodes>
            0 -1 292 4.6352064236998558e-04</internalNodes>
          <leafValues>
            2.1985994279384613e-01 -2.7871039509773254e-01</leafValues></_>
        <_>
          <internalNodes>
            0 -1 238 -7.2861253283917904e-03</internalNodes>
          <leafValues>
            3.8699305057525635e-01 -1.9444835186004639e-01</leafValues></_>
        <_>
          <internalNodes>
            0 -1 107 -1.4927944540977478e-01</internalNodes>
          <leafValues>
            6.6330832242965698e-01 -8.5783407092094421e-02</leafValues></_>
        <_>
          <internalNodes>
            0 -1 443 7.3541299207136035e-04</internalNodes>
          <leafValues>
            1.2631504237651825e-01 -5.2529126405715942e-01</leafValues></_>
        <_>
          <internalNodes>
            0 -1 35 -8.8721185922622681e-02</internalNodes>
          <leafValues>
            -8.2593202590942383e-01 7.8403733670711517e-02</leafValues></_>
        <_>
          <internalNodes>
            0 -1 281 1.5300544910132885e-03</internalNodes>
          <leafValues>
            -4.5661997795104980e-01 1.1144903302192688e-01</leafValues></_>
        <_>
          <internalNodes>
            0 -1 307 -9.1506913304328918e-02</internalNodes>
          <leafValues>
            6.8158417940139771e-01 -1.0174226015806198e-01</leafValues></_>
        <_>
          <internalNodes>
            0 -1 525 9.4792916206642985e-04</internalNodes>
          <leafValues>
            1.7136657238006592e-01 -3.7255996465682983e-01</leafValues></_>
        <_>
          <internalNodes>
            0 -1 520 -1.3529282994568348e-02</internalNodes>
          <leafValues>
            4.2166632413864136e-01 -1.4036649465560913e-01</leafValues></_>
        <_>
          <internalNodes>
            0 -1 281 2.2435482591390610e-02</internalNodes>
          <leafValues>
            8.2939408719539642e-02 -7.5337511301040649e-01</leafValues></_>
        <_>
          <internalNodes>
            0 -1 5 -1.0329423472285271e-02</internalNodes>
          <leafValues>
            3.3234897255897522e-01 -1.7307622730731964e-01</leafValues></_>
        <_>
          <internalNodes>
            0 -1 383 3.8559142500162125e-02</internalNodes>
          <leafValues>
            -1.6582447290420532e-01 3.0664879083633423e-01</leafValues></_>
        <_>
          <internalNodes>
            0 -1 323 -1.2779590487480164e-01</internalNodes>
          <leafValues>
            4.5579954981803894e-01 -1.8231436610221863e-01</leafValues></_>
        <_>
          <internalNodes>
            0 -1 181 -1.1591849848628044e-02</internalNodes>
          <leafValues>
            4.1857030987739563e-01 -1.2345490604639053e-01</leafValues></_>
        <_>
          <internalNodes>
            0 -1 292 -8.3803280722349882e-04</internalNodes>
          <leafValues>
            -7.0287203788757324e-01 9.6553288400173187e-02</leafValues></_>
        <_>
          <internalNodes>
            0 -1 454 -8.5926515748724341e-04</internalNodes>
          <leafValues>
            -4.8971298336982727e-01 8.7868653237819672e-02</leafValues></_>
        <_>
          <internalNodes>
            0 -1 320 -1.4315804466605186e-02</internalNodes>
          <leafValues>
            2.4156692624092102e-01 -2.2732710838317871e-01</leafValues></_>
        <_>
          <internalNodes>
            0 -1 324 -4.4091060757637024e-02</internalNodes>
          <leafValues>
            -8.2934057712554932e-01 7.3034107685089111e-02</leafValues></_></weakClassifiers></_>
    <!-- stage 5 -->
    <_>
      <maxWeakCount>32</maxWeakCount>
      <stageThreshold>-1.5202025175094604e+00</stageThreshold>
      <weakClassifiers>
        <_>
          <internalNodes>
            0 -1 49 4.8716567456722260e-02</internalNodes>
          <leafValues>
            -2.4396477639675140e-01 3.4651067852973938e-01</leafValues></_>
        <_>
          <internalNodes>
            0 -1 123 -6.6298265010118484e-03</internalNodes>
          <leafValues>
            2.8466206789016724e-01 -3.6461877822875977e-01</leafValues></_>
        <_>
          <internalNodes>
            0 -1 146 -1.0406954586505890e-01</internalNodes>
          <leafValues>
            5.6944864988327026e-01 -1.3327297568321228e-01</leafValues></_>
        <_>
          <internalNodes>
            0 -1 228 9.4672314822673798e-02</internalNodes>
          <leafValues>
            -1.9679750502109528e-01 4.5280045270919800e-01</leafValues></_>
        <_>
          <internalNodes>
            0 -1 385 -3.2498491927981377e-03</internalNodes>
          <leafValues>
            1.8866904079914093e-01 -3.8328969478607178e-01</leafValues></_>
        <_>
          <internalNodes>
            0 -1 220 -1.1269966140389442e-02</internalNodes>
          <leafValues>
            4.0109732747077942e-01 -2.1178400516510010e-01</leafValues></_>
        <_>
          <internalNodes>
            0 -1 99 4.0821120142936707e-02</internalNodes>
          <leafValues>
            -2.6405513286590576e-01 3.0902558565139771e-01</leafValues></_>
        <_>
          <internalNodes>
            0 -1 362 -3.6903038620948792e-02</internalNodes>
          <leafValues>
            4.2881602048873901e-01 -1.8606030941009521e-01</leafValues></_>
        <_>
          <internalNodes>
            0 -1 101 3.2618859410285950e-01</internalNodes>
          <leafValues>
            1.2159248441457748e-01 -9.1983270645141602e-01</leafValues></_>
        <_>
          <internalNodes>
            0 -1 310 -8.0422317842021585e-04</internalNodes>
          <leafValues>
            -5.3899067640304565e-01 7.6318137347698212e-02</leafValues></_>
        <_>
          <internalNodes>
            0 -1 379 -3.7299826741218567e-02</internalNodes>
          <leafValues>
            3.3735129237174988e-01 -1.8302726745605469e-01</leafValues></_>
        <_>
          <internalNodes>
            0 -1 515 -7.0479244459420443e-04</internalNodes>
          <leafValues>
            -4.0156173706054688e-01 1.9335883855819702e-01</leafValues></_>
        <_>
          <internalNodes>
            0 -1 434 6.0796234756708145e-02</internalNodes>
          <leafValues>
            -2.2658617794513702e-01 2.9410085082054138e-01</leafValues></_>
        <_>
          <internalNodes>
            0 -1 146 1.0599587112665176e-01</internalNodes>
          <leafValues>
            -1.3855101168155670e-01 5.4976952075958252e-01</leafValues></_>
        <_>
          <internalNodes>
            0 -1 258 6.4496631966903806e-04</internalNodes>
          <leafValues>
            1.5900561213493347e-01 -4.3100288510322571e-01</leafValues></_>
        <_>
          <internalNodes>
            0 -1 105 -9.0860649943351746e-02</internalNodes>
          <leafValues>
            -9.1315490007400513e-01 3.1809005886316299e-02</leafValues></_>
        <_>
          <internalNodes>
            0 -1 381 -1.1489293538033962e-03</internalNodes>
          <leafValues>
            -5.0045472383499146e-01 1.0007461160421371e-01</leafValues></_>
        <_>
          <internalNodes>
            0 -1 304 3.6521472036838531e-02</internalNodes>
          <leafValues>
            -1.7359915375709534e-01 3.1749451160430908e-01</leafValues></_>
        <_>
          <internalNodes>
            0 -1 193 7.5754031538963318e-02</internalNodes>
          <leafValues>
            -6.6719762980937958e-02 7.4247735738754272e-01</leafValues></_>
        <_>
          <internalNodes>
            0 -1 62 -1.8067952245473862e-02</internalNodes>
          <leafValues>
            5.4181259870529175e-01 -9.4078548252582550e-02</leafValues></_>
        <_>
          <internalNodes>
            0 -1 65 5.2868411876261234e-03</internalNodes>
          <leafValues>
            -1.3929730653762817e-01 4.1818964481353760e-01</leafValues></_>
        <_>
          <internalNodes>
            0 -1 149 -7.2023889515548944e-04</internalNodes>
          <leafValues>
            -4.3535324931144714e-01 1.1932773143053055e-01</leafValues></_>
        <_>
          <internalNodes>
            0 -1 316 -2.2183749824762344e-02</internalNodes>
          <leafValues>
            3.7519517540931702e-01 -1.6661381721496582e-01</leafValues></_>
        <_>
          <internalNodes>
            0 -1 526 1.2185078114271164e-02</internalNodes>
          <leafValues>
            -1.3092288374900818e-01 4.1529610753059387e-01</leafValues></_>
        <_>
          <internalNodes>
            0 -1 173 -6.1881053261458874e-04</internalNodes>
          <leafValues>
            -4.7716411948204041e-01 1.3201186060905457e-01</leafValues></_>
        <_>
          <internalNodes>
            0 -1 468 -4.3854671530425549e-03</internalNodes>
          <leafValues>
            2.1780766546726227e-01 -2.5566783547401428e-01</leafValues></_>
        <_>
          <internalNodes>
            0 -1 167 -1.5178722329437733e-02</internalNodes>
          <leafValues>
            4.2010691761970520e-01 -1.5763746201992035e-01</leafValues></_>
        <_>
          <internalNodes>
            0 -1 191 1.3955530710518360e-02</internalNodes>
          <leafValues>
            -2.0266376435756683e-01 2.6218175888061523e-01</leafValues></_>
        <_>
          <internalNodes>
            0 -1 260 3.7255220115184784e-02</internalNodes>
          <leafValues>
            6.0248430818319321e-02 -8.3826184272766113e-01</leafValues></_>
        <_>
          <internalNodes>
            0 -1 281 4.4546937569975853e-03</internalNodes>
          <leafValues>
            -3.5235261917114258e-01 1.5503066778182983e-01</leafValues></_>
        <_>
          <internalNodes>
            0 -1 77 1.1972849071025848e-01</internalNodes>
          <leafValues>
            6.2847271561622620e-02 -8.2488405704498291e-01</leafValues></_>
        <_>
          <internalNodes>
            0 -1 475 6.7531235981732607e-04</internalNodes>
          <leafValues>
            1.1517806351184845e-01 -4.4229912757873535e-01</leafValues></_></weakClassifiers></_>
    <!-- stage 6 -->
    <_>
      <maxWeakCount>33</maxWeakCount>
      <stageThreshold>-1.3927273750305176e+00</stageThreshold>
      <weakClassifiers>
        <_>
          <internalNodes>
            0 -1 178 1.1052287882193923e-03</internalNodes>
          <leafValues>
            9.6554338932037354e-02 -7.1030640602111816e-01</leafValues></_>
        <_>
          <internalNodes>
            0 -1 152 -1.0397011041641235e-01</internalNodes>
          <leafValues>
            6.3754212856292725e-01 -1.1877667903900146e-01</leafValues></_>
        <_>
          <internalNodes>
            0 -1 452 6.8357154726982117e-02</internalNodes>
          <leafValues>
            -1.1574485152959824e-01 4.2799520492553711e-01</leafValues></_>
        <_>
          <internalNodes>
            0 -1 488 -1.1522878706455231e-01</internalNodes>
          <leafValues>
            6.3853901624679565e-01 -9.2346198856830597e-02</leafValues></_>
        <_>
          <internalNodes>
            0 -1 433 1.5151161700487137e-02</internalNodes>
          <leafValues>
            -3.0706170201301575e-01 2.1101672947406769e-01</leafValues></_>
        <_>
          <internalNodes>
            0 -1 376 -4.2292694561183453e-03</internalNodes>
          <leafValues>
            2.5169926881790161e-01 -2.8503519296646118e-01</leafValues></_>
        <_>
          <internalNodes>
            0 -1 69 -7.1172133088111877e-02</internalNodes>
          <leafValues>
            5.5039876699447632e-01 -1.3994404673576355e-01</leafValues></_>
        <_>
          <internalNodes>
            0 -1 64 2.3147419095039368e-02</internalNodes>
          <leafValues>
            -2.0284228026866913e-01 3.0556094646453857e-01</leafValues></_>
        <_>
          <internalNodes>
            0 -1 231 2.1191978454589844e-01</internalNodes>
          <leafValues>
            9.0210169553756714e-02 -9.4713640213012695e-01</leafValues></_>
        <_>
          <internalNodes>
            0 -1 286 2.0495615899562836e-03</internalNodes>
          <leafValues>
            -4.2243492603302002e-01 1.1851654201745987e-01</leafValues></_>
        <_>
          <internalNodes>
            0 -1 283 -6.6095488145947456e-03</internalNodes>
          <leafValues>
            -7.1241712570190430e-01 9.4443291425704956e-02</leafValues></_>
        <_>
          <internalNodes>
            0 -1 344 -6.9254991831257939e-04</internalNodes>
          <leafValues>
            -3.8936859369277954e-01 1.1832937598228455e-01</leafValues></_>
        <_>
          <internalNodes>
            0 -1 267 5.8577813208103180e-02</internalNodes>
          <leafValues>
            -1.5683905780315399e-01 3.6630505323410034e-01</leafValues></_>
        <_>
          <internalNodes>
            0 -1 206 -7.2855973849073052e-04</internalNodes>
          <leafValues>
            -4.0151837468147278e-01 1.2351921200752258e-01</leafValues></_>
        <_>
          <internalNodes>
            0 -1 395 -4.2932253563776612e-04</internalNodes>
          <leafValues>
            -2.6725500822067261e-01 1.8969881534576416e-01</leafValues></_>
        <_>
          <internalNodes>
            0 -1 510 -6.9156266748905182e-02</internalNodes>
          <leafValues>
            4.9632209539413452e-01 -1.0992641746997833e-01</leafValues></_>
        <_>
          <internalNodes>
            0 -1 175 1.8577611073851585e-02</internalNodes>
          <leafValues>
            -1.7859241366386414e-01 2.9233455657958984e-01</leafValues></_>
        <_>
          <internalNodes>
            0 -1 67 7.0425361394882202e-02</internalNodes>
          <leafValues>
            -2.0589248836040497e-01 3.4858340024948120e-01</leafValues></_>
        <_>
          <internalNodes>
            0 -1 13 -7.5662247836589813e-02</internalNodes>
          <leafValues>
            -8.1000036001205444e-01 7.3604501783847809e-02</leafValues></_>
        <_>
          <internalNodes>
            0 -1 46 2.7864941954612732e-01</internalNodes>
          <leafValues>
            5.5989027023315430e-02 -6.7694330215454102e-01</leafValues></_>
        <_>
          <internalNodes>
            0 -1 335 4.4310260564088821e-03</internalNodes>
          <leafValues>
            -1.6059766709804535e-01 3.6876779794692993e-01</leafValues></_>
        <_>
          <internalNodes>
            0 -1 153 -9.0662902221083641e-04</internalNodes>
          <leafValues>
            -5.2175438404083252e-01 1.0002596676349640e-01</leafValues></_>
        <_>
          <internalNodes>
            0 -1 254 -1.7479551024734974e-03</internalNodes>
          <leafValues>
            1.5671619772911072e-01 -2.9624941945075989e-01</leafValues></_>
        <_>
          <internalNodes>
            0 -1 364 -5.5367119610309601e-02</internalNodes>
          <leafValues>
            -5.1901853084564209e-01 1.0496378690004349e-01</leafValues></_>
        <_>
          <internalNodes>
            0 -1 453 1.9416760653257370e-02</internalNodes>
          <leafValues>
            6.0117758810520172e-02 -8.0176621675491333e-01</leafValues></_>
        <_>
          <internalNodes>
            0 -1 506 2.1905858069658279e-02</internalNodes>
          <leafValues>
            -1.2949298322200775e-01 3.7528321146965027e-01</leafValues></_>
        <_>
          <internalNodes>
            0 -1 96 -3.6882234271615744e-03</internalNodes>
          <leafValues>
            1.8095830082893372e-01 -2.5838857889175415e-01</leafValues></_>
        <_>
          <internalNodes>
            0 -1 365 1.7111593857407570e-02</internalNodes>
          <leafValues>
            -2.2602817416191101e-01 2.3969148099422455e-01</leafValues></_>
        <_>
          <internalNodes>
            0 -1 140 -5.5599929764866829e-03</internalNodes>
          <leafValues>
            2.1319305896759033e-01 -2.4992002546787262e-01</leafValues></_>
        <_>
          <internalNodes>
            0 -1 172 -6.4335376024246216e-02</internalNodes>
          <leafValues>
            -5.9048646688461304e-01 7.6568491756916046e-02</leafValues></_>
        <_>
          <internalNodes>
            0 -1 381 8.5793924517929554e-04</internalNodes>
          <leafValues>
            8.9086130261421204e-02 -4.8573294281959534e-01</leafValues></_>
        <_>
          <internalNodes>
            0 -1 389 6.3027986325323582e-03</internalNodes>
          <leafValues>
            -1.7632125318050385e-01 2.7386930584907532e-01</leafValues></_>
        <_>
          <internalNodes>
            0 -1 469 -2.1454319357872009e-03</internalNodes>
          <leafValues>
            1.8975183367729187e-01 -2.7016758918762207e-01</leafValues></_></weakClassifiers></_>
    <!-- stage 7 -->
    <_>
      <maxWeakCount>38</maxWeakCount>
      <stageThreshold>-1.5095018148422241e+00</stageThreshold>
      <weakClassifiers>
        <_>
          <internalNodes>
            0 -1 31 5.1143951714038849e-02</internalNodes>
          <leafValues>
            -2.2599194943904877e-01 3.1165742874145508e-01</leafValues></_>
        <_>
          <internalNodes>
            0 -1 93 1.1052533984184265e-01</internalNodes>
          <leafValues>
            -2.3926955461502075e-01 3.8756492733955383e-01</leafValues></_>
        <_>
          <internalNodes>
            0 -1 102 -8.0909892916679382e-02</internalNodes>
          <leafValues>
            4.7701570391654968e-01 -1.6638381779193878e-01</leafValues></_>
        <_>
          <internalNodes>
            0 -1 333 3.5483373794704676e-03</internalNodes>
          <leafValues>
            -3.0879309773445129e-01 2.3079690337181091e-01</leafValues></_>
        <_>
          <internalNodes>
            0 -1 235 -6.5062940120697021e-03</internalNodes>
          <leafValues>
            2.7179500460624695e-01 -2.2811543941497803e-01</leafValues></_>
        <_>
          <internalNodes>
            0 -1 375 -1.1312732473015785e-02</internalNodes>
          <leafValues>
            3.3238255977630615e-01 -2.1784983575344086e-01</leafValues></_>
        <_>
          <internalNodes>
            0 -1 401 5.7601854205131531e-02</internalNodes>
          <leafValues>
            -2.3967473208904266e-01 3.6156895756721497e-01</leafValues></_>
        <_>
          <internalNodes>
            0 -1 366 6.3404649496078491e-02</internalNodes>
          <leafValues>
            -2.0597404241561890e-01 2.9269111156463623e-01</leafValues></_>
        <_>
          <internalNodes>
            0 -1 72 2.6363682746887207e-01</internalNodes>
          <leafValues>
            8.9807368814945221e-02 -8.7239611148834229e-01</leafValues></_>
        <_>
          <internalNodes>
            0 -1 348 -1.8628020770847797e-03</internalNodes>
          <leafValues>
            2.2538691759109497e-01 -3.0494248867034912e-01</leafValues></_>
        <_>
          <internalNodes>
            0 -1 393 6.4951954409480095e-03</internalNodes>
          <leafValues>
            -2.5267496705055237e-01 2.8122171759605408e-01</leafValues></_>
        <_>
          <internalNodes>
            0 -1 457 9.5046882051974535e-04</internalNodes>
          <leafValues>
            1.8080990016460419e-01 -3.8832208514213562e-01</leafValues></_>
        <_>
          <internalNodes>
            0 -1 475 -9.6277619013562799e-04</internalNodes>
          <leafValues>
            -6.8043667078018188e-01 4.3824210762977600e-02</leafValues></_>
        <_>
          <internalNodes>
            0 -1 263 8.0226972699165344e-02</internalNodes>
          <leafValues>
            6.1220973730087280e-02 -8.1852877140045166e-01</leafValues></_>
        <_>
          <internalNodes>
            0 -1 472 -3.1452928669750690e-04</internalNodes>
          <leafValues>
            1.5187004208564758e-01 -3.2689473032951355e-01</leafValues></_>
        <_>
          <internalNodes>
            0 -1 252 -8.0955643206834793e-03</internalNodes>
          <leafValues>
            3.2297417521476746e-01 -2.2556222975254059e-01</leafValues></_>
        <_>
          <internalNodes>
            0 -1 100 2.6166957616806030e-01</internalNodes>
          <leafValues>
            9.4442293047904968e-02 -8.3186358213424683e-01</leafValues></_>
        <_>
          <internalNodes>
            0 -1 221 -7.3387857992202044e-04</internalNodes>
          <leafValues>
            -4.7369569540023804e-01 1.0273873060941696e-01</leafValues></_>
        <_>
          <internalNodes>
            0 -1 355 7.9292594455182552e-04</internalNodes>
          <leafValues>
            9.0167760848999023e-02 -5.1014542579650879e-01</leafValues></_>
        <_>
          <internalNodes>
            0 -1 342 -7.1241790428757668e-03</internalNodes>
          <leafValues>
            2.4068738520145416e-01 -2.2317522764205933e-01</leafValues></_>
        <_>
          <internalNodes>
            0 -1 57 -6.2073422595858574e-03</internalNodes>
          <leafValues>
            2.7336788177490234e-01 -2.0889358222484589e-01</leafValues></_>
        <_>
          <internalNodes>
            0 -1 257 -8.4418023470789194e-04</internalNodes>
          <leafValues>
            -4.7186371684074402e-01 1.2604886293411255e-01</leafValues></_>
        <_>
          <internalNodes>
            0 -1 150 -3.7479503080248833e-03</internalNodes>
          <leafValues>
            1.9874627888202667e-01 -2.2049097716808319e-01</leafValues></_>
        <_>
          <internalNodes>
            0 -1 422 -9.4817113131284714e-04</internalNodes>
          <leafValues>
            -3.2057872414588928e-01 1.3901828229427338e-01</leafValues></_>
        <_>
          <internalNodes>
            0 -1 524 -1.2888771481812000e-02</internalNodes>
          <leafValues>
            3.5931864380836487e-01 -1.3276895880699158e-01</leafValues></_>
        <_>
          <internalNodes>
            0 -1 353 -9.3512609601020813e-03</internalNodes>
          <leafValues>
            2.4937230348587036e-01 -2.6632085442543030e-01</leafValues></_>
        <_>
          <internalNodes>
            0 -1 400 6.5159203950315714e-04</internalNodes>
          <leafValues>
            1.2697690725326538e-01 -3.7783640623092651e-01</leafValues></_>
        <_>
          <internalNodes>
            0 -1 133 -2.4066900834441185e-02</internalNodes>
          <leafValues>
            3.7804165482521057e-01 -1.1923583596944809e-01</leafValues></_>
        <_>
          <internalNodes>
            0 -1 63 4.3809404596686363e-03</internalNodes>
          <leafValues>
            -2.0450606942176819e-01 2.2668945789337158e-01</leafValues></_>
        <_>
          <internalNodes>
            0 -1 223 -4.6690395101904869e-03</internalNodes>
          <leafValues>
            2.7368435263633728e-01 -1.7997170984745026e-01</leafValues></_>
        <_>
          <internalNodes>
            0 -1 430 7.7104062074795365e-04</internalNodes>
          <leafValues>
            1.0715173929929733e-01 -5.0038105249404907e-01</leafValues></_>
        <_>
          <internalNodes>
            0 -1 335 4.6195830218493938e-03</internalNodes>
          <leafValues>
            -1.3932637870311737e-01 3.1371560692787170e-01</leafValues></_>
        <_>
          <internalNodes>
            0 -1 214 -3.2803183421492577e-03</internalNodes>
          <leafValues>
            2.4812027812004089e-01 -1.9904309511184692e-01</leafValues></_>
        <_>
          <internalNodes>
            0 -1 54 2.6017192751169205e-02</internalNodes>
          <leafValues>
            -2.9062050580978394e-01 1.6873925924301147e-01</leafValues></_>
        <_>
          <internalNodes>
            0 -1 417 -4.3774973601102829e-03</internalNodes>
          <leafValues>
            2.1284200251102448e-01 -2.5047242641448975e-01</leafValues></_>
        <_>
          <internalNodes>
            0 -1 496 2.6826832443475723e-02</internalNodes>
          <leafValues>
            5.2136044949293137e-02 -7.7395582199096680e-01</leafValues></_>
        <_>
          <internalNodes>
            0 -1 264 -5.9732474386692047e-02</internalNodes>
          <leafValues>
            -7.9674351215362549e-01 4.8869561403989792e-02</leafValues></_>
        <_>
          <internalNodes>
            0 -1 272 -4.5593441464006901e-03</internalNodes>
          <leafValues>
            1.8760289251804352e-01 -2.3695160448551178e-01</leafValues></_></weakClassifiers></_>
    <!-- stage 8 -->
    <_>
      <maxWeakCount>39</maxWeakCount>
      <stageThreshold>-1.2685612440109253e+00</stageThreshold>
      <weakClassifiers>
        <_>
          <internalNodes>
            0 -1 68 1.3962730765342712e-01</internalNodes>
          <leafValues>
            -1.9283612072467804e-01 4.0852391719818115e-01</leafValues></_>
        <_>
          <internalNodes>
            0 -1 513 -2.6276805438101292e-03</internalNodes>
          <leafValues>
            1.7957276105880737e-01 -2.9107341170310974e-01</leafValues></_>
        <_>
          <internalNodes>
            0 -1 145 2.5079691410064697e-01</internalNodes>
          <leafValues>
            6.7653745412826538e-02 -7.8684127330780029e-01</leafValues></_>
        <_>
          <internalNodes>
            0 -1 28 -8.1333622336387634e-02</internalNodes>
          <leafValues>
            -6.8516874313354492e-01 9.0580940246582031e-02</leafValues></_>
        <_>
          <internalNodes>
            0 -1 124 -9.0499185025691986e-03</internalNodes>
          <leafValues>
            1.9203829765319824e-01 -2.8327146172523499e-01</leafValues></_>
        <_>
          <internalNodes>
            0 -1 178 -7.5075309723615646e-04</internalNodes>
          <leafValues>
            -5.0066149234771729e-01 9.6387036144733429e-02</leafValues></_>
        <_>
          <internalNodes>
            0 -1 132 1.5956743154674768e-03</internalNodes>
          <leafValues>
            -2.3115301132202148e-01 2.7340474724769592e-01</leafValues></_>
        <_>
          <internalNodes>
            0 -1 530 -3.5413259174674749e-03</internalNodes>
          <leafValues>
            5.3995615243911743e-01 -7.1174815297126770e-02</leafValues></_>
        <_>
          <internalNodes>
            0 -1 420 3.6232261918485165e-03</internalNodes>
          <leafValues>
            -1.3065460324287415e-01 3.7494537234306335e-01</leafValues></_>
        <_>
          <internalNodes>
            0 -1 467 -3.3332235179841518e-03</internalNodes>
          <leafValues>
            1.8753597140312195e-01 -2.5475135445594788e-01</leafValues></_>
        <_>
          <internalNodes>
            0 -1 422 -6.2510673888027668e-04</internalNodes>
          <leafValues>
            -2.5286617875099182e-01 1.9320707023143768e-01</leafValues></_>
        <_>
          <internalNodes>
            0 -1 276 1.9845483824610710e-02</internalNodes>
          <leafValues>
            -1.4474481344223022e-01 3.1690514087677002e-01</leafValues></_>
        <_>
          <internalNodes>
            0 -1 161 5.7793103158473969e-02</internalNodes>
          <leafValues>
            -1.2881062924861908e-01 4.0083107352256775e-01</leafValues></_>
        <_>
          <internalNodes>
            0 -1 349 5.3286580368876457e-03</internalNodes>
          <leafValues>
            -2.2046171128749847e-01 2.5423914194107056e-01</leafValues></_>
        <_>
          <internalNodes>
            0 -1 373 -7.9510517418384552e-02</internalNodes>
          <leafValues>
            -7.9634523391723633e-01 6.1731576919555664e-02</leafValues></_>
        <_>
          <internalNodes>
            0 -1 493 -9.5978770405054092e-03</internalNodes>
          <leafValues>
            2.0798701047897339e-01 -2.3373118042945862e-01</leafValues></_>
        <_>
          <internalNodes>
            0 -1 390 -5.7950086193159223e-04</internalNodes>
          <leafValues>
            -2.6067522168159485e-01 1.7137667536735535e-01</leafValues></_>
        <_>
          <internalNodes>
            0 -1 333 8.1224851310253143e-03</internalNodes>
          <leafValues>
            -2.3498435318470001e-01 2.2476363182067871e-01</leafValues></_>
        <_>
          <internalNodes>
            0 -1 15 9.8313204944133759e-03</internalNodes>
          <leafValues>
            -1.8525199592113495e-01 2.5004267692565918e-01</leafValues></_>
        <_>
          <internalNodes>
            0 -1 492 -3.9273951202630997e-02</internalNodes>
          <leafValues>
            -7.7698636054992676e-01 4.9402225762605667e-02</leafValues></_>
        <_>
          <internalNodes>
            0 -1 137 1.4579720795154572e-02</internalNodes>
          <leafValues>
            -2.0756421983242035e-01 2.2126495838165283e-01</leafValues></_>
        <_>
          <internalNodes>
            0 -1 370 -5.6722504086792469e-04</internalNodes>
          <leafValues>
            2.3495586216449738e-01 -2.2395153343677521e-01</leafValues></_>
        <_>
          <internalNodes>
            0 -1 479 1.9825216382741928e-02</internalNodes>
          <leafValues>
            6.5395034849643707e-02 -6.7572808265686035e-01</leafValues></_>
        <_>
          <internalNodes>
            0 -1 429 -4.6128807589411736e-03</internalNodes>
          <leafValues>
            2.4305239319801331e-01 -1.8147742748260498e-01</leafValues></_>
        <_>
          <internalNodes>
            0 -1 129 -8.9787751436233521e-02</internalNodes>
          <leafValues>
            5.6710427999496460e-01 -8.2966804504394531e-02</leafValues></_>
        <_>
          <internalNodes>
            0 -1 266 -1.3460112735629082e-02</internalNodes>
          <leafValues>
            -6.9857674837112427e-01 6.8644903600215912e-02</leafValues></_>
        <_>
          <internalNodes>
            0 -1 183 -7.9529581125825644e-04</internalNodes>
          <leafValues>
            -4.8968178033828735e-01 7.8733809292316437e-02</leafValues></_>
        <_>
          <internalNodes>
            0 -1 19 -3.3810448367148638e-03</internalNodes>
          <leafValues>
            4.8366734385490417e-01 -9.1982156038284302e-02</leafValues></_>
        <_>
          <internalNodes>
            0 -1 499 -7.5354822911322117e-04</internalNodes>
          <leafValues>
            -4.5986780524253845e-01 8.9631848037242889e-02</leafValues></_>
        <_>
          <internalNodes>
            0 -1 531 -1.2329239398241043e-03</internalNodes>
          <leafValues>
            2.1337541937828064e-01 -2.0766346156597137e-01</leafValues></_>
        <_>
          <internalNodes>
            0 -1 286 3.8683163002133369e-03</internalNodes>
          <leafValues>
            -2.6291295886039734e-01 1.6107714176177979e-01</leafValues></_>
        <_>
          <internalNodes>
            0 -1 292 4.5099947601556778e-04</internalNodes>
          <leafValues>
            1.7325936257839203e-01 -2.4818924069404602e-01</leafValues></_>
        <_>
          <internalNodes>
            0 -1 253 9.0059731155633926e-03</internalNodes>
          <leafValues>
            -1.6068394482135773e-01 3.4892830252647400e-01</leafValues></_>
        <_>
          <internalNodes>
            0 -1 324 -4.5019723474979401e-02</internalNodes>
          <leafValues>
            -8.8021266460418701e-01 5.7901110500097275e-02</leafValues></_>
        <_>
          <internalNodes>
            0 -1 54 1.3014006614685059e-01</internalNodes>
          <leafValues>
            2.4445230141282082e-02 -9.7026634216308594e-01</leafValues></_>
        <_>
          <internalNodes>
            0 -1 94 -4.1580107063055038e-03</internalNodes>
          <leafValues>
            2.3009458184242249e-01 -1.6849602758884430e-01</leafValues></_>
        <_>
          <internalNodes>
            0 -1 396 -4.8244779463857412e-04</internalNodes>
          <leafValues>
            -2.1593049168586731e-01 1.7818503081798553e-01</leafValues></_>
        <_>
          <internalNodes>
            0 -1 339 3.9284662343561649e-03</internalNodes>
          <leafValues>
            -3.0166763067245483e-01 2.0707468688488007e-01</leafValues></_>
        <_>
          <internalNodes>
            0 -1 338 -3.0924052000045776e-02</internalNodes>
          <leafValues>
            4.2007249593734741e-01 -1.1126812547445297e-01</leafValues></_></weakClassifiers></_>
    <!-- stage 9 -->
    <_>
      <maxWeakCount>44</maxWeakCount>
      <stageThreshold>-1.3336807489395142e+00</stageThreshold>
      <weakClassifiers>
        <_>
          <internalNodes>
            0 -1 318 -9.3448400497436523e-02</internalNodes>
          <leafValues>
            -7.4141412973403931e-01 6.6666670143604279e-02</leafValues></_>
        <_>
          <internalNodes>
            0 -1 312 -2.3118160665035248e-02</internalNodes>
          <leafValues>
            2.4719288945198059e-01 -1.9271633028984070e-01</leafValues></_>
        <_>
          <internalNodes>
            0 -1 110 -2.0930293947458267e-02</internalNodes>
          <leafValues>
            3.4103271365165710e-01 -1.6176234185695648e-01</leafValues></_>
        <_>
          <internalNodes>
            0 -1 123 -2.7324808761477470e-03</internalNodes>
          <leafValues>
            1.3350304961204529e-01 -2.8606545925140381e-01</leafValues></_>
        <_>
          <internalNodes>
            0 -1 176 -5.0123661756515503e-02</internalNodes>
          <leafValues>
            3.6951091885566711e-01 -1.7203883826732635e-01</leafValues></_>
        <_>
          <internalNodes>
            0 -1 426 -7.1795070543885231e-03</internalNodes>
          <leafValues>
            2.8924044966697693e-01 -1.4991025626659393e-01</leafValues></_>
        <_>
          <internalNodes>
            0 -1 450 -1.0276810498908162e-03</internalNodes>
          <leafValues>
            -5.8427631855010986e-01 6.6632911562919617e-02</leafValues></_>
        <_>
          <internalNodes>
            0 -1 517 -7.8746880171820521e-04</internalNodes>
          <leafValues>
            -4.2499026656150818e-01 1.0028179734945297e-01</leafValues></_>
        <_>
          <internalNodes>
            0 -1 547 -4.7067226842045784e-03</internalNodes>
          <leafValues>
            3.9104825258255005e-01 -1.2113466113805771e-01</leafValues></_>
        <_>
          <internalNodes>
            0 -1 92 3.7250835448503494e-02</internalNodes>
          <leafValues>
            -2.1403148770332336e-01 2.0460934937000275e-01</leafValues></_>
        <_>
          <internalNodes>
            0 -1 27 5.9485156089067459e-02</internalNodes>
          <leafValues>
            -1.6458223760128021e-01 2.9270696640014648e-01</leafValues></_>
        <_>
          <internalNodes>
            0 -1 79 3.3825591206550598e-02</internalNodes>
          <leafValues>
            -1.9179339706897736e-01 2.2864151000976562e-01</leafValues></_>
        <_>
          <internalNodes>
            0 -1 198 2.4487236142158508e-01</internalNodes>
          <leafValues>
            6.9507859647274017e-02 -6.6118556261062622e-01</leafValues></_>
        <_>
          <internalNodes>
            0 -1 177 1.1209689080715179e-02</internalNodes>
          <leafValues>
            -1.8804980814456940e-01 2.3998194932937622e-01</leafValues></_>
        <_>
          <internalNodes>
            0 -1 211 -7.0098519790917635e-04</internalNodes>
          <leafValues>
            -3.6814516782760620e-01 1.2496393918991089e-01</leafValues></_>
        <_>
          <internalNodes>
            0 -1 477 2.7560844318941236e-04</internalNodes>
          <leafValues>
            -2.4804899096488953e-01 1.5887667238712311e-01</leafValues></_>
        <_>
          <internalNodes>
            0 -1 227 5.1598783582448959e-02</internalNodes>
          <leafValues>
            -1.8867914378643036e-01 2.2679279744625092e-01</leafValues></_>
        <_>
          <internalNodes>
            0 -1 448 7.0110494270920753e-03</internalNodes>
          <leafValues>
            1.7967231571674347e-01 -2.8619095683097839e-01</leafValues></_>
        <_>
          <internalNodes>
            0 -1 302 -1.6948189586400986e-02</internalNodes>
          <leafValues>
            2.2982679307460785e-01 -1.7100261151790619e-01</leafValues></_>
        <_>
          <internalNodes>
            0 -1 380 -1.0805678553879261e-02</internalNodes>
          <leafValues>
            2.5056052207946777e-01 -2.2594906389713287e-01</leafValues></_>
        <_>
          <internalNodes>
            0 -1 374 -3.8262652233242989e-03</internalNodes>
          <leafValues>
            2.2781310975551605e-01 -1.8729412555694580e-01</leafValues></_>
        <_>
          <internalNodes>
            0 -1 135 2.4922811985015869e-01</internalNodes>
          <leafValues>
            7.7290363609790802e-02 -6.2729376554489136e-01</leafValues></_>
        <_>
          <internalNodes>
            0 -1 275 -9.2624220997095108e-03</internalNodes>
          <leafValues>
            -8.2668620347976685e-01 3.7203941494226456e-02</leafValues></_>
        <_>
          <internalNodes>
            0 -1 161 7.9909816384315491e-02</internalNodes>
          <leafValues>
            -8.6345762014389038e-02 5.1578658819198608e-01</leafValues></_>
        <_>
          <internalNodes>
            0 -1 405 4.7899272292852402e-02</internalNodes>
          <leafValues>
            -1.7636141180992126e-01 2.4827055633068085e-01</leafValues></_>
        <_>
          <internalNodes>
            0 -1 321 8.7515870109200478e-04</internalNodes>
          <leafValues>
            9.2471547424793243e-02 -4.4332653284072876e-01</leafValues></_>
        <_>
          <internalNodes>
            0 -1 122 1.0557371424511075e-03</internalNodes>
          <leafValues>
            8.3150245249271393e-02 -4.1949567198753357e-01</leafValues></_>
        <_>
          <internalNodes>
            0 -1 345 8.2391314208507538e-04</internalNodes>
          <leafValues>
            4.1206553578376770e-02 -8.6973822116851807e-01</leafValues></_>
        <_>
          <internalNodes>
            0 -1 279 -3.4236811101436615e-02</internalNodes>
          <leafValues>
            -7.6232880353927612e-01 3.8536094129085541e-02</leafValues></_>
        <_>
          <internalNodes>
            0 -1 250 -1.1086993850767612e-02</internalNodes>
          <leafValues>
            4.2178502678871155e-01 -1.0629367828369141e-01</leafValues></_>
        <_>
          <internalNodes>
            0 -1 250 5.9829005040228367e-03</internalNodes>
          <leafValues>
            -1.6879430413246155e-01 2.2339266538619995e-01</leafValues></_>
        <_>
          <internalNodes>
            0 -1 112 -3.7364613264799118e-02</internalNodes>
          <leafValues>
            3.6041209101676941e-01 -1.0928396135568619e-01</leafValues></_>
        <_>
          <internalNodes>
            0 -1 394 -3.4336831886321306e-03</internalNodes>
          <leafValues>
            1.9244650006294250e-01 -2.4646076560020447e-01</leafValues></_>
        <_>
          <internalNodes>
            0 -1 345 -5.0555437337607145e-04</internalNodes>
          <leafValues>
            -2.0481935143470764e-01 2.0494218170642853e-01</leafValues></_>
        <_>
          <internalNodes>
            0 -1 346 -3.8222728762775660e-03</internalNodes>
          <leafValues>
            4.1220667958259583e-01 -1.2912037968635559e-01</leafValues></_>
        <_>
          <internalNodes>
            0 -1 218 -7.9915538430213928e-02</internalNodes>
          <leafValues>
            -8.3284932374954224e-01 5.8902658522129059e-02</leafValues></_>
        <_>
          <internalNodes>
            0 -1 205 -8.8050699559971690e-04</internalNodes>
          <leafValues>
            -3.9163577556610107e-01 8.0684386193752289e-02</leafValues></_>
        <_>
          <internalNodes>
            0 -1 89 -1.0816613212227821e-02</internalNodes>
          <leafValues>
            3.3597171306610107e-01 -1.1623004078865051e-01</leafValues></_>
        <_>
          <internalNodes>
            0 -1 61 7.5652007944881916e-03</internalNodes>
          <leafValues>
            -1.1448438465595245e-01 3.5083380341529846e-01</leafValues></_>
        <_>
          <internalNodes>
            0 -1 281 5.4989084601402283e-03</internalNodes>
          <leafValues>
            -2.6404032111167908e-01 1.4901497960090637e-01</leafValues></_>
        <_>
          <internalNodes>
            0 -1 162 -4.7058554628165439e-05</internalNodes>
          <leafValues>
            2.5950604677200317e-01 -1.5174020826816559e-01</leafValues></_>
        <_>
          <internalNodes>
            0 -1 351 -8.7776668369770050e-03</internalNodes>
          <leafValues>
            2.4085696041584015e-01 -2.5342589616775513e-01</leafValues></_>
        <_>
          <internalNodes>
            0 -1 411 7.4359896825626493e-04</internalNodes>
          <leafValues>
            8.6416885256767273e-02 -4.1703096032142639e-01</leafValues></_>
        <_>
          <internalNodes>
            0 -1 372 6.6033869981765747e-02</internalNodes>
          <leafValues>
            5.1059950143098831e-02 -7.5743889808654785e-01</leafValues></_></weakClassifiers></_>
    <!-- stage 10 -->
    <_>
      <maxWeakCount>44</maxWeakCount>
      <stageThreshold>-1.6248443126678467e+00</stageThreshold>
      <weakClassifiers>
        <_>
          <internalNodes>
            0 -1 470 1.9385239284019917e-05</internalNodes>
          <leafValues>
            -2.4155512452125549e-01 2.6484975218772888e-01</leafValues></_>
        <_>
          <internalNodes>
            0 -1 156 -2.2308824554784223e-05</internalNodes>
          <leafValues>
            2.1589049696922302e-01 -2.4887354671955109e-01</leafValues></_>
        <_>
          <internalNodes>
            0 -1 164 1.8809167158906348e-05</internalNodes>
          <leafValues>
            -2.0150646567344666e-01 2.8427183628082275e-01</leafValues></_>
        <_>
          <internalNodes>
            0 -1 444 -6.5114782191812992e-03</internalNodes>
          <leafValues>
            2.9012179374694824e-01 -2.3814173042774200e-01</leafValues></_>
        <_>
          <internalNodes>
            0 -1 352 -8.9752431958913803e-03</internalNodes>
          <leafValues>
            2.7081239223480225e-01 -2.4532558023929596e-01</leafValues></_>
        <_>
          <internalNodes>
            0 -1 303 6.3207283616065979e-02</internalNodes>
          <leafValues>
            -1.7835643887519836e-01 3.0762335658073425e-01</leafValues></_>
        <_>
          <internalNodes>
            0 -1 350 -3.2580429688096046e-03</internalNodes>
          <leafValues>
            2.4487049877643585e-01 -2.8267613053321838e-01</leafValues></_>
        <_>
          <internalNodes>
            0 -1 484 -9.8646967671811581e-04</internalNodes>
          <leafValues>
            -4.7651520371437073e-01 1.2045405805110931e-01</leafValues></_>
        <_>
          <internalNodes>
            0 -1 390 4.0377726691076532e-05</internalNodes>
          <leafValues>
            -1.7361269891262054e-01 3.6565461754798889e-01</leafValues></_>
        <_>
          <internalNodes>
            0 -1 210 7.1443751454353333e-02</internalNodes>
          <leafValues>
            8.2893304526805878e-02 -6.6668713092803955e-01</leafValues></_>
        <_>
          <internalNodes>
            0 -1 485 -3.7342819268815219e-05</internalNodes>
          <leafValues>
            2.0699886977672577e-01 -2.2974570095539093e-01</leafValues></_>
        <_>
          <internalNodes>
            0 -1 205 1.0220888070762157e-03</internalNodes>
          <leafValues>
            8.5440084338188171e-02 -5.3680074214935303e-01</leafValues></_>
        <_>
          <internalNodes>
            0 -1 14 -4.1326377540826797e-03</internalNodes>
          <leafValues>
            5.3832960128784180e-01 -1.0013546049594879e-01</leafValues></_>
        <_>
          <internalNodes>
            0 -1 195 -7.2334718424826860e-04</internalNodes>
          <leafValues>
            -3.9535626769065857e-01 1.2392060458660126e-01</leafValues></_>
        <_>
          <internalNodes>
            0 -1 187 -1.3425779342651367e-01</internalNodes>
          <leafValues>
            3.9115002751350403e-01 -1.4228697121143341e-01</leafValues></_>
        <_>
          <internalNodes>
            0 -1 377 -1.1983098089694977e-01</internalNodes>
          <leafValues>
            3.8666924834251404e-01 -1.2773782014846802e-01</leafValues></_>
        <_>
          <internalNodes>
            0 -1 542 -3.4117235336452723e-03</internalNodes>
          <leafValues>
            6.7633914947509766e-01 -6.5345846116542816e-02</leafValues></_>
        <_>
          <internalNodes>
            0 -1 237 -6.9773365976288915e-04</internalNodes>
          <leafValues>
            -3.9045479893684387e-01 1.2323214113712311e-01</leafValues></_>
        <_>
          <internalNodes>
            0 -1 442 -1.0419269651174545e-01</internalNodes>
          <leafValues>
            -7.5246161222457886e-01 4.6933218836784363e-02</leafValues></_>
        <_>
          <internalNodes>
            0 -1 224 2.3573526050313376e-05</internalNodes>
          <leafValues>
            -2.2341737151145935e-01 1.9257275760173798e-01</leafValues></_>
        <_>
          <internalNodes>
            0 -1 339 2.6069590821862221e-03</internalNodes>
          <leafValues>
            -3.0261990427970886e-01 1.4792901277542114e-01</leafValues></_>
        <_>
          <internalNodes>
            0 -1 292 -1.6854848581715487e-05</internalNodes>
          <leafValues>
            3.3684375882148743e-01 -1.5047320723533630e-01</leafValues></_>
        <_>
          <internalNodes>
            0 -1 535 -3.5016236361116171e-03</internalNodes>
          <leafValues>
            4.9886646866798401e-01 -8.8131710886955261e-02</leafValues></_>
        <_>
          <internalNodes>
            0 -1 396 -7.4852537363767624e-04</internalNodes>
          <leafValues>
            -2.3096418380737305e-01 1.9199158251285553e-01</leafValues></_>
        <_>
          <internalNodes>
            0 -1 333 2.4248457339126617e-04</internalNodes>
          <leafValues>
            -4.5717328786849976e-01 1.2493813782930374e-01</leafValues></_>
        <_>
          <internalNodes>
            0 -1 347 -1.3373235240578651e-02</internalNodes>
          <leafValues>
            4.3345969915390015e-01 -1.1456881463527679e-01</leafValues></_>
        <_>
          <internalNodes>
            0 -1 418 -7.1159820072352886e-04</internalNodes>
          <leafValues>
            -2.3779630661010742e-01 1.7296178638935089e-01</leafValues></_>
        <_>
          <internalNodes>
            0 -1 419 -3.7642326205968857e-03</internalNodes>
          <leafValues>
            4.6403834223747253e-01 -1.1325220763683319e-01</leafValues></_>
        <_>
          <internalNodes>
            0 -1 543 3.1782356090843678e-03</internalNodes>
          <leafValues>
            -9.5912165939807892e-02 3.9475402235984802e-01</leafValues></_>
        <_>
          <internalNodes>
            0 -1 287 4.1799241444095969e-05</internalNodes>
          <leafValues>
            -3.0467388033866882e-01 1.2915690243244171e-01</leafValues></_>
        <_>
          <internalNodes>
            0 -1 0 -3.5751785617321730e-04</internalNodes>
          <leafValues>
            -3.6073294281959534e-01 1.1704912781715393e-01</leafValues></_>
        <_>
          <internalNodes>
            0 -1 0 3.4593016607686877e-04</internalNodes>
          <leafValues>
            1.2576755881309509e-01 -3.8778510689735413e-01</leafValues></_>
        <_>
          <internalNodes>
            0 -1 174 4.0848037315299734e-05</internalNodes>
          <leafValues>
            -1.8845036625862122e-01 2.3736390471458435e-01</leafValues></_>
        <_>
          <internalNodes>
            0 -1 21 3.5023216623812914e-03</internalNodes>
          <leafValues>
            -7.5440160930156708e-02 5.3469449281692505e-01</leafValues></_>
        <_>
          <internalNodes>
            0 -1 85 -1.2490943074226379e-02</internalNodes>
          <leafValues>
            4.7754618525505066e-01 -8.7386138737201691e-02</leafValues></_>
        <_>
          <internalNodes>
            0 -1 173 9.0665474999696016e-04</internalNodes>
          <leafValues>
            8.8690772652626038e-02 -5.0874161720275879e-01</leafValues></_>
        <_>
          <internalNodes>
            0 -1 538 3.0544374603778124e-03</internalNodes>
          <leafValues>
            -9.4439908862113953e-02 4.6444410085678101e-01</leafValues></_>
        <_>
          <internalNodes>
            0 -1 358 -1.8202574210590683e-05</internalNodes>
          <leafValues>
            2.0013748109340668e-01 -1.9952084124088287e-01</leafValues></_>
        <_>
          <internalNodes>
            0 -1 262 -2.3792885258444585e-05</internalNodes>
          <leafValues>
            1.7588332295417786e-01 -2.3981864750385284e-01</leafValues></_>
        <_>
          <internalNodes>
            0 -1 185 8.0333746969699860e-02</internalNodes>
          <leafValues>
            -1.5857376158237457e-01 3.0874851346015930e-01</leafValues></_>
        <_>
          <internalNodes>
            0 -1 378 -6.6665895283222198e-03</internalNodes>
          <leafValues>
            2.9383614659309387e-01 -1.7975352704524994e-01</leafValues></_>
        <_>
          <internalNodes>
            0 -1 151 1.7822599411010742e-01</internalNodes>
          <leafValues>
            6.2000513076782227e-02 -8.1384277343750000e-01</leafValues></_>
        <_>
          <internalNodes>
            0 -1 233 -9.6049495041370392e-03</internalNodes>
          <leafValues>
            1.9076947867870331e-01 -2.5822272896766663e-01</leafValues></_>
        <_>
          <internalNodes>
            0 -1 315 1.8821989215211943e-05</internalNodes>
          <leafValues>
            -2.0423354208469391e-01 2.3853947222232819e-01</leafValues></_></weakClassifiers></_>
    <!-- stage 11 -->
    <_>
      <maxWeakCount>44</maxWeakCount>
      <stageThreshold>-1.5309904813766479e+00</stageThreshold>
      <weakClassifiers>
        <_>
          <internalNodes>
            0 -1 118 -2.0602679796866141e-05</internalNodes>
          <leafValues>
            2.6402017474174500e-01 -2.9653221368789673e-01</leafValues></_>
        <_>
          <internalNodes>
            0 -1 126 1.8487482520868070e-05</internalNodes>
          <leafValues>
            -1.8581695854663849e-01 3.4719347953796387e-01</leafValues></_>
        <_>
          <internalNodes>
            0 -1 121 -4.1608782339608297e-05</internalNodes>
          <leafValues>
            2.5901043415069580e-01 -2.8829795122146606e-01</leafValues></_>
        <_>
          <internalNodes>
            0 -1 121 1.8793012714013457e-05</internalNodes>
          <leafValues>
            -1.6432723402976990e-01 3.4947675466537476e-01</leafValues></_>
        <_>
          <internalNodes>
            0 -1 319 -7.3368638753890991e-02</internalNodes>
          <leafValues>
            -6.4520490169525146e-01 8.1380873918533325e-02</leafValues></_>
        <_>
          <internalNodes>
            0 -1 104 -8.7871029973030090e-03</internalNodes>
          <leafValues>
            1.9155688583850861e-01 -2.3873898386955261e-01</leafValues></_>
        <_>
          <internalNodes>
            0 -1 207 -9.8067626822739840e-04</internalNodes>
          <leafValues>
            -3.4328192472457886e-01 1.9023856520652771e-01</leafValues></_>
        <_>
          <internalNodes>
            0 -1 345 1.9385239284019917e-05</internalNodes>
          <leafValues>
            -1.6765858232975006e-01 3.4651315212249756e-01</leafValues></_>
        <_>
          <internalNodes>
            0 -1 127 6.7786907311528921e-04</internalNodes>
          <leafValues>
            1.6171121597290039e-01 -3.9467772841453552e-01</leafValues></_>
        <_>
          <internalNodes>
            0 -1 117 -5.5207207798957825e-02</internalNodes>
          <leafValues>
            3.4769693017005920e-01 -2.0104013383388519e-01</leafValues></_>
        <_>
          <internalNodes>
            0 -1 194 -2.4621468037366867e-02</internalNodes>
          <leafValues>
            2.6493954658508301e-01 -1.8476282060146332e-01</leafValues></_>
        <_>
          <internalNodes>
            0 -1 44 1.8331786617636681e-02</internalNodes>
          <leafValues>
            -2.3616161942481995e-01 2.4976144731044769e-01</leafValues></_>
        <_>
          <internalNodes>
            0 -1 142 -1.8482971936464310e-02</internalNodes>
          <leafValues>
            2.8335031867027283e-01 -1.7413721978664398e-01</leafValues></_>
        <_>
          <internalNodes>
            0 -1 78 -6.7427864996716380e-04</internalNodes>
          <leafValues>
            -4.5092123746871948e-01 8.0770313739776611e-02</leafValues></_>
        <_>
          <internalNodes>
            0 -1 12 2.2603666409850121e-02</internalNodes>
          <leafValues>
            -1.2758402526378632e-01 3.9030662178993225e-01</leafValues></_>
        <_>
          <internalNodes>
            0 -1 170 3.2087736763060093e-03</internalNodes>
          <leafValues>
            1.4084541797637939e-01 -3.3097374439239502e-01</leafValues></_>
        <_>
          <internalNodes>
            0 -1 385 -3.5301509342389181e-05</internalNodes>
          <leafValues>
            1.0030642151832581e-01 -4.0260806679725647e-01</leafValues></_>
        <_>
          <internalNodes>
            0 -1 395 1.8202574210590683e-05</internalNodes>
          <leafValues>
            -1.4140792191028595e-01 3.4646385908126831e-01</leafValues></_>
        <_>
          <internalNodes>
            0 -1 395 7.9065002501010895e-04</internalNodes>
          <leafValues>
            7.2551377117633820e-02 -5.9584212303161621e-01</leafValues></_>
        <_>
          <internalNodes>
            0 -1 166 -7.3245842941105366e-03</internalNodes>
          <leafValues>
            3.3593675494194031e-01 -1.4536021649837494e-01</leafValues></_>
        <_>
          <internalNodes>
            0 -1 70 8.4416493773460388e-03</internalNodes>
          <leafValues>
            1.5317152440547943e-01 -3.5067906975746155e-01</leafValues></_>
        <_>
          <internalNodes>
            0 -1 66 6.2155857682228088e-02</internalNodes>
          <leafValues>
            -1.4073008298873901e-01 3.3349895477294922e-01</leafValues></_>
        <_>
          <internalNodes>
            0 -1 230 1.0345545411109924e-01</internalNodes>
          <leafValues>
            -1.2589445710182190e-01 3.5738199949264526e-01</leafValues></_>
        <_>
          <internalNodes>
            0 -1 7 -3.5051936283707619e-03</internalNodes>
          <leafValues>
            6.5967226028442383e-01 -6.9917805492877960e-02</leafValues></_>
        <_>
          <internalNodes>
            0 -1 6 -3.8727836217731237e-03</internalNodes>
          <leafValues>
            5.0985825061798096e-01 -7.5524628162384033e-02</leafValues></_>
        <_>
          <internalNodes>
            0 -1 190 1.9483557343482971e-01</internalNodes>
          <leafValues>
            5.9023048728704453e-02 -8.3212339878082275e-01</leafValues></_>
        <_>
          <internalNodes>
            0 -1 269 -7.3079357389360666e-04</internalNodes>
          <leafValues>
            -4.0461587905883789e-01 8.3825774490833282e-02</leafValues></_>
        <_>
          <internalNodes>
            0 -1 73 -2.3650271032238379e-05</internalNodes>
          <leafValues>
            1.8638640642166138e-01 -2.2197546064853668e-01</leafValues></_>
        <_>
          <internalNodes>
            0 -1 459 1.4432102441787720e-01</internalNodes>
          <leafValues>
            5.9128336608409882e-02 -6.8847972154617310e-01</leafValues></_>
        <_>
          <internalNodes>
            0 -1 136 2.5046803784789518e-05</internalNodes>
          <leafValues>
            -2.2832643985748291e-01 1.7103207111358643e-01</leafValues></_>
        <_>
          <internalNodes>
            0 -1 403 -6.6129956394433975e-03</internalNodes>
          <leafValues>
            2.0986241102218628e-01 -2.0643523335456848e-01</leafValues></_>
        <_>
          <internalNodes>
            0 -1 359 6.6721655428409576e-02</internalNodes>
          <leafValues>
            -9.6250563859939575e-02 5.3458541631698608e-01</leafValues></_>
        <_>
          <internalNodes>
            0 -1 56 -2.1608844690490514e-05</internalNodes>
          <leafValues>
            2.0754650235176086e-01 -1.9526222348213196e-01</leafValues></_>
        <_>
          <internalNodes>
            0 -1 212 -1.1433328036218882e-03</internalNodes>
          <leafValues>
            -3.1008639931678772e-01 1.5005439519882202e-01</leafValues></_>
        <_>
          <internalNodes>
            0 -1 131 -1.7724014818668365e-02</internalNodes>
          <leafValues>
            2.7072441577911377e-01 -1.8436163663864136e-01</leafValues></_>
        <_>
          <internalNodes>
            0 -1 297 -9.5952505944296718e-04</internalNodes>
          <leafValues>
            -4.8053330183029175e-01 9.6460424363613129e-02</leafValues></_>
        <_>
          <internalNodes>
            0 -1 273 -4.2971281800419092e-05</internalNodes>
          <leafValues>
            2.6064184308052063e-01 -1.6133868694305420e-01</leafValues></_>
        <_>
          <internalNodes>
            0 -1 337 -2.0099626271985471e-04</internalNodes>
          <leafValues>
            1.4220078289508820e-01 -2.8061991930007935e-01</leafValues></_>
        <_>
          <internalNodes>
            0 -1 258 -6.5216224174946547e-04</internalNodes>
          <leafValues>
            -4.4126394391059875e-01 9.3458965420722961e-02</leafValues></_>
        <_>
          <internalNodes>
            0 -1 219 5.1160248403903097e-05</internalNodes>
          <leafValues>
            -2.2835503518581390e-01 2.2673121094703674e-01</leafValues></_>
        <_>
          <internalNodes>
            0 -1 478 1.2575156986713409e-02</internalNodes>
          <leafValues>
            5.8281973004341125e-02 -7.2555440664291382e-01</leafValues></_>
        <_>
          <internalNodes>
            0 -1 532 -6.1102490872144699e-03</internalNodes>
          <leafValues>
            2.7015459537506104e-01 -1.3907258212566376e-01</leafValues></_>
        <_>
          <internalNodes>
            0 -1 539 -2.7507166378200054e-03</internalNodes>
          <leafValues>
            5.2734011411666870e-01 -7.0466555655002594e-02</leafValues></_>
        <_>
          <internalNodes>
            0 -1 422 8.5363653488457203e-04</internalNodes>
          <leafValues>
            6.1823725700378418e-02 -6.6159403324127197e-01</leafValues></_></weakClassifiers></_>
    <!-- stage 12 -->
    <_>
      <maxWeakCount>44</maxWeakCount>
      <stageThreshold>-1.4345849752426147e+00</stageThreshold>
      <weakClassifiers>
        <_>
          <internalNodes>
            0 -1 484 6.3160556601360440e-04</internalNodes>
          <leafValues>
            1.3235944509506226e-01 -4.0350878238677979e-01</leafValues></_>
        <_>
          <internalNodes>
            0 -1 284 5.7691882830113173e-04</internalNodes>
          <leafValues>
            1.9650453329086304e-01 -2.4482585489749908e-01</leafValues></_>
        <_>
          <internalNodes>
            0 -1 53 -2.4254303425550461e-02</internalNodes>
          <leafValues>
            2.5908124446868896e-01 -2.0156866312026978e-01</leafValues></_>
        <_>
          <internalNodes>
            0 -1 390 -4.3384358286857605e-04</internalNodes>
          <leafValues>
            -2.3841165006160736e-01 2.3347030580043793e-01</leafValues></_>
        <_>
          <internalNodes>
            0 -1 323 -1.2383154034614563e-01</internalNodes>
          <leafValues>
            3.8175892829895020e-01 -1.6879527270793915e-01</leafValues></_>
        <_>
          <internalNodes>
            0 -1 523 1.9225724041461945e-02</internalNodes>
          <leafValues>
            -2.2307373583316803e-01 3.3093664050102234e-01</leafValues></_>
        <_>
          <internalNodes>
            0 -1 340 -2.1254907551337965e-05</internalNodes>
          <leafValues>
            1.5773661434650421e-01 -3.0932039022445679e-01</leafValues></_>
        <_>
          <internalNodes>
            0 -1 428 5.8242364320904016e-04</internalNodes>
          <leafValues>
            1.2469866126775742e-01 -3.5987263917922974e-01</leafValues></_>
        <_>
          <internalNodes>
            0 -1 246 -9.6466653048992157e-03</internalNodes>
          <leafValues>
            3.4425294399261475e-01 -1.5949061512947083e-01</leafValues></_>
        <_>
          <internalNodes>
            0 -1 486 1.0539770592004061e-03</internalNodes>
          <leafValues>
            1.2617342174053192e-01 -4.4805863499641418e-01</leafValues></_>
        <_>
          <internalNodes>
            0 -1 290 -7.7385433018207550e-02</internalNodes>
          <leafValues>
            3.7300592660903931e-01 -1.7393477261066437e-01</leafValues></_>
        <_>
          <internalNodes>
            0 -1 518 -1.7381931684212759e-05</internalNodes>
          <leafValues>
            1.7777563631534576e-01 -2.4937017261981964e-01</leafValues></_>
        <_>
          <internalNodes>
            0 -1 481 8.2548358477652073e-04</internalNodes>
          <leafValues>
            1.3732896745204926e-01 -3.5150468349456787e-01</leafValues></_>
        <_>
          <internalNodes>
            0 -1 456 6.5589387668296695e-04</internalNodes>
          <leafValues>
            1.0110633820295334e-01 -3.8075524568557739e-01</leafValues></_>
        <_>
          <internalNodes>
            0 -1 20 2.8894145507365465e-03</internalNodes>
          <leafValues>
            -8.1857442855834961e-02 5.4545789957046509e-01</leafValues></_>
        <_>
          <internalNodes>
            0 -1 10 2.4516435805708170e-03</internalNodes>
          <leafValues>
            -1.3106070458889008e-01 3.1129872798919678e-01</leafValues></_>
        <_>
          <internalNodes>
            0 -1 8 -7.7170431613922119e-03</internalNodes>
          <leafValues>
            4.2511948943138123e-01 -1.0822393745183945e-01</leafValues></_>
        <_>
          <internalNodes>
            0 -1 285 1.8911672668764368e-05</internalNodes>
          <leafValues>
            -3.3269789814949036e-01 1.3135798275470734e-01</leafValues></_>
        <_>
          <internalNodes>
            0 -1 292 4.8276735469698906e-04</internalNodes>
          <leafValues>
            1.5848085284233093e-01 -2.7514332532882690e-01</leafValues></_>
        <_>
          <internalNodes>
            0 -1 202 -2.1062940504634753e-05</internalNodes>
          <leafValues>
            2.5394070148468018e-01 -1.6247574985027313e-01</leafValues></_>
        <_>
          <internalNodes>
            0 -1 59 -7.5830943882465363e-02</internalNodes>
          <leafValues>
            -8.3627837896347046e-01 4.6879969537258148e-02</leafValues></_>
        <_>
          <internalNodes>
            0 -1 216 -7.8437459887936711e-04</internalNodes>
          <leafValues>
            -4.8156583309173584e-01 7.2636678814888000e-02</leafValues></_>
        <_>
          <internalNodes>
            0 -1 502 1.1161128431558609e-01</internalNodes>
          <leafValues>
            -6.5311074256896973e-02 6.7278677225112915e-01</leafValues></_>
        <_>
          <internalNodes>
            0 -1 222 4.7227651812136173e-03</internalNodes>
          <leafValues>
            -1.1930469423532486e-01 2.9544234275817871e-01</leafValues></_>
        <_>
          <internalNodes>
            0 -1 274 6.1110388487577438e-03</internalNodes>
          <leafValues>
            -1.4515241980552673e-01 2.6684319972991943e-01</leafValues></_>
        <_>
          <internalNodes>
            0 -1 159 -1.3719442300498486e-02</internalNodes>
          <leafValues>
            3.1657838821411133e-01 -1.2331529706716537e-01</leafValues></_>
        <_>
          <internalNodes>
            0 -1 413 -2.1476436813827604e-05</internalNodes>
          <leafValues>
            1.7239280045032501e-01 -2.5740876793861389e-01</leafValues></_>
        <_>
          <internalNodes>
            0 -1 494 5.3334387484937906e-04</internalNodes>
          <leafValues>
            1.0205271840095520e-01 -3.8594871759414673e-01</leafValues></_>
        <_>
          <internalNodes>
            0 -1 440 -3.9990305900573730e-02</internalNodes>
          <leafValues>
            3.4488824009895325e-01 -1.0637125372886658e-01</leafValues></_>
        <_>
          <internalNodes>
            0 -1 82 4.8038661479949951e-02</internalNodes>
          <leafValues>
            -1.7795158922672272e-01 2.6764014363288879e-01</leafValues></_>
        <_>
          <internalNodes>
            0 -1 58 -4.9069043248891830e-02</internalNodes>
          <leafValues>
            4.3344646692276001e-01 -1.1735337972640991e-01</leafValues></_>
        <_>
          <internalNodes>
            0 -1 399 -9.4641163013875484e-04</internalNodes>
          <leafValues>
            -4.1362091898918152e-01 1.0310720652341843e-01</leafValues></_>
        <_>
          <internalNodes>
            0 -1 272 -8.2783692050725222e-04</internalNodes>
          <leafValues>
            1.6660560667514801e-01 -2.6430058479309082e-01</leafValues></_>
        <_>
          <internalNodes>
            0 -1 284 -1.9158134819008410e-05</internalNodes>
          <leafValues>
            3.2704615592956543e-01 -1.2850208580493927e-01</leafValues></_>
        <_>
          <internalNodes>
            0 -1 284 -7.1651872713118792e-04</internalNodes>
          <leafValues>
            -7.1197932958602905e-01 7.3180101811885834e-02</leafValues></_>
        <_>
          <internalNodes>
            0 -1 391 -1.0143769904971123e-03</internalNodes>
          <leafValues>
            -3.8269740343093872e-01 7.9476758837699890e-02</leafValues></_>
        <_>
          <internalNodes>
            0 -1 388 -3.6837795050814748e-05</internalNodes>
          <leafValues>
            3.4572383761405945e-01 -1.2802246212959290e-01</leafValues></_>
        <_>
          <internalNodes>
            0 -1 274 -9.3904789537191391e-03</internalNodes>
          <leafValues>
            3.2060071825981140e-01 -1.1773961782455444e-01</leafValues></_>
        <_>
          <internalNodes>
            0 -1 326 -6.9286616053432226e-04</internalNodes>
          <leafValues>
            -4.9390384554862976e-01 8.3688981831073761e-02</leafValues></_>
        <_>
          <internalNodes>
            0 -1 326 -3.7734927900601178e-05</internalNodes>
          <leafValues>
            2.7435663342475891e-01 -1.4023847877979279e-01</leafValues></_>
        <_>
          <internalNodes>
            0 -1 244 4.2238123714923859e-02</internalNodes>
          <leafValues>
            4.4905401766300201e-02 -7.8975683450698853e-01</leafValues></_>
        <_>
          <internalNodes>
            0 -1 296 -1.6005143697839230e-04</internalNodes>
          <leafValues>
            1.7672641575336456e-01 -2.1038663387298584e-01</leafValues></_>
        <_>
          <internalNodes>
            0 -1 249 -5.9644063003361225e-04</internalNodes>
          <leafValues>
            -6.2135636806488037e-01 5.3050570189952850e-02</leafValues></_>
        <_>
          <internalNodes>
            0 -1 249 9.0067338896915317e-04</internalNodes>
          <leafValues>
            1.4008782804012299e-01 -2.4488803744316101e-01</leafValues></_></weakClassifiers></_>
    <!-- stage 13 -->
    <_>
      <maxWeakCount>21</maxWeakCount>
      <stageThreshold>-1.2626436948776245e+00</stageThreshold>
      <weakClassifiers>
        <_>
          <internalNodes>
            0 -1 345 1.9385239284019917e-05</internalNodes>
          <leafValues>
            -1.5738190710544586e-01 5.8092260360717773e-01</leafValues></_>
        <_>
          <internalNodes>
            0 -1 157 -1.5950060915201902e-03</internalNodes>
          <leafValues>
            -5.1652276515960693e-01 1.8010815978050232e-01</leafValues></_>
        <_>
          <internalNodes>
            0 -1 154 1.3538508210331202e-03</internalNodes>
          <leafValues>
            1.3405333459377289e-01 -6.2759011983871460e-01</leafValues></_>
        <_>
          <internalNodes>
            0 -1 148 -9.7330322023481131e-04</internalNodes>
          <leafValues>
            -5.7295417785644531e-01 1.3161607086658478e-01</leafValues></_>
        <_>
          <internalNodes>
            0 -1 148 -1.6854848581715487e-05</internalNodes>
          <leafValues>
            4.8806777596473694e-01 -2.2835534811019897e-01</leafValues></_>
        <_>
          <internalNodes>
            0 -1 148 1.9070541384280659e-05</internalNodes>
          <leafValues>
            -3.8493624329566956e-01 3.1878158450126648e-01</leafValues></_>
        <_>
          <internalNodes>
            0 -1 148 1.0960500221699476e-03</internalNodes>
          <leafValues>
            1.7668047547340393e-01 -6.3062685728073120e-01</leafValues></_>
        <_>
          <internalNodes>
            0 -1 180 1.4569221530109644e-03</internalNodes>
          <leafValues>
            1.6471199691295624e-01 -5.1871931552886963e-01</leafValues></_>
        <_>
          <internalNodes>
            0 -1 179 1.9158134819008410e-05</internalNodes>
          <leafValues>
            -1.8426793813705444e-01 4.1092395782470703e-01</leafValues></_>
        <_>
          <internalNodes>
            0 -1 345 -1.9867487935698591e-05</internalNodes>
          <leafValues>
            1.5555059909820557e-01 -4.7186973690986633e-01</leafValues></_>
        <_>
          <internalNodes>
            0 -1 345 -1.0475267190486193e-03</internalNodes>
          <leafValues>
            -2.1656362712383270e-01 3.9201354980468750e-01</leafValues></_>
        <_>
          <internalNodes>
            0 -1 120 -9.4927562167868018e-04</internalNodes>
          <leafValues>
            -5.7963281869888306e-01 9.7625076770782471e-02</leafValues></_>
        <_>
          <internalNodes>
            0 -1 2 -1.5508239157497883e-03</internalNodes>
          <leafValues>
            -4.3553298711776733e-01 2.0308579504489899e-01</leafValues></_>
        <_>
          <internalNodes>
            0 -1 2 1.4863718533888459e-03</internalNodes>
          <leafValues>
            2.3127068579196930e-01 -5.4647409915924072e-01</leafValues></_>
        <_>
          <internalNodes>
            0 -1 179 -1.9791734302998520e-05</internalNodes>
          <leafValues>
            2.8672805428504944e-01 -2.8482177853584290e-01</leafValues></_>
        <_>
          <internalNodes>
            0 -1 179 -1.2549298116937280e-03</internalNodes>
          <leafValues>
            -5.2486121654510498e-01 2.0690584182739258e-01</leafValues></_>
        <_>
          <internalNodes>
            0 -1 480 8.7456067558377981e-04</internalNodes>
          <leafValues>
            1.1296091973781586e-01 -5.3114300966262817e-01</leafValues></_>
        <_>
          <internalNodes>
            0 -1 474 -1.4784156810492277e-03</internalNodes>
          <leafValues>
            -4.8247224092483521e-01 1.9223481416702271e-01</leafValues></_>
        <_>
          <internalNodes>
            0 -1 495 -1.8487482520868070e-05</internalNodes>
          <leafValues>
            3.1221464276313782e-01 -2.6693165302276611e-01</leafValues></_>
        <_>
          <internalNodes>
            0 -1 480 -1.4733313582837582e-03</internalNodes>
          <leafValues>
            -7.1632373332977295e-01 1.2147147208452225e-01</leafValues></_>
        <_>
          <internalNodes>
            0 -1 168 3.1049617973621935e-05</internalNodes>
          <leafValues>
            -2.3766453564167023e-01 3.3134481310844421e-01</leafValues></_></weakClassifiers></_>
    <!-- stage 14 -->
    <_>
      <maxWeakCount>8</maxWeakCount>
      <stageThreshold>-8.1738048791885376e-01</stageThreshold>
      <weakClassifiers>
        <_>
          <internalNodes>
            0 -1 480 -1.8911672668764368e-05</internalNodes>
          <leafValues>
            7.3088687658309937e-01 -2.7376860380172729e-01</leafValues></_>
        <_>
          <internalNodes>
            0 -1 480 1.8214650481240824e-05</internalNodes>
          <leafValues>
            -4.1378259658813477e-01 6.1126983165740967e-01</leafValues></_>
        <_>
          <internalNodes>
            0 -1 155 -1.9158134819008410e-05</internalNodes>
          <leafValues>
            6.8099963665008545e-01 -2.3397403955459595e-01</leafValues></_>
        <_>
          <internalNodes>
            0 -1 155 1.6854848581715487e-05</internalNodes>
          <leafValues>
            -3.9544343948364258e-01 5.3290307521820068e-01</leafValues></_>
        <_>
          <internalNodes>
            0 -1 168 1.3252950739115477e-03</internalNodes>
          <leafValues>
            2.3834474384784698e-01 -8.0283474922180176e-01</leafValues></_>
        <_>
          <internalNodes>
            0 -1 120 -2.0602679796866141e-05</internalNodes>
          <leafValues>
            5.7082509994506836e-01 -2.8210872411727905e-01</leafValues></_>
        <_>
          <internalNodes>
            0 -1 120 1.9577757484512404e-05</internalNodes>
          <leafValues>
            -3.0073186755180359e-01 4.5306050777435303e-01</leafValues></_>
        <_>
          <internalNodes>
            0 -1 120 1.4655359555035830e-03</internalNodes>
          <leafValues>
            2.0312470197677612e-01 -7.9590457677841187e-01</leafValues></_></weakClassifiers></_>
    <!-- stage 15 -->
    <_>
      <maxWeakCount>24</maxWeakCount>
      <stageThreshold>-1.3857990503311157e+00</stageThreshold>
      <weakClassifiers>
        <_>
          <internalNodes>
            0 -1 155 1.2411260977387428e-03</internalNodes>
          <leafValues>
            1.7774410545825958e-01 -5.9449672698974609e-01</leafValues></_>
        <_>
          <internalNodes>
            0 -1 154 -3.5644770832732320e-05</internalNodes>
          <leafValues>
            3.6496448516845703e-01 -2.4816153943538666e-01</leafValues></_>
        <_>
          <internalNodes>
            0 -1 157 2.1640673367073759e-05</internalNodes>
          <leafValues>
            -2.7157020568847656e-01 5.5079275369644165e-01</leafValues></_>
        <_>
          <internalNodes>
            0 -1 205 -2.1066482077003457e-05</internalNodes>
          <leafValues>
            3.8818863034248352e-01 -3.6036452651023865e-01</leafValues></_>
        <_>
          <internalNodes>
            0 -1 205 3.6874691431876272e-05</internalNodes>
          <leafValues>
            -2.6918026804924011e-01 3.4570044279098511e-01</leafValues></_>
        <_>
          <internalNodes>
            0 -1 205 1.1794159654527903e-03</internalNodes>
          <leafValues>
            1.8943437933921814e-01 -5.3220707178115845e-01</leafValues></_>
        <_>
          <internalNodes>
            0 -1 208 7.4519678950309753e-02</internalNodes>
          <leafValues>
            -1.9658495485782623e-01 3.8981434702873230e-01</leafValues></_>
        <_>
          <internalNodes>
            0 -1 390 1.8202574210590683e-05</internalNodes>
          <leafValues>
            -1.8799091875553131e-01 4.7226542234420776e-01</leafValues></_>
        <_>
          <internalNodes>
            0 -1 392 1.8793012714013457e-05</internalNodes>
          <leafValues>
            -2.5727558135986328e-01 3.4820845723152161e-01</leafValues></_>
        <_>
          <internalNodes>
            0 -1 392 -1.8325508790439926e-05</internalNodes>
          <leafValues>
            3.5823911428451538e-01 -2.0089507102966309e-01</leafValues></_>
        <_>
          <internalNodes>
            0 -1 390 8.9244451373815536e-04</internalNodes>
          <leafValues>
            8.7735086679458618e-02 -8.5783314704895020e-01</leafValues></_>
        <_>
          <internalNodes>
            0 -1 216 -3.6845849535893649e-05</internalNodes>
          <leafValues>
            2.9599577188491821e-01 -2.2528228163719177e-01</leafValues></_>
        <_>
          <internalNodes>
            0 -1 155 -1.2796337250620127e-03</internalNodes>
          <leafValues>
            -5.4666274785995483e-01 1.3725371658802032e-01</leafValues></_>
        <_>
          <internalNodes>
            0 -1 25 5.6118192151188850e-03</internalNodes>
          <leafValues>
            1.5696135163307190e-01 -3.8466331362724304e-01</leafValues></_>
        <_>
          <internalNodes>
            0 -1 217 -4.4968161091674119e-05</internalNodes>
          <leafValues>
            2.6393994688987732e-01 -2.6916339993476868e-01</leafValues></_>
        <_>
          <internalNodes>
            0 -1 217 3.7817691918462515e-05</internalNodes>
          <leafValues>
            -1.9244144856929779e-01 3.6601132154464722e-01</leafValues></_>
        <_>
          <internalNodes>
            0 -1 396 1.8793012714013457e-05</internalNodes>
          <leafValues>
            -1.4261153340339661e-01 3.9765617251396179e-01</leafValues></_>
        <_>
          <internalNodes>
            0 -1 41 -5.0985328853130341e-03</internalNodes>
          <leafValues>
            2.4987325072288513e-01 -2.2329433262348175e-01</leafValues></_>
        <_>
          <internalNodes>
            0 -1 29 6.8986728787422180e-02</internalNodes>
          <leafValues>
            -2.2048516571521759e-01 3.1231659650802612e-01</leafValues></_>
        <_>
          <internalNodes>
            0 -1 249 -1.6404454072471708e-05</internalNodes>
          <leafValues>
            4.1456168889999390e-01 -1.1603205651044846e-01</leafValues></_>
        <_>
          <internalNodes>
            0 -1 249 3.6907040339428931e-05</internalNodes>
          <leafValues>
            -3.0456471443176270e-01 2.0600931346416473e-01</leafValues></_>
        <_>
          <internalNodes>
            0 -1 30 -6.6629022359848022e-02</internalNodes>
          <leafValues>
            5.1157045364379883e-01 -8.7037399411201477e-02</leafValues></_>
        <_>
          <internalNodes>
            0 -1 130 1.6101915389299393e-03</internalNodes>
          <leafValues>
            1.1736372858285904e-01 -4.8613309860229492e-01</leafValues></_>
        <_>
          <internalNodes>
            0 -1 528 5.6147063151001930e-03</internalNodes>
          <leafValues>
            1.3194447755813599e-01 -3.7725636363029480e-01</leafValues></_></weakClassifiers></_>
    <!-- stage 16 -->
    <_>
      <maxWeakCount>46</maxWeakCount>
      <stageThreshold>-1.3505506515502930e+00</stageThreshold>
      <weakClassifiers>
        <_>
          <internalNodes>
            0 -1 299 6.1751587782055140e-04</internalNodes>
          <leafValues>
            1.2434326112270355e-01 -3.9664804935455322e-01</leafValues></_>
        <_>
          <internalNodes>
            0 -1 148 -6.1328645097091794e-04</internalNodes>
          <leafValues>
            -4.2484796047210693e-01 1.0321105271577835e-01</leafValues></_>
        <_>
          <internalNodes>
            0 -1 182 7.1131903678178787e-04</internalNodes>
          <leafValues>
            1.2172294408082962e-01 -4.1915699839591980e-01</leafValues></_>
        <_>
          <internalNodes>
            0 -1 6 -3.0366615392267704e-03</internalNodes>
          <leafValues>
            4.2908504605293274e-01 -8.7805502116680145e-02</leafValues></_>
        <_>
          <internalNodes>
            0 -1 436 -9.8894774913787842e-02</internalNodes>
          <leafValues>
            -7.5940144062042236e-01 6.2542803585529327e-02</leafValues></_>
        <_>
          <internalNodes>
            0 -1 441 -1.1214555706828833e-03</internalNodes>
          <leafValues>
            6.5679013729095459e-02 -3.8727045059204102e-01</leafValues></_>
        <_>
          <internalNodes>
            0 -1 80 -6.6326768137514591e-04</internalNodes>
          <leafValues>
            -3.8569918274879456e-01 1.2189662456512451e-01</leafValues></_>
        <_>
          <internalNodes>
            0 -1 16 5.5874474346637726e-03</internalNodes>
          <leafValues>
            -1.2063248455524445e-01 3.8095405697822571e-01</leafValues></_>
        <_>
          <internalNodes>
            0 -1 451 6.0847896384075284e-04</internalNodes>
          <leafValues>
            1.1269395053386688e-01 -4.1079893708229065e-01</leafValues></_>
        <_>
          <internalNodes>
            0 -1 490 -3.1942546367645264e-02</internalNodes>
