<?xml version="1.0"?>
<opencv_storage>
<cascade>
  <stageType>BOOST</stageType>
  <featureType>HAAR</featureType>
  <height>35</height>
  <width>35</width>
  <stageParams>
    <boostType>GAB</boostType>
    <minHitRate>9.9900001287460327e-001</minHitRate>
    <maxFalseAlarm>5.0000000000000000e-001</maxFalseAlarm>
    <weightTrimRate>9.4999999999999996e-001</weightTrimRate>
    <maxDepth>1</maxDepth>
    <maxWeakCount>100</maxWeakCount></stageParams>
  <featureParams>
    <maxCatCount>0</maxCatCount>
    <featSize>1</featSize>
    <mode>ALL</mode></featureParams>
  <stageNum>5</stageNum>
  <stages>
    <!-- stage 0 -->
    <_>
      <maxWeakCount>1</maxWeakCount>
      <stageThreshold>9.9004977941513062e-001</stageThreshold>
      <weakClassifiers>
        <_>
          <internalNodes>
            0 -1 5 3.4254472702741623e-002</internalNodes>
          <leafValues>
            -1. 9.9004977941513062e-001</leafValues></_></weakClassifiers></_>
    <!-- stage 1 -->
    <_>
      <maxWeakCount>2</maxWeakCount>
      <stageThreshold>-6.8882063031196594e-002</stageThreshold>
      <weakClassifiers>
        <_>
          <internalNodes>
            0 -1 4 -1.7977331578731537e-001</internalNodes>
          <leafValues>
            9.5024877786636353e-001 -9.9199199676513672e-001</leafValues></_>
        <_>
          <internalNodes>
            0 -1 2 -1.7742108553647995e-002</internalNodes>
          <leafValues>
            9.2310994863510132e-001 -9.8379147052764893e-001</leafValues></_></weakClassifiers></_>
    <!-- stage 2 -->
    <_>
      <maxWeakCount>3</maxWeakCount>
      <stageThreshold>-1.1678979396820068e+000</stageThreshold>
      <weakClassifiers>
        <_>
          <internalNodes>
            0 -1 10 -4.3874286115169525e-002</internalNodes>
          <leafValues>
            9.4680851697921753e-001 -9.6640318632125854e-001</leafValues></_>
        <_>
          <internalNodes>
            0 -1 7 -1.7145909368991852e-001</internalNodes>
          <leafValues>
            7.5896173715591431e-001 -9.7244489192962646e-001</leafValues></_>
        <_>
          <internalNodes>
            0 -1 3 2.6513736695051193e-002</internalNodes>
          <leafValues>
            -9.6045660972595215e-001 8.3585256338119507e-001</leafValues></_></weakClassifiers></_>
    <!-- stage 3 -->
    <_>
      <maxWeakCount>2</maxWeakCount>
      <stageThreshold>-3.8029831647872925e-001</stageThreshold>
      <weakClassifiers>
        <_>
          <internalNodes>
            0 -1 6 -5.0311297178268433e-002</internalNodes>
          <leafValues>
            6.2608695030212402e-001 -9.7319585084915161e-001</leafValues></_>
        <_>
          <internalNodes>
            0 -1 9 3.8906209170818329e-002</internalNodes>
          <leafValues>
            -9.7928959131240845e-001 5.9289753437042236e-001</leafValues></_></weakClassifiers></_>
    <!-- stage 4 -->
    <_>
      <maxWeakCount>3</maxWeakCount>
      <stageThreshold>-1.3181524276733398e+000</stageThreshold>
      <weakClassifiers>
        <_>
          <internalNodes>
            0 -1 8 1.6229848843067884e-003</internalNodes>
          <leafValues>
            -9.4449949264526367e-001 8.0104714632034302e-001</leafValues></_>
        <_>
          <internalNodes>
            0 -1 0 8.3273865282535553e-002</internalNodes>
          <leafValues>
            -9.6154397726058960e-001 7.0860362052917480e-001</leafValues></_>
        <_>
          <internalNodes>
            0 -1 1 6.0500182211399078e-002</internalNodes>
          <leafValues>
            -9.9260216951370239e-001 5.8789110183715820e-001</leafValues></_></weakClassifiers></_></stages>
  <features>
    <_>
      <rects>
        <_>
          1 0 32 12 -1.</_>
        <_>
          1 4 32 4 3.</_></rects>
      <tilted>0</tilted></_>
    <_>
      <rects>
        <_>
          3 23 27 12 -1.</_>
        <_>
          3 26 27 6 2.</_></rects>
      <tilted>0</tilted></_>
    <_>
      <rects>
        <_>
          4 16 9 3 -1.</_>
        <_>
          7 16 3 3 3.</_></rects>
      <tilted>0</tilted></_>
    <_>
      <rects>
        <_>
          6 0 8 6 -1.</_>
        <_>
          8 2 4 6 2.</_></rects>
      <tilted>1</tilted></_>
    <_>
      <rects>
        <_>
          10 12 15 18 -1.</_>
        <_>
          15 18 5 6 9.</_></rects>
      <tilted>0</tilted></_>
    <_>
      <rects>
        <_>
          13 13 9 6 -1.</_>
        <_>
          16 13 3 6 3.</_></rects>
      <tilted>0</tilted></_>
    <_>
      <rects>
        <_>
          15 7 5 24 -1.</_>
        <_>
          15 13 5 12 2.</_></rects>
      <tilted>0</tilted></_>
    <_>
      <rects>
        <_>
          20 4 12 24 -1.</_>
        <_>
          24 12 4 8 9.</_></rects>
      <tilted>0</tilted></_>
    <_>
      <rects>
        <_>
          21 18 2 1 -1.</_>
        <_>
          22 18 1 1 2.</_></rects>
      <tilted>0</tilted></_>
    <_>
      <rects>
        <_>
          25 0 8 18 -1.</_>
        <_>
          25 0 4 9 2.</_>
        <_>
          29 9 4 9 2.</_></rects>
      <tilted>0</tilted></_>
    <_>
      <rects>
        <_>
          25 3 3 28 -1.</_>
        <_>
          25 10 3 14 2.</_></rects>
      <tilted>0</tilted></_></features></cascade>
</opencv_storage>
