<?xml version="1.0"?>
<opencv_storage>
<cascade>
  <stageType>BOOST</stageType>
  <featureType>HAAR</featureType>
  <height>20</height>
  <width>20</width>
  <stageParams>
    <boostType>GAB</boostType>
    <minHitRate>9.9900001287460327e-01</minHitRate>
    <maxFalseAlarm>5.0000000000000000e-01</maxFalseAlarm>
    <weightTrimRate>9.4999999999999996e-01</weightTrimRate>
    <maxDepth>1</maxDepth>
    <maxWeakCount>100</maxWeakCount></stageParams>
  <featureParams>
    <maxCatCount>0</maxCatCount>
    <featSize>1</featSize>
    <mode>ALL</mode></featureParams>
  <stageNum>20</stageNum>
  <stages>
    <!-- stage 0 -->
    <_>
      <maxWeakCount>7</maxWeakCount>
      <stageThreshold>-1.7851166725158691e+00</stageThreshold>
      <weakClassifiers>
        <_>
          <internalNodes>
            0 -1 56 -6.5720237791538239e-02</internalNodes>
          <leafValues>
            7.1454060077667236e-01 -9.1126281023025513e-01</leafValues></_>
        <_>
          <internalNodes>
            0 -1 195 -1.6653588041663170e-02</internalNodes>
          <leafValues>
            4.7423964738845825e-01 -7.4124413728713989e-01</leafValues></_>
        <_>
          <internalNodes>
            0 -1 212 -3.5214565694332123e-02</internalNodes>
          <leafValues>
            5.3977471590042114e-01 -4.3193688988685608e-01</leafValues></_>
        <_>
          <internalNodes>
            0 -1 297 -1.2881698086857796e-02</internalNodes>
          <leafValues>
            6.6472285985946655e-01 -3.0396351218223572e-01</leafValues></_>
        <_>
          <internalNodes>
            0 -1 349 6.0738034546375275e-02</internalNodes>
          <leafValues>
            2.0752112567424774e-01 -8.4246718883514404e-01</leafValues></_>
        <_>
          <internalNodes>
            0 -1 211 7.6063466258347034e-04</internalNodes>
          <leafValues>
            1.8806423246860504e-01 -8.7974244356155396e-01</leafValues></_>
        <_>
          <internalNodes>
            0 -1 211 -8.5081340512260795e-04</internalNodes>
          <leafValues>
            -9.1568690538406372e-01 2.0770531892776489e-01</leafValues></_></weakClassifiers></_>
    <!-- stage 1 -->
    <_>
      <maxWeakCount>10</maxWeakCount>
      <stageThreshold>-1.9589122533798218e+00</stageThreshold>
      <weakClassifiers>
        <_>
          <internalNodes>
            0 -1 59 -1.1835657991468906e-02</internalNodes>
          <leafValues>
            4.4214248657226562e-01 -8.5700291395187378e-01</leafValues></_>
        <_>
          <internalNodes>
            0 -1 138 -2.0577166229486465e-02</internalNodes>
          <leafValues>
            2.8649747371673584e-01 -7.0567435026168823e-01</leafValues></_>
        <_>
          <internalNodes>
            0 -1 105 -1.0225734114646912e-01</internalNodes>
          <leafValues>
            2.8017243742942810e-01 -5.9483784437179565e-01</leafValues></_>
        <_>
          <internalNodes>
            0 -1 211 -6.1982369516044855e-04</internalNodes>
          <leafValues>
            -8.3956730365753174e-01 2.4095281958580017e-01</leafValues></_>
        <_>
          <internalNodes>
            0 -1 211 6.3907430740073323e-04</internalNodes>
          <leafValues>
            1.5990546345710754e-01 -9.0070980787277222e-01</leafValues></_>
        <_>
          <internalNodes>
            0 -1 47 3.1297415494918823e-02</internalNodes>
          <leafValues>
            -3.3487614989280701e-01 4.9589228630065918e-01</leafValues></_>
        <_>
          <internalNodes>
            0 -1 210 -8.5426960140466690e-04</internalNodes>
          <leafValues>
            -8.0612808465957642e-01 1.6933609545230865e-01</leafValues></_>
        <_>
          <internalNodes>
            0 -1 210 7.1197736542671919e-04</internalNodes>
          <leafValues>
            1.5097318589687347e-01 -8.6808300018310547e-01</leafValues></_>
        <_>
          <internalNodes>
            0 -1 111 -4.3006837368011475e-03</internalNodes>
          <leafValues>
            1.4266945421695709e-01 -7.2372192144393921e-01</leafValues></_>
        <_>
          <internalNodes>
            0 -1 46 6.1070993542671204e-03</internalNodes>
          <leafValues>
            -3.8887780904769897e-01 4.2648079991340637e-01</leafValues></_></weakClassifiers></_>
    <!-- stage 2 -->
    <_>
      <maxWeakCount>16</maxWeakCount>
      <stageThreshold>-1.5965206623077393e+00</stageThreshold>
      <weakClassifiers>
        <_>
          <internalNodes>
            0 -1 277 2.3173611611127853e-02</internalNodes>
          <leafValues>
            -3.1759211421012878e-01 5.7036346197128296e-01</leafValues></_>
        <_>
          <internalNodes>
            0 -1 213 -4.6294508501887321e-04</internalNodes>
          <leafValues>
            -8.5246133804321289e-01 1.9210912287235260e-01</leafValues></_>
        <_>
          <internalNodes>
            0 -1 213 4.8659101594239473e-04</internalNodes>
          <leafValues>
            2.1376019716262817e-01 -9.1070497035980225e-01</leafValues></_>
        <_>
          <internalNodes>
            0 -1 71 -1.0824298858642578e-01</internalNodes>
          <leafValues>
            2.1955431997776031e-01 -5.5398303270339966e-01</leafValues></_>
        <_>
          <internalNodes>
            0 -1 23 9.4268061220645905e-03</internalNodes>
          <leafValues>
            -2.8254511952400208e-01 4.9997267127037048e-01</leafValues></_>
        <_>
          <internalNodes>
            0 -1 43 -9.4543527811765671e-03</internalNodes>
          <leafValues>
            5.0456631183624268e-01 -2.6895430684089661e-01</leafValues></_>
        <_>
          <internalNodes>
            0 -1 273 -4.8765305429697037e-02</internalNodes>
          <leafValues>
            -8.2619827985763550e-01 1.4840507507324219e-01</leafValues></_>
        <_>
          <internalNodes>
            0 -1 211 -7.7295838855206966e-04</internalNodes>
          <leafValues>
            -8.6347830295562744e-01 1.4881426095962524e-01</leafValues></_>
        <_>
          <internalNodes>
            0 -1 167 -2.1549187600612640e-02</internalNodes>
          <leafValues>
            4.1039970517158508e-01 -3.6618095636367798e-01</leafValues></_>
        <_>
          <internalNodes>
            0 -1 208 5.2733416669070721e-04</internalNodes>
          <leafValues>
            9.9478192627429962e-02 -8.4147113561630249e-01</leafValues></_>
        <_>
          <internalNodes>
            0 -1 110 -3.6550662480294704e-03</internalNodes>
          <leafValues>
            1.2404310703277588e-01 -8.0832713842391968e-01</leafValues></_>
        <_>
          <internalNodes>
            0 -1 338 6.7208513617515564e-02</internalNodes>
          <leafValues>
            1.1155718564987183e-01 -8.4140366315841675e-01</leafValues></_>
        <_>
          <internalNodes>
            0 -1 142 -4.6849803766235709e-04</internalNodes>
          <leafValues>
            -5.3776836395263672e-01 1.8568645417690277e-01</leafValues></_>
        <_>
          <internalNodes>
            0 -1 153 -1.8043339252471924e-02</internalNodes>
          <leafValues>
            5.9818822145462036e-01 -1.7897310853004456e-01</leafValues></_>
        <_>
          <internalNodes>
            0 -1 107 -4.7526083886623383e-02</internalNodes>
          <leafValues>
            1.7521405220031738e-01 -6.5729612112045288e-01</leafValues></_>
        <_>
          <internalNodes>
            0 -1 76 -4.2925099842250347e-04</internalNodes>
          <leafValues>
            -5.7999652624130249e-01 1.9969527423381805e-01</leafValues></_></weakClassifiers></_>
    <!-- stage 3 -->
    <_>
      <maxWeakCount>16</maxWeakCount>
      <stageThreshold>-1.6558421850204468e+00</stageThreshold>
      <weakClassifiers>
        <_>
          <internalNodes>
            0 -1 206 -2.4554423987865448e-02</internalNodes>
          <leafValues>
            4.7073790431022644e-01 -5.1820731163024902e-01</leafValues></_>
        <_>
          <internalNodes>
            0 -1 33 -2.0642958581447601e-02</internalNodes>
          <leafValues>
            3.8959649205207825e-01 -4.6842122077941895e-01</leafValues></_>
        <_>
          <internalNodes>
            0 -1 298 -1.1253190226852894e-02</internalNodes>
          <leafValues>
            5.2278137207031250e-01 -2.8792867064476013e-01</leafValues></_>
        <_>
          <internalNodes>
            0 -1 192 -1.0926735401153564e-01</internalNodes>
          <leafValues>
            -8.4831929206848145e-01 1.2479148805141449e-01</leafValues></_>
        <_>
          <internalNodes>
            0 -1 233 6.5493903821334243e-04</internalNodes>
          <leafValues>
            1.2730415165424347e-01 -8.6577409505844116e-01</leafValues></_>
        <_>
          <internalNodes>
            0 -1 331 2.1307112649083138e-02</internalNodes>
          <leafValues>
            -1.6393826901912689e-01 6.5821731090545654e-01</leafValues></_>
        <_>
          <internalNodes>
            0 -1 197 -4.9618831835687160e-03</internalNodes>
          <leafValues>
            1.7647387087345123e-01 -7.0901501178741455e-01</leafValues></_>
        <_>
          <internalNodes>
            0 -1 231 5.5469118524342775e-04</internalNodes>
          <leafValues>
            1.2917147576808929e-01 -8.6004096269607544e-01</leafValues></_>
        <_>
          <internalNodes>
            0 -1 222 3.3360638190060854e-03</internalNodes>
          <leafValues>
            -2.2208730876445770e-01 5.8005106449127197e-01</leafValues></_>
        <_>
          <internalNodes>
            0 -1 27 8.0675333738327026e-03</internalNodes>
          <leafValues>
            -2.6442512869834900e-01 4.4366833567619324e-01</leafValues></_>
        <_>
          <internalNodes>
            0 -1 38 -5.7171337306499481e-02</internalNodes>
          <leafValues>
            -9.0834820270538330e-01 1.3407765328884125e-01</leafValues></_>
        <_>
          <internalNodes>
            0 -1 321 1.0375301539897919e-01</internalNodes>
          <leafValues>
            9.5713794231414795e-02 -8.9890718460083008e-01</leafValues></_>
        <_>
          <internalNodes>
            0 -1 208 -7.2753184940665960e-04</internalNodes>
          <leafValues>
            -9.1463232040405273e-01 6.5600045025348663e-02</leafValues></_>
        <_>
          <internalNodes>
            0 -1 3 1.1692363768815994e-02</internalNodes>
          <leafValues>
            -2.6996144652366638e-01 4.2516177892684937e-01</leafValues></_>
        <_>
          <internalNodes>
            0 -1 126 -2.7016188949346542e-02</internalNodes>
          <leafValues>
            7.9841136932373047e-01 -8.5192985832691193e-02</leafValues></_>
        <_>
          <internalNodes>
            0 -1 69 1.0831854492425919e-01</internalNodes>
          <leafValues>
            1.3164977729320526e-01 -8.1429177522659302e-01</leafValues></_></weakClassifiers></_>
    <!-- stage 4 -->
    <_>
      <maxWeakCount>19</maxWeakCount>
      <stageThreshold>-1.6517608165740967e+00</stageThreshold>
      <weakClassifiers>
        <_>
          <internalNodes>
            0 -1 79 -3.1224738806486130e-02</internalNodes>
          <leafValues>
            4.0498349070549011e-01 -5.0543272495269775e-01</leafValues></_>
        <_>
          <internalNodes>
            0 -1 132 2.7286753058433533e-02</internalNodes>
          <leafValues>
            -3.8343110680580139e-01 3.6005097627639771e-01</leafValues></_>
        <_>
          <internalNodes>
            0 -1 91 1.6726313158869743e-02</internalNodes>
          <leafValues>
            -1.6756315529346466e-01 6.7791497707366943e-01</leafValues></_>
        <_>
          <internalNodes>
            0 -1 92 1.6243629157543182e-02</internalNodes>
          <leafValues>
            -2.0082791149616241e-01 6.2954872846603394e-01</leafValues></_>
        <_>
          <internalNodes>
            0 -1 44 1.6746392473578453e-02</internalNodes>
          <leafValues>
            -1.1685616523027420e-01 6.6981989145278931e-01</leafValues></_>
        <_>
          <internalNodes>
            0 -1 89 9.4524361193180084e-02</internalNodes>
          <leafValues>
            1.3727323710918427e-01 -7.9714542627334595e-01</leafValues></_>
        <_>
          <internalNodes>
            0 -1 129 1.1763356626033783e-01</internalNodes>
          <leafValues>
            1.2026037275791168e-01 -8.0218237638473511e-01</leafValues></_>
        <_>
          <internalNodes>
            0 -1 77 -3.9359711110591888e-02</internalNodes>
          <leafValues>
            1.2056751549243927e-01 -6.6197538375854492e-01</leafValues></_>
        <_>
          <internalNodes>
            0 -1 210 7.0302991662174463e-04</internalNodes>
          <leafValues>
            1.5645623207092285e-01 -8.4083867073059082e-01</leafValues></_>
        <_>
          <internalNodes>
            0 -1 210 -7.5193936936557293e-04</internalNodes>
          <leafValues>
            -8.9842551946640015e-01 7.6447948813438416e-02</leafValues></_>
        <_>
          <internalNodes>
            0 -1 246 -1.0232029855251312e-01</internalNodes>
          <leafValues>
            -8.8356268405914307e-01 8.5912100970745087e-02</leafValues></_>
        <_>
          <internalNodes>
            0 -1 25 3.3872227650135756e-03</internalNodes>
          <leafValues>
            -2.1770113706588745e-01 5.7244181632995605e-01</leafValues></_>
        <_>
          <internalNodes>
            0 -1 57 3.3944370225071907e-03</internalNodes>
          <leafValues>
            -1.3292579352855682e-01 5.5176478624343872e-01</leafValues></_>
        <_>
          <internalNodes>
            0 -1 39 3.5412213765084743e-03</internalNodes>
          <leafValues>
            -1.9849285483360291e-01 5.7917076349258423e-01</leafValues></_>
        <_>
          <internalNodes>
            0 -1 85 -5.6694494560360909e-04</internalNodes>
          <leafValues>
            -6.3920366764068604e-01 2.0526641607284546e-01</leafValues></_>
        <_>
          <internalNodes>
            0 -1 304 -3.7422487512230873e-03</internalNodes>
          <leafValues>
            6.0234266519546509e-01 -2.0220585167407990e-01</leafValues></_>
        <_>
          <internalNodes>
            0 -1 315 2.3953005671501160e-02</internalNodes>
          <leafValues>
            -1.0087126493453979e-01 6.0809415578842163e-01</leafValues></_>
        <_>
          <internalNodes>
            0 -1 342 -1.2927442789077759e-02</internalNodes>
          <leafValues>
            6.1945027112960815e-01 -2.0330226421356201e-01</leafValues></_>
        <_>
          <internalNodes>
            0 -1 85 3.6712110158987343e-04</internalNodes>
          <leafValues>
            1.8726192414760590e-01 -5.8405119180679321e-01</leafValues></_></weakClassifiers></_>
    <!-- stage 5 -->
    <_>
      <maxWeakCount>20</maxWeakCount>
      <stageThreshold>-1.7070065736770630e+00</stageThreshold>
      <weakClassifiers>
        <_>
          <internalNodes>
            0 -1 166 -1.0137230157852173e-02</internalNodes>
          <leafValues>
            3.6445784568786621e-01 -4.5149254798889160e-01</leafValues></_>
        <_>
          <internalNodes>
            0 -1 54 -8.1549026072025299e-03</internalNodes>
          <leafValues>
            3.8181224465370178e-01 -4.1661015152931213e-01</leafValues></_>
        <_>
          <internalNodes>
            0 -1 211 8.4335461724549532e-04</internalNodes>
          <leafValues>
            1.0419789701700211e-01 -9.1517663002014160e-01</leafValues></_>
        <_>
          <internalNodes>
            0 -1 195 -7.9868473112583160e-03</internalNodes>
          <leafValues>
            1.6461016237735748e-01 -6.4121752977371216e-01</leafValues></_>
        <_>
          <internalNodes>
            0 -1 65 2.8828106820583344e-02</internalNodes>
          <leafValues>
            -2.9854023456573486e-01 4.2721167206764221e-01</leafValues></_>
        <_>
          <internalNodes>
            0 -1 318 2.2095728665590286e-02</internalNodes>
          <leafValues>
            -2.8979983925819397e-01 4.0944996476173401e-01</leafValues></_>
        <_>
          <internalNodes>
            0 -1 231 -5.3651013877242804e-04</internalNodes>
          <leafValues>
            -8.3999460935592651e-01 1.8055082857608795e-01</leafValues></_>
        <_>
          <internalNodes>
            0 -1 82 -3.3711055293679237e-03</internalNodes>
          <leafValues>
            2.0045797526836395e-01 -4.1273847222328186e-01</leafValues></_>
        <_>
          <internalNodes>
            0 -1 90 4.2969366768375039e-04</internalNodes>
          <leafValues>
            1.7297734320163727e-01 -5.8704477548599243e-01</leafValues></_>
        <_>
          <internalNodes>
            0 -1 83 3.2332226634025574e-02</internalNodes>
          <leafValues>
            -1.9735777378082275e-01 6.1181366443634033e-01</leafValues></_>
        <_>
          <internalNodes>
            0 -1 287 -5.8508627116680145e-03</internalNodes>
          <leafValues>
            1.6870246827602386e-01 -6.3683664798736572e-01</leafValues></_>
        <_>
          <internalNodes>
            0 -1 207 -5.7560758432373405e-04</internalNodes>
          <leafValues>
            -8.9484363794326782e-01 7.2869293391704559e-02</leafValues></_>
        <_>
          <internalNodes>
            0 -1 307 1.8227200955152512e-02</internalNodes>
          <leafValues>
            -1.5477089583873749e-01 6.4525377750396729e-01</leafValues></_>
        <_>
          <internalNodes>
            0 -1 307 -1.0406041517853737e-02</internalNodes>
          <leafValues>
            5.0864946842193604e-01 -1.8090690672397614e-01</leafValues></_>
        <_>
          <internalNodes>
            0 -1 224 4.3859070865437388e-04</internalNodes>
          <leafValues>
            1.5905743837356567e-01 -5.4590409994125366e-01</leafValues></_>
        <_>
          <internalNodes>
            0 -1 223 -3.7302025593817234e-03</internalNodes>
          <leafValues>
            6.3632160425186157e-01 -1.4668039977550507e-01</leafValues></_>
        <_>
          <internalNodes>
            0 -1 116 -5.3521140944212675e-04</internalNodes>
          <leafValues>
            -4.4117933511734009e-01 2.1465286612510681e-01</leafValues></_>
        <_>
          <internalNodes>
            0 -1 108 -7.7062137424945831e-03</internalNodes>
          <leafValues>
            1.4882978796958923e-01 -6.2258529663085938e-01</leafValues></_>
        <_>
          <internalNodes>
            0 -1 251 4.1264202445745468e-04</internalNodes>
          <leafValues>
            1.8491443991661072e-01 -4.6986502408981323e-01</leafValues></_>
        <_>
          <internalNodes>
            0 -1 150 -5.2494602277874947e-04</internalNodes>
          <leafValues>
            -4.7842827439308167e-01 1.5504467487335205e-01</leafValues></_></weakClassifiers></_>
    <!-- stage 6 -->
    <_>
      <maxWeakCount>23</maxWeakCount>
      <stageThreshold>-1.8423959016799927e+00</stageThreshold>
      <weakClassifiers>
        <_>
          <internalNodes>
            0 -1 323 -2.0136103034019470e-02</internalNodes>
          <leafValues>
            4.9368274211883545e-01 -2.7310380339622498e-01</leafValues></_>
        <_>
          <internalNodes>
            0 -1 80 -1.0872987098991871e-02</internalNodes>
          <leafValues>
            1.7248949408531189e-01 -6.6745609045028687e-01</leafValues></_>
        <_>
          <internalNodes>
            0 -1 96 -4.7906808555126190e-02</internalNodes>
          <leafValues>
            5.5558043718338013e-01 -1.9692802429199219e-01</leafValues></_>
        <_>
          <internalNodes>
            0 -1 97 -2.3123875260353088e-02</internalNodes>
          <leafValues>
            6.2736380100250244e-01 -2.1358732879161835e-01</leafValues></_>
        <_>
          <internalNodes>
            0 -1 257 8.4389717085286975e-04</internalNodes>
          <leafValues>
            2.2321897745132446e-01 -9.0057772397994995e-01</leafValues></_>
        <_>
          <internalNodes>
            0 -1 199 -6.7954708356410265e-04</internalNodes>
          <leafValues>
            -5.0944507122039795e-01 1.5888707339763641e-01</leafValues></_>
        <_>
          <internalNodes>
            0 -1 165 -4.6327203745022416e-04</internalNodes>
          <leafValues>
            -6.1459952592849731e-01 1.5801489353179932e-01</leafValues></_>
        <_>
          <internalNodes>
            0 -1 4 5.1036804914474487e-02</internalNodes>
          <leafValues>
            1.2272111326456070e-01 -7.3552298545837402e-01</leafValues></_>
        <_>
          <internalNodes>
            0 -1 163 -3.2526217401027679e-03</internalNodes>
          <leafValues>
            2.5081658363342285e-01 -3.2788875699043274e-01</leafValues></_>
        <_>
          <internalNodes>
            0 -1 173 -4.5267850160598755e-02</internalNodes>
          <leafValues>
            3.6710917949676514e-01 -2.5346142053604126e-01</leafValues></_>
        <_>
          <internalNodes>
            0 -1 239 -4.7251448268070817e-04</internalNodes>
          <leafValues>
            -6.4861226081848145e-01 1.1110159009695053e-01</leafValues></_>
        <_>
          <internalNodes>
            0 -1 239 3.9316411130130291e-04</internalNodes>
          <leafValues>
            1.7234885692596436e-01 -5.4958850145339966e-01</leafValues></_>
        <_>
          <internalNodes>
            0 -1 28 -4.4863775372505188e-02</internalNodes>
          <leafValues>
            -8.1857180595397949e-01 6.3178554177284241e-02</leafValues></_>
        <_>
          <internalNodes>
            0 -1 346 1.1475204955786467e-03</internalNodes>
          <leafValues>
            1.5143346786499023e-01 -4.9140590429306030e-01</leafValues></_>
        <_>
          <internalNodes>
            0 -1 131 -1.0081656277179718e-02</internalNodes>
          <leafValues>
            5.2954053878784180e-01 -1.6164378821849823e-01</leafValues></_>
        <_>
          <internalNodes>
            0 -1 21 -1.2976190075278282e-02</internalNodes>
          <leafValues>
            3.9284729957580566e-01 -2.1579404175281525e-01</leafValues></_>
        <_>
          <internalNodes>
            0 -1 13 -1.8398952484130859e-01</internalNodes>
          <leafValues>
            -9.2220377922058105e-01 1.1008711159229279e-01</leafValues></_>
        <_>
          <internalNodes>
            0 -1 226 6.5782712772488594e-04</internalNodes>
          <leafValues>
            9.9413678050041199e-02 -5.9588730335235596e-01</leafValues></_>
        <_>
          <internalNodes>
            0 -1 183 4.7985103446990252e-04</internalNodes>
          <leafValues>
            9.4804555177688599e-02 -6.6983771324157715e-01</leafValues></_>
        <_>
          <internalNodes>
            0 -1 183 -6.0980161651968956e-04</internalNodes>
          <leafValues>
            -5.4793125391006470e-01 1.2756799161434174e-01</leafValues></_>
        <_>
          <internalNodes>
            0 -1 123 2.9966658912599087e-03</internalNodes>
          <leafValues>
            -4.5914247632026672e-01 1.8137221038341522e-01</leafValues></_>
        <_>
          <internalNodes>
            0 -1 236 5.5219151545315981e-04</internalNodes>
          <leafValues>
            1.8234612047672272e-01 -4.2119249701499939e-01</leafValues></_>
        <_>
          <internalNodes>
            0 -1 237 3.8972473703324795e-03</internalNodes>
          <leafValues>
            -1.4942899346351624e-01 5.6814903020858765e-01</leafValues></_></weakClassifiers></_>
    <!-- stage 7 -->
    <_>
      <maxWeakCount>26</maxWeakCount>
      <stageThreshold>-1.6876134872436523e+00</stageThreshold>
      <weakClassifiers>
        <_>
          <internalNodes>
            0 -1 253 -3.8303646724671125e-03</internalNodes>
          <leafValues>
            2.2196477651596069e-01 -5.6888359785079956e-01</leafValues></_>
        <_>
          <internalNodes>
            0 -1 311 4.1752029210329056e-03</internalNodes>
          <leafValues>
            -5.5466210842132568e-01 1.8150536715984344e-01</leafValues></_>
        <_>
          <internalNodes>
            0 -1 1 3.7486333400011063e-02</internalNodes>
          <leafValues>
            -2.5144997239112854e-01 3.9584556221961975e-01</leafValues></_>
        <_>
          <internalNodes>
            0 -1 268 -8.8396044448018074e-03</internalNodes>
          <leafValues>
            3.3406814932823181e-01 -2.7402344346046448e-01</leafValues></_>
        <_>
          <internalNodes>
            0 -1 155 1.2130259536206722e-02</internalNodes>
          <leafValues>
            -2.1726688742637634e-01 3.8802304863929749e-01</leafValues></_>
        <_>
          <internalNodes>
            0 -1 189 4.2012208141386509e-03</internalNodes>
          <leafValues>
            -2.0878547430038452e-01 4.2357850074768066e-01</leafValues></_>
        <_>
          <internalNodes>
            0 -1 250 3.5953829064965248e-03</internalNodes>
          <leafValues>
            -1.3779768347740173e-01 5.2071732282638550e-01</leafValues></_>
        <_>
          <internalNodes>
            0 -1 329 -3.3204446081072092e-03</internalNodes>
          <leafValues>
            5.3867036104202271e-01 -1.2045027315616608e-01</leafValues></_>
        <_>
          <internalNodes>
            0 -1 221 3.4686853177845478e-03</internalNodes>
          <leafValues>
            -1.4751882851123810e-01 5.1316326856613159e-01</leafValues></_>
        <_>
          <internalNodes>
            0 -1 35 3.5535478964447975e-03</internalNodes>
          <leafValues>
            -1.9072504341602325e-01 4.1178199648857117e-01</leafValues></_>
        <_>
          <internalNodes>
            0 -1 252 -1.0423273779451847e-03</internalNodes>
          <leafValues>
            -9.1970789432525635e-01 9.2024587094783783e-02</leafValues></_>
        <_>
          <internalNodes>
            0 -1 14 -3.4193007741123438e-03</internalNodes>
          <leafValues>
            4.9991378188133240e-01 -1.7865666747093201e-01</leafValues></_>
        <_>
          <internalNodes>
            0 -1 14 3.0594614800065756e-03</internalNodes>
          <leafValues>
            -1.5019057691097260e-01 5.5156123638153076e-01</leafValues></_>
        <_>
          <internalNodes>
            0 -1 121 -1.0094408877193928e-02</internalNodes>
          <leafValues>
            4.8930263519287109e-01 -1.5558937191963196e-01</leafValues></_>
        <_>
          <internalNodes>
            0 -1 210 9.6673256484791636e-04</internalNodes>
          <leafValues>
            1.1668535321950912e-01 -9.0940099954605103e-01</leafValues></_>
        <_>
          <internalNodes>
            0 -1 320 -3.8398394826799631e-03</internalNodes>
          <leafValues>
            3.4379026293754578e-01 -2.3396565020084381e-01</leafValues></_>
        <_>
          <internalNodes>
            0 -1 67 -1.4977240562438965e-01</internalNodes>
          <leafValues>
            -8.3999484777450562e-01 8.9075371623039246e-02</leafValues></_>
        <_>
          <internalNodes>
            0 -1 140 4.7732604434713721e-04</internalNodes>
          <leafValues>
            1.0133538395166397e-01 -5.9824568033218384e-01</leafValues></_>
        <_>
          <internalNodes>
            0 -1 175 -3.7007858045399189e-03</internalNodes>
          <leafValues>
            4.6820822358131409e-01 -1.4761735498905182e-01</leafValues></_>
        <_>
          <internalNodes>
            0 -1 31 -5.7757133617997169e-03</internalNodes>
          <leafValues>
            3.0601164698600769e-01 -2.3887649178504944e-01</leafValues></_>
        <_>
          <internalNodes>
            0 -1 208 -6.1798514798283577e-04</internalNodes>
          <leafValues>
            -8.6487323045730591e-01 1.0220956802368164e-01</leafValues></_>
        <_>
          <internalNodes>
            0 -1 347 7.8023904934525490e-03</internalNodes>
          <leafValues>
            -1.7940868437290192e-01 4.5622643828392029e-01</leafValues></_>
        <_>
          <internalNodes>
            0 -1 247 3.4878784790635109e-03</internalNodes>
          <leafValues>
            -1.4611992239952087e-01 4.5072630047798157e-01</leafValues></_>
        <_>
          <internalNodes>
            0 -1 85 5.3067377302795649e-04</internalNodes>
          <leafValues>
            1.2383303791284561e-01 -6.0109817981719971e-01</leafValues></_>
        <_>
          <internalNodes>
            0 -1 15 -5.7996287941932678e-02</internalNodes>
          <leafValues>
            -7.8480112552642822e-01 6.4157053828239441e-02</leafValues></_>
        <_>
          <internalNodes>
            0 -1 135 3.1613267492502928e-03</internalNodes>
          <leafValues>
            -2.2171185910701752e-01 3.0495309829711914e-01</leafValues></_></weakClassifiers></_>
    <!-- stage 8 -->
    <_>
      <maxWeakCount>25</maxWeakCount>
      <stageThreshold>-1.5213799476623535e+00</stageThreshold>
      <weakClassifiers>
        <_>
          <internalNodes>
            0 -1 332 -4.1076112538576126e-03</internalNodes>
          <leafValues>
            4.1372913122177124e-01 -2.3204994201660156e-01</leafValues></_>
        <_>
          <internalNodes>
            0 -1 341 6.7776754498481750e-02</internalNodes>
          <leafValues>
            1.1776332557201385e-01 -7.2103196382522583e-01</leafValues></_>
        <_>
          <internalNodes>
            0 -1 309 2.2047333419322968e-02</internalNodes>
          <leafValues>
            -1.6219472885131836e-01 4.7659760713577271e-01</leafValues></_>
        <_>
          <internalNodes>
            0 -1 51 1.0892837494611740e-01</internalNodes>
          <leafValues>
            8.5187599062919617e-02 -7.9085332155227661e-01</leafValues></_>
        <_>
          <internalNodes>
            0 -1 215 3.5758053418248892e-03</internalNodes>
          <leafValues>
            -1.9067636132240295e-01 4.5498543977737427e-01</leafValues></_>
        <_>
          <internalNodes>
            0 -1 300 -4.7409243416041136e-04</internalNodes>
          <leafValues>
            -5.1254409551620483e-01 1.6096146404743195e-01</leafValues></_>
        <_>
          <internalNodes>
            0 -1 217 3.1653267797082663e-03</internalNodes>
          <leafValues>
            -1.7105913162231445e-01 4.7257009148597717e-01</leafValues></_>
        <_>
          <internalNodes>
            0 -1 218 3.6082868464291096e-03</internalNodes>
          <leafValues>
            -1.6751977801322937e-01 5.5269795656204224e-01</leafValues></_>
        <_>
          <internalNodes>
            0 -1 59 -6.0850502923130989e-03</internalNodes>
          <leafValues>
            1.0909333825111389e-01 -8.4886562824249268e-01</leafValues></_>
        <_>
          <internalNodes>
            0 -1 278 5.3216703236103058e-04</internalNodes>
          <leafValues>
            1.2045478075742722e-01 -4.7557318210601807e-01</leafValues></_>
        <_>
          <internalNodes>
            0 -1 322 3.5099321976304054e-03</internalNodes>
          <leafValues>
            -2.0764766633510590e-01 3.3926057815551758e-01</leafValues></_>
        <_>
          <internalNodes>
            0 -1 303 -4.0843797614797950e-04</internalNodes>
          <leafValues>
            -5.9827512502670288e-01 1.5009894967079163e-01</leafValues></_>
        <_>
          <internalNodes>
            0 -1 282 3.4766183234751225e-03</internalNodes>
          <leafValues>
            -1.8988358974456787e-01 4.2680323123931885e-01</leafValues></_>
        <_>
          <internalNodes>
            0 -1 280 3.6210832186043262e-03</internalNodes>
          <leafValues>
            -9.7843974828720093e-02 5.4064172506332397e-01</leafValues></_>
        <_>
          <internalNodes>
            0 -1 210 -9.0143457055091858e-04</internalNodes>
          <leafValues>
            -9.0525162220001221e-01 6.3741624355316162e-02</leafValues></_>
        <_>
          <internalNodes>
            0 -1 10 -1.7236714065074921e-01</internalNodes>
          <leafValues>
            -8.3815211057662964e-01 5.6651130318641663e-02</leafValues></_>
        <_>
          <internalNodes>
            0 -1 340 1.1081192642450333e-02</internalNodes>
          <leafValues>
            -1.5435199439525604e-01 4.5028239488601685e-01</leafValues></_>
        <_>
          <internalNodes>
            0 -1 9 -8.8970266282558441e-02</internalNodes>
          <leafValues>
            -6.9432425498962402e-01 9.5613174140453339e-02</leafValues></_>
        <_>
          <internalNodes>
            0 -1 60 7.7384024858474731e-02</internalNodes>
          <leafValues>
            6.4981050789356232e-02 -8.0734950304031372e-01</leafValues></_>
        <_>
          <internalNodes>
            0 -1 136 1.0663765482604504e-02</internalNodes>
          <leafValues>
            -2.9352512955665588e-01 2.2055307030677795e-01</leafValues></_>
        <_>
          <internalNodes>
            0 -1 114 -4.9406994367018342e-04</internalNodes>
          <leafValues>
            1.6188684105873108e-01 -3.8079702854156494e-01</leafValues></_>
        <_>
          <internalNodes>
            0 -1 161 -2.1036094985902309e-03</internalNodes>
          <leafValues>
            1.4840587973594666e-01 -4.1900110244750977e-01</leafValues></_>
        <_>
          <internalNodes>
            0 -1 249 4.4020527275279164e-04</internalNodes>
          <leafValues>
            1.2701065838336945e-01 -5.5381035804748535e-01</leafValues></_>
        <_>
          <internalNodes>
            0 -1 162 -4.7689984785392880e-04</internalNodes>
          <leafValues>
            -5.2470135688781738e-01 1.1119052022695541e-01</leafValues></_>
        <_>
          <internalNodes>
            0 -1 316 4.6362139983102679e-04</internalNodes>
          <leafValues>
            1.0304257273674011e-01 -5.1702207326889038e-01</leafValues></_></weakClassifiers></_>
    <!-- stage 9 -->
    <_>
      <maxWeakCount>29</maxWeakCount>
      <stageThreshold>-1.5013266801834106e+00</stageThreshold>
      <weakClassifiers>
        <_>
          <internalNodes>
            0 -1 327 2.6518568396568298e-02</internalNodes>
          <leafValues>
            -1.9981957972049713e-01 5.6577265262603760e-01</leafValues></_>
        <_>
          <internalNodes>
            0 -1 101 2.1177958697080612e-02</internalNodes>
          <leafValues>
            -1.1877707391977310e-01 5.8346605300903320e-01</leafValues></_>
        <_>
          <internalNodes>
            0 -1 64 1.6830263659358025e-02</internalNodes>
          <leafValues>
            -1.4636524021625519e-01 5.0342124700546265e-01</leafValues></_>
        <_>
          <internalNodes>
            0 -1 254 6.2880280893296003e-04</internalNodes>
          <leafValues>
            1.7138597369194031e-01 -4.3342390656471252e-01</leafValues></_>
        <_>
          <internalNodes>
            0 -1 107 -4.7621522098779678e-02</internalNodes>
          <leafValues>
            9.9200434982776642e-02 -6.3499933481216431e-01</leafValues></_>
        <_>
          <internalNodes>
            0 -1 148 -4.9385684542357922e-04</internalNodes>
          <leafValues>
            -3.6546686291694641e-01 1.9670037925243378e-01</leafValues></_>
        <_>
          <internalNodes>
            0 -1 204 3.4738248359644786e-05</internalNodes>
          <leafValues>
            -1.7278586328029633e-01 4.4808959960937500e-01</leafValues></_>
        <_>
          <internalNodes>
            0 -1 211 8.4287067875266075e-04</internalNodes>
          <leafValues>
            8.7651722133159637e-02 -8.7663030624389648e-01</leafValues></_>
        <_>
          <internalNodes>
            0 -1 205 -3.5848774132318795e-05</internalNodes>
          <leafValues>
            1.8611963093280792e-01 -3.6849433183670044e-01</leafValues></_>
        <_>
          <internalNodes>
            0 -1 85 -5.4086418822407722e-04</internalNodes>
          <leafValues>
            -5.6230354309082031e-01 1.1969851702451706e-01</leafValues></_>
        <_>
          <internalNodes>
            0 -1 45 3.5367519594728947e-03</internalNodes>
          <leafValues>
            -1.3948459923267365e-01 4.6103590726852417e-01</leafValues></_>
        <_>
          <internalNodes>
            0 -1 45 -3.7861983291804790e-03</internalNodes>
          <leafValues>
            5.9739100933074951e-01 -1.6109372675418854e-01</leafValues></_>
        <_>
          <internalNodes>
            0 -1 20 -2.4596410989761353e-01</internalNodes>
          <leafValues>
            -8.4917539358139038e-01 1.0617938637733459e-01</leafValues></_>
        <_>
          <internalNodes>
            0 -1 276 7.8795885201543570e-04</internalNodes>
          <leafValues>
            1.3878902792930603e-01 -4.2663267254829407e-01</leafValues></_>
        <_>
          <internalNodes>
            0 -1 8 2.8848314285278320e-01</internalNodes>
          <leafValues>
            -1.4802747964859009e-01 4.5539620518684387e-01</leafValues></_>
        <_>
          <internalNodes>
            0 -1 74 -1.0296639800071716e-01</internalNodes>
          <leafValues>
            1.8158179521560669e-01 -3.8909810781478882e-01</leafValues></_>
        <_>
          <internalNodes>
            0 -1 226 -4.6144280349835753e-04</internalNodes>
          <leafValues>
            -6.4182996749877930e-01 8.7191268801689148e-02</leafValues></_>
        <_>
          <internalNodes>
            0 -1 245 3.9634206332266331e-03</internalNodes>
          <leafValues>
            -1.4406268298625946e-01 4.8115432262420654e-01</leafValues></_>
        <_>
          <internalNodes>
            0 -1 245 -3.8380331825464964e-03</internalNodes>
          <leafValues>
            5.2187114953994751e-01 -1.0364824533462524e-01</leafValues></_>
        <_>
          <internalNodes>
            0 -1 230 -3.5065249539911747e-03</internalNodes>
          <leafValues>
            2.9656583070755005e-01 -2.1949806809425354e-01</leafValues></_>
        <_>
          <internalNodes>
            0 -1 219 8.4749504923820496e-02</internalNodes>
          <leafValues>
            7.7981606125831604e-02 -7.4370461702346802e-01</leafValues></_>
        <_>
          <internalNodes>
            0 -1 24 8.2012452185153961e-04</internalNodes>
          <leafValues>
            -1.7181678116321564e-01 3.9499965310096741e-01</leafValues></_>
        <_>
          <internalNodes>
            0 -1 250 3.7370882928371429e-03</internalNodes>
          <leafValues>
            -1.2212542444467545e-01 4.6663302183151245e-01</leafValues></_>
        <_>
          <internalNodes>
            0 -1 250 -3.6422470584511757e-03</internalNodes>
          <leafValues>
            5.2048426866531372e-01 -1.3691617548465729e-01</leafValues></_>
        <_>
          <internalNodes>
            0 -1 2 1.5614941716194153e-02</internalNodes>
          <leafValues>
            -1.7808511853218079e-01 3.1600892543792725e-01</leafValues></_>
        <_>
          <internalNodes>
            0 -1 147 -3.5936606582254171e-04</internalNodes>
          <leafValues>
            1.2497110664844513e-01 -4.7709730267524719e-01</leafValues></_>
        <_>
          <internalNodes>
            0 -1 185 -7.2737334994599223e-04</internalNodes>
          <leafValues>
            -4.1445580124855042e-01 1.5231399238109589e-01</leafValues></_>
        <_>
          <internalNodes>
            0 -1 344 -1.5791464596986771e-02</internalNodes>
          <leafValues>
            4.5508468151092529e-01 -1.3653790950775146e-01</leafValues></_>
        <_>
          <internalNodes>
            0 -1 81 -1.8787819499266334e-05</internalNodes>
          <leafValues>
            1.6742597520351410e-01 -3.4463474154472351e-01</leafValues></_></weakClassifiers></_>
    <!-- stage 10 -->
    <_>
      <maxWeakCount>21</maxWeakCount>
      <stageThreshold>-1.2384449243545532e+00</stageThreshold>
      <weakClassifiers>
        <_>
          <internalNodes>
            0 -1 308 -5.8293306210543960e-05</internalNodes>
          <leafValues>
            3.6016371846199036e-01 -3.4419816732406616e-01</leafValues></_>
        <_>
          <internalNodes>
            0 -1 232 3.8397425669245422e-05</internalNodes>
          <leafValues>
            -1.8455030024051666e-01 5.3914529085159302e-01</leafValues></_>
        <_>
          <internalNodes>
            0 -1 209 -1.7656046111369506e-05</internalNodes>
          <leafValues>
            4.4428747892379761e-01 -2.2508144378662109e-01</leafValues></_>
        <_>
          <internalNodes>
            0 -1 209 1.7539377950015478e-05</internalNodes>
          <leafValues>
            -3.0226576328277588e-01 5.0572097301483154e-01</leafValues></_>
        <_>
          <internalNodes>
            0 -1 308 2.7654057703330182e-05</internalNodes>
          <leafValues>
            -2.6078519225120544e-01 3.9118832349777222e-01</leafValues></_>
        <_>
          <internalNodes>
            0 -1 168 -5.7205976918339729e-04</internalNodes>
          <leafValues>
            -4.1139274835586548e-01 2.4860714375972748e-01</leafValues></_>
        <_>
          <internalNodes>
            0 -1 345 2.4167347699403763e-02</internalNodes>
          <leafValues>
            -1.1380679160356522e-01 6.4261507987976074e-01</leafValues></_>
        <_>
          <internalNodes>
            0 -1 112 -2.0130224584136158e-05</internalNodes>
          <leafValues>
            2.4452142417430878e-01 -3.3374184370040894e-01</leafValues></_>
        <_>
          <internalNodes>
            0 -1 90 5.7507853489369154e-04</internalNodes>
          <leafValues>
            1.2665534019470215e-01 -5.8320301771163940e-01</leafValues></_>
        <_>
          <internalNodes>
            0 -1 61 4.3748226016759872e-03</internalNodes>
          <leafValues>
            -2.4306805431842804e-01 3.2266107201576233e-01</leafValues></_>
        <_>
          <internalNodes>
            0 -1 120 7.8659050632268190e-04</internalNodes>
          <leafValues>
            1.7010058462619781e-01 -4.2333951592445374e-01</leafValues></_>
        <_>
          <internalNodes>
            0 -1 122 3.3864837139844894e-02</internalNodes>
          <leafValues>
            -1.0689863562583923e-01 6.3001495599746704e-01</leafValues></_>
        <_>
          <internalNodes>
            0 -1 73 3.7459367886185646e-03</internalNodes>
          <leafValues>
            -2.3014682531356812e-01 3.0528378486633301e-01</leafValues></_>
        <_>
          <internalNodes>
            0 -1 141 8.7326765060424805e-04</internalNodes>
          <leafValues>
            1.9703744351863861e-01 -4.8636564612388611e-01</leafValues></_>
        <_>
          <internalNodes>
            0 -1 84 1.8787819499266334e-05</internalNodes>
          <leafValues>
            -2.3039413988590240e-01 3.5792633891105652e-01</leafValues></_>
        <_>
          <internalNodes>
            0 -1 231 4.0638347854837775e-04</internalNodes>
          <leafValues>
            1.1306700110435486e-01 -7.9827171564102173e-01</leafValues></_>
        <_>
          <internalNodes>
            0 -1 211 -8.5136975394561887e-04</internalNodes>
          <leafValues>
            -8.6607068777084351e-01 6.0417216271162033e-02</leafValues></_>
        <_>
          <internalNodes>
            0 -1 187 3.3389120362699032e-03</internalNodes>
          <leafValues>
            -1.8321143090724945e-01 4.2529538273811340e-01</leafValues></_>
        <_>
          <internalNodes>
            0 -1 125 2.4728830903768539e-02</internalNodes>
          <leafValues>
            -1.1796833574771881e-01 6.0146474838256836e-01</leafValues></_>
        <_>
          <internalNodes>
            0 -1 248 -8.5386455059051514e-02</internalNodes>
          <leafValues>
            -8.1367194652557373e-01 1.0077942907810211e-01</leafValues></_>
        <_>
          <internalNodes>
            0 -1 235 4.2395808122819290e-05</internalNodes>
          <leafValues>
            -3.6638495326042175e-01 1.8943938612937927e-01</leafValues></_></weakClassifiers></_>
    <!-- stage 11 -->
    <_>
      <maxWeakCount>25</maxWeakCount>
      <stageThreshold>-1.3199745416641235e+00</stageThreshold>
      <weakClassifiers>
        <_>
          <internalNodes>
            0 -1 55 -5.4653240367770195e-03</internalNodes>
          <leafValues>
            2.7894422411918640e-01 -3.4883719682693481e-01</leafValues></_>
        <_>
          <internalNodes>
            0 -1 166 -1.0093422606587410e-02</internalNodes>
          <leafValues>
            2.4199000000953674e-01 -3.7459120154380798e-01</leafValues></_>
        <_>
          <internalNodes>
            0 -1 208 -1.7539377950015478e-05</internalNodes>
          <leafValues>
            4.0206104516983032e-01 -1.9443908333778381e-01</leafValues></_>
        <_>
          <internalNodes>
            0 -1 208 1.7452057363698259e-05</internalNodes>
          <leafValues>
            -2.5315287709236145e-01 4.1924455761909485e-01</leafValues></_>
        <_>
          <internalNodes>
            0 -1 208 5.4165988694876432e-04</internalNodes>
          <leafValues>
            1.3777939975261688e-01 -8.8981205224990845e-01</leafValues></_>
        <_>
          <internalNodes>
            0 -1 279 5.5890996009111404e-04</internalNodes>
          <leafValues>
            8.8585615158081055e-02 -5.0608879327774048e-01</leafValues></_>
        <_>
          <internalNodes>
            0 -1 152 1.3002517819404602e-01</internalNodes>
          <leafValues>
            8.0489121377468109e-02 -8.6622667312622070e-01</leafValues></_>
        <_>
          <internalNodes>
            0 -1 137 -9.7556218504905701e-02</internalNodes>
          <leafValues>
            -8.5894185304641724e-01 6.9893471896648407e-02</leafValues></_>
        <_>
          <internalNodes>
            0 -1 238 1.8838118761777878e-02</internalNodes>
          <leafValues>
            -1.9443100690841675e-01 3.7496837973594666e-01</leafValues></_>
        <_>
          <internalNodes>
            0 -1 264 5.4602650925517082e-04</internalNodes>
          <leafValues>
            1.0980821400880814e-01 -5.2134710550308228e-01</leafValues></_>
        <_>
          <internalNodes>
            0 -1 260 3.9958133129402995e-05</internalNodes>
          <leafValues>
            -1.8917806446552277e-01 3.8799899816513062e-01</leafValues></_>
        <_>
          <internalNodes>
            0 -1 260 -3.9985043258639053e-05</internalNodes>
          <leafValues>
            3.0123978853225708e-01 -2.8391030430793762e-01</leafValues></_>
        <_>
          <internalNodes>
            0 -1 203 -4.5222016051411629e-03</internalNodes>
          <leafValues>
            2.6268061995506287e-01 -2.7176314592361450e-01</leafValues></_>
        <_>
          <internalNodes>
            0 -1 159 -9.6329366788268089e-03</internalNodes>
          <leafValues>
            2.8760150074958801e-01 -2.5140884518623352e-01</leafValues></_>
        <_>
          <internalNodes>
            0 -1 283 4.5439798850566149e-04</internalNodes>
          <leafValues>
            1.0580620914697647e-01 -5.3393805027008057e-01</leafValues></_>
        <_>
          <internalNodes>
            0 -1 118 5.3906865417957306e-02</internalNodes>
          <leafValues>
            7.1652553975582123e-02 -7.1039539575576782e-01</leafValues></_>
        <_>
          <internalNodes>
            0 -1 5 2.8172868769615889e-03</internalNodes>
          <leafValues>
            -1.4806330204010010e-01 4.5245903730392456e-01</leafValues></_>
        <_>
          <internalNodes>
            0 -1 5 -3.8320473395287991e-03</internalNodes>
          <leafValues>
            5.3513336181640625e-01 -9.8361440002918243e-02</leafValues></_>
        <_>
          <internalNodes>
            0 -1 77 -3.5953052341938019e-02</internalNodes>
          <leafValues>
            1.1125048995018005e-01 -6.8737679719924927e-01</leafValues></_>
        <_>
          <internalNodes>
            0 -1 127 -1.7517425119876862e-02</internalNodes>
          <leafValues>
            -7.2219055891036987e-01 7.3349915444850922e-02</leafValues></_>
        <_>
          <internalNodes>
            0 -1 319 -3.1852540560066700e-03</internalNodes>
          <leafValues>
            4.6553605794906616e-01 -1.4442217350006104e-01</leafValues></_>
        <_>
          <internalNodes>
            0 -1 330 1.7236825078725815e-02</internalNodes>
          <leafValues>
            -1.4512763917446136e-01 4.9379608035087585e-01</leafValues></_>
        <_>
          <internalNodes>
            0 -1 172 3.9893566281534731e-05</internalNodes>
          <leafValues>
            -1.7354667186737061e-01 3.9259216189384460e-01</leafValues></_>
        <_>
          <internalNodes>
            0 -1 149 4.9185910029336810e-04</internalNodes>
          <leafValues>
            1.7109982669353485e-01 -4.4491207599639893e-01</leafValues></_>
        <_>
          <internalNodes>
            0 -1 95 5.3797248256159946e-05</internalNodes>
          <leafValues>
            -2.6488405466079712e-01 2.4058060348033905e-01</leafValues></_></weakClassifiers></_>
    <!-- stage 12 -->
    <_>
      <maxWeakCount>15</maxWeakCount>
      <stageThreshold>-1.2924538850784302e+00</stageThreshold>
      <weakClassifiers>
        <_>
          <internalNodes>
            0 -1 234 4.6616006875410676e-04</internalNodes>
          <leafValues>
            2.8868016600608826e-01 -5.9774821996688843e-01</leafValues></_>
        <_>
          <internalNodes>
            0 -1 174 -5.0128047587350011e-04</internalNodes>
          <leafValues>
            -5.8862513303756714e-01 2.3024906218051910e-01</leafValues></_>
        <_>
          <internalNodes>
            0 -1 259 6.3934642821550369e-04</internalNodes>
          <leafValues>
            1.7928855121135712e-01 -5.8457398414611816e-01</leafValues></_>
        <_>
          <internalNodes>
            0 -1 116 -5.6791515089571476e-04</internalNodes>
          <leafValues>
            -4.6224850416183472e-01 2.1925644576549530e-01</leafValues></_>
        <_>
          <internalNodes>
            0 -1 256 9.8000478465110064e-04</internalNodes>
          <leafValues>
            1.2052737176418304e-01 -9.5783263444900513e-01</leafValues></_>
        <_>
          <internalNodes>
            0 -1 72 -1.0103137791156769e-01</internalNodes>
          <leafValues>
            3.4843251109123230e-01 -2.4738940596580505e-01</leafValues></_>
        <_>
          <internalNodes>
            0 -1 146 -5.3480698261409998e-04</internalNodes>
          <leafValues>
            -4.7642603516578674e-01 1.9297604262828827e-01</leafValues></_>
        <_>
          <internalNodes>
            0 -1 178 -2.2156671548145823e-05</internalNodes>
          <leafValues>
            1.5763993561267853e-01 -4.2561450600624084e-01</leafValues></_>
        <_>
          <internalNodes>
            0 -1 200 -3.6599077284336090e-03</internalNodes>
          <leafValues>
            1.4638152718544006e-01 -5.2393436431884766e-01</leafValues></_>
        <_>
          <internalNodes>
            0 -1 188 -5.9034570585936308e-04</internalNodes>
          <leafValues>
            -5.7386982440948486e-01 1.3077680766582489e-01</leafValues></_>
        <_>
          <internalNodes>
            0 -1 37 2.3970354348421097e-02</internalNodes>
          <leafValues>
            -1.9241158664226532e-01 3.8440978527069092e-01</leafValues></_>
        <_>
          <internalNodes>
            0 -1 263 6.2782329041510820e-04</internalNodes>
          <leafValues>
            1.6202701628208160e-01 -4.2579957842826843e-01</leafValues></_>
        <_>
          <internalNodes>
            0 -1 215 -3.9930525235831738e-03</internalNodes>
          <leafValues>
            5.8802837133407593e-01 -1.1605727672576904e-01</leafValues></_>
        <_>
          <internalNodes>
            0 -1 176 -4.5270915143191814e-03</internalNodes>
          <leafValues>
            4.1183811426162720e-01 -1.6811634600162506e-01</leafValues></_>
        <_>
          <internalNodes>
            0 -1 139 8.4108814597129822e-02</internalNodes>
          <leafValues>
            -1.5894672274589539e-01 4.8507383465766907e-01</leafValues></_></weakClassifiers></_>
    <!-- stage 13 -->
    <_>
      <maxWeakCount>11</maxWeakCount>
      <stageThreshold>-1.0160803794860840e+00</stageThreshold>
      <weakClassifiers>
        <_>
          <internalNodes>
            0 -1 234 -1.9191762476111762e-05</internalNodes>
          <leafValues>
            7.0579916238784790e-01 -2.1761883795261383e-01</leafValues></_>
        <_>
          <internalNodes>
            0 -1 231 -1.7313484931946732e-05</internalNodes>
          <leafValues>
            6.7896759510040283e-01 -2.4864225089550018e-01</leafValues></_>
        <_>
          <internalNodes>
            0 -1 231 1.6367739590350538e-05</internalNodes>
          <leafValues>
            -3.4375476837158203e-01 6.4223277568817139e-01</leafValues></_>
        <_>
          <internalNodes>
            0 -1 231 7.7464635251089931e-04</internalNodes>
          <leafValues>
            2.0222117006778717e-01 -9.9513429403305054e-01</leafValues></_>
        <_>
          <internalNodes>
            0 -1 208 1.7452057363698259e-05</internalNodes>
          <leafValues>
            -2.7240768074989319e-01 5.4798841476440430e-01</leafValues></_>
        <_>
          <internalNodes>
            0 -1 208 -1.7539377950015478e-05</internalNodes>
          <leafValues>
            5.3226041793823242e-01 -3.3984941244125366e-01</leafValues></_>
        <_>
          <internalNodes>
            0 -1 208 -8.4090197924524546e-04</internalNodes>
          <leafValues>
            -9.9177926778793335e-01 1.7038965225219727e-01</leafValues></_>
        <_>
          <internalNodes>
            0 -1 234 1.6367739590350538e-05</internalNodes>
          <leafValues>
            -4.7613173723220825e-01 2.9970431327819824e-01</leafValues></_>
        <_>
          <internalNodes>
            0 -1 256 -1.2130273971706629e-03</internalNodes>
          <leafValues>
            -4.5465520024299622e-01 4.4468447566032410e-01</leafValues></_>
        <_>
          <internalNodes>
            0 -1 180 -1.1080116964876652e-03</internalNodes>
          <leafValues>
            -6.4014798402786255e-01 2.2378899157047272e-01</leafValues></_>
        <_>
          <internalNodes>
            0 -1 210 1.0472703725099564e-03</internalNodes>
          <leafValues>
            4.9602463841438293e-02 -9.6286618709564209e-01</leafValues></_></weakClassifiers></_>
    <!-- stage 14 -->
    <_>
      <maxWeakCount>16</maxWeakCount>
      <stageThreshold>-1.5410015583038330e+00</stageThreshold>
      <weakClassifiers>
        <_>
          <internalNodes>
            0 -1 209 1.7539377950015478e-05</internalNodes>
          <leafValues>
            -2.8281462192535400e-01 8.0076628923416138e-01</leafValues></_>
        <_>
          <internalNodes>
            0 -1 209 -1.7656046111369506e-05</internalNodes>
          <leafValues>
            6.8141514062881470e-01 -3.8779580593109131e-01</leafValues></_>
        <_>
          <internalNodes>
            0 -1 214 -1.3262657448649406e-03</internalNodes>
          <leafValues>
            -5.9014046192169189e-01 2.9959613084793091e-01</leafValues></_>
        <_>
          <internalNodes>
            0 -1 208 -1.7539377950015478e-05</internalNodes>
          <leafValues>
            5.8749812841415405e-01 -2.4303881824016571e-01</leafValues></_>
        <_>
          <internalNodes>
            0 -1 208 1.7452057363698259e-05</internalNodes>
          <leafValues>
            -3.0501502752304077e-01 5.1742601394653320e-01</leafValues></_>
        <_>
          <internalNodes>
            0 -1 209 -1.2881008442491293e-03</internalNodes>
          <leafValues>
            -9.6061950922012329e-01 2.3658661544322968e-01</leafValues></_>
        <_>
          <internalNodes>
            0 -1 207 4.0918050217442214e-05</internalNodes>
          <leafValues>
            -3.1479614973068237e-01 4.2898654937744141e-01</leafValues></_>
        <_>
          <internalNodes>
            0 -1 207 -1.7844000467448495e-05</internalNodes>
          <leafValues>
            4.8086649179458618e-01 -2.2852811217308044e-01</leafValues></_>
        <_>
          <internalNodes>
            0 -1 68 -1.9504958391189575e-01</internalNodes>
          <leafValues>
            4.6459957957267761e-01 -2.6909658312797546e-01</leafValues></_>
        <_>
          <internalNodes>
            0 -1 49 3.1413578987121582e-01</internalNodes>
          <leafValues>
            -1.7886611819267273e-01 8.3449864387512207e-01</leafValues></_>
        <_>
          <internalNodes>
            0 -1 207 -1.2232422595843673e-03</internalNodes>
          <leafValues>
            -9.7833186388015747e-01 1.4498816430568695e-01</leafValues></_>
        <_>
          <internalNodes>
            0 -1 177 -4.3936036527156830e-03</internalNodes>
          <leafValues>
            3.9866808056831360e-01 -2.3087124526500702e-01</leafValues></_>
        <_>
          <internalNodes>
            0 -1 225 -6.1585521325469017e-03</internalNodes>
          <leafValues>
            2.3953665792942047e-01 -4.5389911532402039e-01</leafValues></_>
        <_>
          <internalNodes>
            0 -1 208 1.1631790548563004e-03</internalNodes>
          <leafValues>
            1.0402312129735947e-01 -8.6419737339019775e-01</leafValues></_>
        <_>
          <internalNodes>
            0 -1 259 2.0874791516689584e-05</internalNodes>
          <leafValues>
            -3.2182356715202332e-01 3.1645545363426208e-01</leafValues></_>
        <_>
          <internalNodes>
            0 -1 255 5.0699749408522621e-05</internalNodes>
          <leafValues>
            -2.5869762897491455e-01 4.5711103081703186e-01</leafValues></_></weakClassifiers></_>
    <!-- stage 15 -->
    <_>
      <maxWeakCount>19</maxWeakCount>
      <stageThreshold>-1.4839676618576050e+00</stageThreshold>
      <weakClassifiers>
        <_>
          <internalNodes>
            0 -1 231 1.6367739590350538e-05</internalNodes>
          <leafValues>
            -2.2740247845649719e-01 5.3229397535324097e-01</leafValues></_>
        <_>
          <internalNodes>
            0 -1 231 -1.7313484931946732e-05</internalNodes>
          <leafValues>
            4.6874594688415527e-01 -2.8434884548187256e-01</leafValues></_>
        <_>
          <internalNodes>
            0 -1 231 -7.2861014632508159e-04</internalNodes>
          <leafValues>
            -9.7918069362640381e-01 1.5787917375564575e-01</leafValues></_>
        <_>
          <internalNodes>
            0 -1 232 1.1605364270508289e-03</internalNodes>
          <leafValues>
            4.7979578375816345e-02 -9.7022491693496704e-01</leafValues></_>
        <_>
          <internalNodes>
            0 -1 88 -1.0024353116750717e-01</internalNodes>
          <leafValues>
            3.8405716419219971e-01 -2.5216355919837952e-01</leafValues></_>
        <_>
          <internalNodes>
            0 -1 210 1.7539377950015478e-05</internalNodes>
          <leafValues>
            -1.8316590785980225e-01 4.4768306612968445e-01</leafValues></_>
        <_>
          <internalNodes>
            0 -1 210 -1.9520417481544428e-05</internalNodes>
          <leafValues>
            4.5598986744880676e-01 -4.2745825648307800e-01</leafValues></_>
        <_>
          <internalNodes>
            0 -1 19 -1.5222352743148804e-01</internalNodes>
          <leafValues>
            -7.4800062179565430e-01 1.8009305000305176e-01</leafValues></_>
        <_>
          <internalNodes>
            0 -1 213 1.7539377950015478e-05</internalNodes>
          <leafValues>
            -2.0283766090869904e-01 3.7634497880935669e-01</leafValues></_>
        <_>
          <internalNodes>
            0 -1 234 -5.7006976567208767e-04</internalNodes>
          <leafValues>
            -9.0422105789184570e-01 8.0545753240585327e-02</leafValues></_>
        <_>
          <internalNodes>
            0 -1 312 -8.1279706209897995e-03</internalNodes>
          <leafValues>
            1.8890815973281860e-01 -3.8276302814483643e-01</leafValues></_>
        <_>
          <internalNodes>
            0 -1 228 -1.0770081542432308e-02</internalNodes>
          <leafValues>
            3.5483893752098083e-01 -2.3864376544952393e-01</leafValues></_>
        <_>
          <internalNodes>
            0 -1 151 -4.6912789344787598e-02</internalNodes>
          <leafValues>
            7.1110033988952637e-01 -9.0754918754100800e-02</leafValues></_>
        <_>
          <internalNodes>
            0 -1 213 -1.7880462110042572e-05</internalNodes>
          <leafValues>
            3.5160008072853088e-01 -2.0323756337165833e-01</leafValues></_>
        <_>
          <internalNodes>
            0 -1 210 -6.9176044780761003e-04</internalNodes>
          <leafValues>
            -8.5639268159866333e-01 8.3567693829536438e-02</leafValues></_>
        <_>
          <internalNodes>
            0 -1 269 3.6149625666439533e-03</internalNodes>
          <leafValues>
            -1.6461712121963501e-01 4.7426629066467285e-01</leafValues></_>
        <_>
          <internalNodes>
            0 -1 240 3.5305859055370092e-03</internalNodes>
          <leafValues>
            -1.5397743880748749e-01 4.7052508592605591e-01</leafValues></_>
        <_>
          <internalNodes>
            0 -1 36 3.1689866445958614e-03</internalNodes>
          <leafValues>
            -1.4621268212795258e-01 5.1744860410690308e-01</leafValues></_>
        <_>
          <internalNodes>
            0 -1 130 3.8966748863458633e-02</internalNodes>
          <leafValues>
            1.2182881683111191e-01 -6.1479908227920532e-01</leafValues></_></weakClassifiers></_>
    <!-- stage 16 -->
    <_>
      <maxWeakCount>32</maxWeakCount>
      <stageThreshold>-1.3578015565872192e+00</stageThreshold>
      <weakClassifiers>
        <_>
          <internalNodes>
            0 -1 295 2.2693749517202377e-02</internalNodes>
          <leafValues>
            -1.4347638189792633e-01 4.7763347625732422e-01</leafValues></_>
        <_>
          <internalNodes>
            0 -1 313 -4.1660870192572474e-04</internalNodes>
          <leafValues>
            -5.0813114643096924e-01 1.3192456960678101e-01</leafValues></_>
        <_>
          <internalNodes>
            0 -1 216 -4.2448227759450674e-04</internalNodes>
          <leafValues>
            -5.1589465141296387e-01 1.0946172475814819e-01</leafValues></_>
        <_>
          <internalNodes>
            0 -1 216 3.9513513911515474e-04</internalNodes>
          <leafValues>
            1.3409443199634552e-01 -5.4893392324447632e-01</leafValues></_>
        <_>
          <internalNodes>
            0 -1 286 3.7949257530272007e-03</internalNodes>
          <leafValues>
            -1.1701679229736328e-01 4.9617710709571838e-01</leafValues></_>
        <_>
          <internalNodes>
            0 -1 18 -3.5281335003674030e-03</internalNodes>
          <leafValues>
            4.2725974321365356e-01 -1.3821852207183838e-01</leafValues></_>
        <_>
          <internalNodes>
            0 -1 18 3.4169121645390987e-03</internalNodes>
          <leafValues>
            -1.4791125059127808e-01 4.6967473626136780e-01</leafValues></_>
        <_>
          <internalNodes>
            0 -1 104 -3.8803246570751071e-04</internalNodes>
          <leafValues>
            -4.6765676140785217e-01 1.2991333007812500e-01</leafValues></_>
        <_>
          <internalNodes>
            0 -1 70 4.3514985591173172e-03</internalNodes>
          <leafValues>
            -1.6742412745952606e-01 3.4019634127616882e-01</leafValues></_>
        <_>
          <internalNodes>
            0 -1 296 4.8958221450448036e-03</internalNodes>
          <leafValues>
            -2.1789315342903137e-01 2.5676366686820984e-01</leafValues></_>
        <_>
          <internalNodes>
            0 -1 299 4.5970454812049866e-04</internalNodes>
          <leafValues>
            1.5772208571434021e-01 -4.4586166739463806e-01</leafValues></_>
        <_>
          <internalNodes>
            0 -1 306 1.8884040415287018e-02</internalNodes>
          <leafValues>
            -1.1369294673204422e-01 5.2376711368560791e-01</leafValues></_>
        <_>
          <internalNodes>
            0 -1 243 6.1444185674190521e-02</internalNodes>
          <leafValues>
            7.1775965392589569e-02 -8.3694016933441162e-01</leafValues></_>
        <_>
          <internalNodes>
            0 -1 144 -1.6135297715663910e-02</internalNodes>
          <leafValues>
            1.7008331418037415e-01 -3.3339226245880127e-01</leafValues></_>
        <_>
          <internalNodes>
            0 -1 288 4.9217895139008760e-04</internalNodes>
          <leafValues>
            1.4049746096134186e-01 -3.8817337155342102e-01</leafValues></_>
        <_>
          <internalNodes>
            0 -1 289 3.2939929515123367e-03</internalNodes>
          <leafValues>
            -1.4021739363670349e-01 4.6831244230270386e-01</leafValues></_>
        <_>
          <internalNodes>
            0 -1 301 3.3432622440159321e-03</internalNodes>
          <leafValues>
            -1.4413008093833923e-01 3.9996024966239929e-01</leafValues></_>
        <_>
          <internalNodes>
            0 -1 140 -5.1473558414727449e-04</internalNodes>
          <leafValues>
            -4.7289693355560303e-01 1.4396262168884277e-01</leafValues></_>
        <_>
          <internalNodes>
            0 -1 156 3.3057923428714275e-03</internalNodes>
          <leafValues>
            -1.6866835951805115e-01 3.9223906397819519e-01</leafValues></_>
        <_>
          <internalNodes>
            0 -1 50 -3.9995564147830009e-03</internalNodes>
          <leafValues>
            4.1069307923316956e-01 -1.4726756513118744e-01</leafValues></_>
        <_>
          <internalNodes>
            0 -1 202 2.2763875313103199e-03</internalNodes>
          <leafValues>
            6.1364911496639252e-02 -8.4101849794387817e-01</leafValues></_>
        <_>
          <internalNodes>
            0 -1 34 3.0599862337112427e-02</internalNodes>
          <leafValues>
            -1.7091061174869537e-01 3.9356806874275208e-01</leafValues></_>
        <_>
          <internalNodes>
            0 -1 62 4.5855745673179626e-02</internalNodes>
          <leafValues>
            -1.4459691941738129e-01 3.7824901938438416e-01</leafValues></_>
        <_>
          <internalNodes>
            0 -1 175 -3.9917165413498878e-03</internalNodes>
          <leafValues>
            4.7360301017761230e-01 -1.2193151563405991e-01</leafValues></_>
        <_>
          <internalNodes>
            0 -1 170 8.1426772521808743e-04</internalNodes>
          <leafValues>
            1.1641468107700348e-01 -5.2593153715133667e-01</leafValues></_>
        <_>
          <internalNodes>
            0 -1 119 -6.0247315559536219e-04</internalNodes>
          <leafValues>
            -3.9061233401298523e-01 1.5059973299503326e-01</leafValues></_>
        <_>
          <internalNodes>
            0 -1 164 1.8822530284523964e-02</internalNodes>
          <leafValues>
            9.3674533069133759e-02 -6.3114488124847412e-01</leafValues></_>
        <_>
          <internalNodes>
            0 -1 350 4.3720193207263947e-03</internalNodes>
          <leafValues>
            -1.8598371744155884e-01 3.3669635653495789e-01</leafValues></_>
        <_>
          <internalNodes>
            0 -1 193 -9.9454507231712341e-02</internalNodes>
          <leafValues>
            -7.0939552783966064e-01 7.2714574635028839e-02</leafValues></_>
        <_>
          <internalNodes>
            0 -1 137 -4.7214910387992859e-02</internalNodes>
          <leafValues>
            -4.6250367164611816e-01 1.1665203422307968e-01</leafValues></_>
        <_>
          <internalNodes>
            0 -1 196 -5.1750626880675554e-04</internalNodes>
          <leafValues>
            -5.4788237810134888e-01 9.6213534474372864e-02</leafValues></_>
        <_>
          <internalNodes>
            0 -1 290 -1.0413995012640953e-02</internalNodes>
          <leafValues>
            4.1938987374305725e-01 -1.3730522990226746e-01</leafValues></_></weakClassifiers></_>
    <!-- stage 17 -->
    <_>
      <maxWeakCount>37</maxWeakCount>
      <stageThreshold>-1.3911762237548828e+00</stageThreshold>
      <weakClassifiers>
        <_>
          <internalNodes>
            0 -1 181 -3.9018392562866211e-03</internalNodes>
          <leafValues>
            2.6247987151145935e-01 -2.8151986002922058e-01</leafValues></_>
        <_>
          <internalNodes>
            0 -1 100 -4.4753305613994598e-02</internalNodes>
          <leafValues>
            -6.8479651212692261e-01 8.1929966807365417e-02</leafValues></_>
        <_>
          <internalNodes>
            0 -1 87 -6.9741304032504559e-03</internalNodes>
          <leafValues>
            1.3007926940917969e-01 -5.6345784664154053e-01</leafValues></_>
        <_>
          <internalNodes>
            0 -1 326 5.9930083807557821e-04</internalNodes>
          <leafValues>
            8.9087054133415222e-02 -5.1843273639678955e-01</leafValues></_>
        <_>
          <internalNodes>
            0 -1 292 -1.2868458032608032e-01</internalNodes>
          <leafValues>
            -6.6672831773757935e-01 5.6077878922224045e-02</leafValues></_>
        <_>
          <internalNodes>
            0 -1 75 -6.3975555822253227e-03</internalNodes>
          <leafValues>
            1.4958472549915314e-01 -3.2405844330787659e-01</leafValues></_>
        <_>
          <internalNodes>
            0 -1 208 7.0643436629325151e-04</internalNodes>
          <leafValues>
            4.0483709424734116e-02 -9.4152790307998657e-01</leafValues></_>
        <_>
          <internalNodes>
            0 -1 207 1.7656046111369506e-05</internalNodes>
          <leafValues>
            -1.7788970470428467e-01 2.7878019213676453e-01</leafValues></_>
        <_>
          <internalNodes>
            0 -1 207 -4.0928833186626434e-05</internalNodes>
          <leafValues>
            3.2334417104721069e-01 -2.2803983092308044e-01</leafValues></_>
        <_>
          <internalNodes>
            0 -1 0 -2.5622794032096863e-01</internalNodes>
          <leafValues>
            -7.5804740190505981e-01 7.1218341588973999e-02</leafValues></_>
        <_>
          <internalNodes>
            0 -1 194 3.9776270277798176e-03</internalNodes>
          <leafValues>
            -1.3211479783058167e-01 3.8335621356964111e-01</leafValues></_>
        <_>
          <internalNodes>
            0 -1 194 -4.2736981995403767e-03</internalNodes>
          <leafValues>
            4.8264366388320923e-01 -1.2544339895248413e-01</leafValues></_>
        <_>
          <internalNodes>
            0 -1 11 -1.8189843744039536e-02</internalNodes>
          <leafValues>
            -7.3486995697021484e-01 6.4381964504718781e-02</leafValues></_>
        <_>
          <internalNodes>
            0 -1 16 -2.9501649551093578e-03</internalNodes>
          <leafValues>
            3.5205736756324768e-01 -1.4669151604175568e-01</leafValues></_>
        <_>
          <internalNodes>
            0 -1 169 2.7454749215394258e-03</internalNodes>
          <leafValues>
            7.3515221476554871e-02 -8.5810154676437378e-01</leafValues></_>
        <_>
          <internalNodes>
            0 -1 117 9.8070807754993439e-02</internalNodes>
          <leafValues>
            5.1146786659955978e-02 -7.0333838462829590e-01</leafValues></_>
        <_>
          <internalNodes>
            0 -1 302 -8.2460576668381691e-03</internalNodes>
          <leafValues>
            2.4941779673099518e-01 -1.9168330729007721e-01</leafValues></_>
        <_>
          <internalNodes>
            0 -1 314 9.6887983381748199e-03</internalNodes>
          <leafValues>
            -1.6319015622138977e-01 3.6806464195251465e-01</leafValues></_>
        <_>
          <internalNodes>
            0 -1 274 2.3124758154153824e-02</internalNodes>
          <leafValues>
            -6.0470160096883774e-02 6.4788711071014404e-01</leafValues></_>
        <_>
          <internalNodes>
            0 -1 113 -3.3266012906096876e-04</internalNodes>
          <leafValues>
            2.6323714852333069e-01 -1.9199068844318390e-01</leafValues></_>
        <_>
          <internalNodes>
            0 -1 133 -1.4882386662065983e-02</internalNodes>
          <leafValues>
            2.6228126883506775e-01 -1.7791843414306641e-01</leafValues></_>
        <_>
          <internalNodes>
            0 -1 52 2.0447915419936180e-02</internalNodes>
          <leafValues>
            -2.1585908532142639e-01 2.5629377365112305e-01</leafValues></_>
        <_>
          <internalNodes>
            0 -1 66 -6.6436842083930969e-02</internalNodes>
          <leafValues>
            -7.9988420009613037e-01 6.2954820692539215e-02</leafValues></_>
        <_>
          <internalNodes>
            0 -1 79 2.2379398345947266e-02</internalNodes>
          <leafValues>
            -7.6217412948608398e-02 7.4284529685974121e-01</leafValues></_>
        <_>
          <internalNodes>
            0 -1 261 -3.2570671755820513e-03</internalNodes>
          <leafValues>
            3.6207687854766846e-01 -1.2415511161088943e-01</leafValues></_>
        <_>
          <internalNodes>
            0 -1 198 -4.4507225975394249e-03</internalNodes>
          <leafValues>
            8.4980055689811707e-02 -6.3748586177825928e-01</leafValues></_>
        <_>
          <internalNodes>
            0 -1 333 3.7814043462276459e-02</internalNodes>
          <leafValues>
            7.0499934256076813e-02 -5.6203550100326538e-01</leafValues></_>
        <_>
          <internalNodes>
            0 -1 227 -1.8628410180099308e-04</internalNodes>
          <leafValues>
            3.9361420273780823e-01 -1.1912024021148682e-01</leafValues></_>
        <_>
          <internalNodes>
            0 -1 160 -6.7403400316834450e-04</internalNodes>
          <leafValues>
            -5.0121623277664185e-01 1.0139572620391846e-01</leafValues></_>
        <_>
          <internalNodes>
            0 -1 22 9.7864478826522827e-02</internalNodes>
          <leafValues>
            4.2871885001659393e-02 -8.2374781370162964e-01</leafValues></_>
        <_>
          <internalNodes>
            0 -1 259 3.4474240237614140e-05</internalNodes>
          <leafValues>
            -2.2832448780536652e-01 1.9219547510147095e-01</leafValues></_>
        <_>
          <internalNodes>
            0 -1 269 3.0688305851072073e-03</internalNodes>
          <leafValues>
            -1.2984631955623627e-01 3.4306687116622925e-01</leafValues></_>
        <_>
          <internalNodes>
            0 -1 270 3.1007293146103621e-03</internalNodes>
          <leafValues>
            -1.2042139470577240e-01 3.8110202550888062e-01</leafValues></_>
        <_>
          <internalNodes>
            0 -1 262 7.3025487363338470e-03</internalNodes>
          <leafValues>
            -2.2213442623615265e-01 2.4613901972770691e-01</leafValues></_>
        <_>
          <internalNodes>
            0 -1 231 -7.0762366522103548e-04</internalNodes>
          <leafValues>
            -9.2681002616882324e-01 5.3647164255380630e-02</leafValues></_>
        <_>
          <internalNodes>
            0 -1 271 4.5549036003649235e-03</internalNodes>
          <leafValues>
            -1.0333437472581863e-01 4.9345713853836060e-01</leafValues></_>
        <_>
          <internalNodes>
            0 -1 12 -7.8700289130210876e-02</internalNodes>
          <leafValues>
            -5.6326442956924438e-01 8.8494464755058289e-02</leafValues></_></weakClassifiers></_>
    <!-- stage 18 -->
    <_>
      <maxWeakCount>43</maxWeakCount>
      <stageThreshold>-1.5124858617782593e+00</stageThreshold>
      <weakClassifiers>
        <_>
          <internalNodes>
            0 -1 99 3.4334108233451843e-02</internalNodes>
          <leafValues>
            -1.0308266431093216e-01 5.7883131504058838e-01</leafValues></_>
        <_>
          <internalNodes>
            0 -1 281 -5.0786597421392798e-04</internalNodes>
          <leafValues>
            -6.0294151306152344e-01 9.8943144083023071e-02</leafValues></_>
        <_>
          <internalNodes>
            0 -1 281 -3.9641883631702513e-05</internalNodes>
          <leafValues>
            4.1969895362854004e-01 -1.2753227353096008e-01</leafValues></_>
        <_>
          <internalNodes>
            0 -1 272 3.1185834668576717e-03</internalNodes>
          <leafValues>
            -2.1735860407352448e-01 3.3536651730537415e-01</leafValues></_>
        <_>
          <internalNodes>
            0 -1 336 -2.9414326418191195e-03</internalNodes>
          <leafValues>
            3.6847051978111267e-01 -1.5036498010158539e-01</leafValues></_>
        <_>
          <internalNodes>
            0 -1 190 -1.3784874230623245e-02</internalNodes>
          <leafValues>
            3.1872576475143433e-01 -1.6974847018718719e-01</leafValues></_>
        <_>
          <internalNodes>
            0 -1 336 2.7951821684837341e-03</internalNodes>
          <leafValues>
            -1.1375349760055542e-01 4.1624182462692261e-01</leafValues></_>
        <_>
          <internalNodes>
            0 -1 90 -4.8725781380198896e-04</internalNodes>
          <leafValues>
            -4.4866782426834106e-01 1.2835536897182465e-01</leafValues></_>
        <_>
          <internalNodes>
            0 -1 58 3.5734488628804684e-03</internalNodes>
          <leafValues>
            -2.2444610297679901e-01 2.3052404820919037e-01</leafValues></_>
        <_>
          <internalNodes>
            0 -1 220 -1.6670556738972664e-02</internalNodes>
          <leafValues>
            3.1655091047286987e-01 -1.4625889062881470e-01</leafValues></_>
        <_>
          <internalNodes>
            0 -1 191 -3.9304044097661972e-02</internalNodes>
          <leafValues>
            -7.9931396245956421e-01 4.1683547198772430e-02</leafValues></_>
        <_>
          <internalNodes>
            0 -1 106 -4.4652977958321571e-03</internalNodes>
          <leafValues>
            7.3316425085067749e-02 -5.8898973464965820e-01</leafValues></_>
        <_>
          <internalNodes>
            0 -1 272 -4.2147203348577023e-03</internalNodes>
          <leafValues>
            4.2594754695892334e-01 -1.1236459761857986e-01</leafValues></_>
        <_>
          <internalNodes>
            0 -1 328 4.6884629409760237e-04</internalNodes>
          <leafValues>
            1.0813196003437042e-01 -4.8313698172569275e-01</leafValues></_>
        <_>
          <internalNodes>
            0 -1 128 2.7064070105552673e-02</internalNodes>
          <leafValues>
            6.1862528324127197e-02 -6.1687850952148438e-01</leafValues></_>
        <_>
          <internalNodes>
            0 -1 86 3.8175746798515320e-02</internalNodes>
          <leafValues>
            4.4722408056259155e-02 -8.4126788377761841e-01</leafValues></_>
        <_>
          <internalNodes>
            0 -1 317 4.6164961531758308e-03</internalNodes>
          <leafValues>
            -1.7547811567783356e-01 2.6946228742599487e-01</leafValues></_>
        <_>
          <internalNodes>
            0 -1 343 8.9583324734121561e-04</internalNodes>
          <leafValues>
            1.1323451995849609e-01 -3.9423698186874390e-01</leafValues></_>
        <_>
          <internalNodes>
            0 -1 294 3.5506628453731537e-02</internalNodes>
          <leafValues>
            8.5496753454208374e-02 -5.6226795911788940e-01</leafValues></_>
        <_>
          <internalNodes>
            0 -1 339 -1.3391898013651371e-02</internalNodes>
          <leafValues>
            -8.4382718801498413e-01 4.5914947986602783e-02</leafValues></_>
        <_>
          <internalNodes>
            0 -1 324 -3.4392355009913445e-03</internalNodes>
          <leafValues>
            3.6359113454818726e-01 -1.3053344190120697e-01</leafValues></_>
        <_>
          <internalNodes>
            0 -1 53 1.0605238378047943e-02</internalNodes>
          <leafValues>
            -1.2544204294681549e-01 3.4680238366127014e-01</leafValues></_>
        <_>
          <internalNodes>
            0 -1 293 5.7063214480876923e-03</internalNodes>
          <leafValues>
            -1.9606041908264160e-01 2.5417163968086243e-01</leafValues></_>
        <_>
          <internalNodes>
            0 -1 267 3.9086518809199333e-03</internalNodes>
          <leafValues>
            -1.1271789669990540e-01 3.8221997022628784e-01</leafValues></_>
        <_>
          <internalNodes>
            0 -1 32 1.9569423049688339e-02</internalNodes>
          <leafValues>
            -1.1932222545146942e-01 3.9654219150543213e-01</leafValues></_>
        <_>
          <internalNodes>
            0 -1 266 5.5470166262239218e-04</internalNodes>
          <leafValues>
            1.0971638560295105e-01 -4.4923114776611328e-01</leafValues></_>
        <_>
          <internalNodes>
            0 -1 291 -4.2874664068222046e-02</internalNodes>
          <leafValues>
            -7.8931659460067749e-01 5.3929038345813751e-02</leafValues></_>
        <_>
          <internalNodes>
            0 -1 244 2.9549344908446074e-03</internalNodes>
          <leafValues>
            -1.2932372093200684e-01 3.4931206703186035e-01</leafValues></_>
        <_>
          <internalNodes>
            0 -1 241 3.1750448979437351e-03</internalNodes>
          <leafValues>
            -1.1280583590269089e-01 3.2996600866317749e-01</leafValues></_>
        <_>
          <internalNodes>
            0 -1 242 -4.3077737791463733e-04</internalNodes>
          <leafValues>
            -4.5403960347175598e-01 8.6591400206089020e-02</leafValues></_>
        <_>
          <internalNodes>
            0 -1 265 3.7887920625507832e-03</internalNodes>
          <leafValues>
            -1.9234192371368408e-01 2.3138047754764557e-01</leafValues></_>
        <_>
          <internalNodes>
            0 -1 42 -1.5202045440673828e-02</internalNodes>
          <leafValues>
            -6.0690605640411377e-01 7.0520579814910889e-02</leafValues></_>
        <_>
          <internalNodes>
            0 -1 157 -3.0887047760188580e-03</internalNodes>
          <leafValues>
            1.8751311302185059e-01 -2.2108790278434753e-01</leafValues></_>
        <_>
          <internalNodes>
            0 -1 226 5.0589232705533504e-04</internalNodes>
          <leafValues>
            1.0404930263757706e-01 -4.3919801712036133e-01</leafValues></_>
        <_>
          <internalNodes>
            0 -1 63 6.6030338406562805e-02</internalNodes>
          <leafValues>
            5.3776867687702179e-02 -7.6175338029861450e-01</leafValues></_>
        <_>
          <internalNodes>
            0 -1 258 -4.1032761335372925e-02</internalNodes>
          <leafValues>
            -7.0209497213363647e-01 5.3694523870944977e-02</leafValues></_>
        <_>
          <internalNodes>
            0 -1 285 -3.9584538899362087e-04</internalNodes>
          <leafValues>
            -4.0781098604202271e-01 9.1376833617687225e-02</leafValues></_>
        <_>
          <internalNodes>
            0 -1 26 4.7314632683992386e-03</internalNodes>
          <leafValues>
            -1.5625539422035217e-01 2.5199121236801147e-01</leafValues></_>
        <_>
          <internalNodes>
            0 -1 40 4.5641407370567322e-02</internalNodes>
          <leafValues>
            6.5292701125144958e-02 -6.3262444734573364e-01</leafValues></_>
        <_>
          <internalNodes>
            0 -1 29 -3.6684600636363029e-03</internalNodes>
          <leafValues>
            3.6746296286582947e-01 -1.1815181374549866e-01</leafValues></_>
        <_>
          <internalNodes>
            0 -1 207 -7.5417058542370796e-04</internalNodes>
          <leafValues>
            -9.4643938541412354e-01 4.7856785356998444e-02</leafValues></_>
        <_>
          <internalNodes>
            0 -1 102 -4.5648261904716492e-02</internalNodes>
          <leafValues>
            -6.8952059745788574e-01 4.1643898934125900e-02</leafValues></_>
        <_>
          <internalNodes>
            0 -1 41 -1.7777375876903534e-02</internalNodes>
          <leafValues>
            -8.7211060523986816e-01 3.9313174784183502e-02</leafValues></_></weakClassifiers></_>
    <!-- stage 19 -->
    <_>
      <maxWeakCount>44</maxWeakCount>
      <stageThreshold>-1.4409309625625610e+00</stageThreshold>
      <weakClassifiers>
        <_>
          <internalNodes>
            0 -1 186 1.6190357506275177e-02</internalNodes>
          <leafValues>
            -1.8111455440521240e-01 3.3050847053527832e-01</leafValues></_>
        <_>
          <internalNodes>
            0 -1 17 2.4549059569835663e-02</internalNodes>
          <leafValues>
            -1.5044663846492767e-01 3.3478352427482605e-01</leafValues></_>
        <_>
          <internalNodes>
            0 -1 154 2.2820867598056793e-01</internalNodes>
          <leafValues>
            5.9780810028314590e-02 -8.3103179931640625e-01</leafValues></_>
        <_>
          <internalNodes>
            0 -1 143 9.8655303008854389e-04</internalNodes>
          <leafValues>
            8.1857368350028992e-02 -4.8456871509552002e-01</leafValues></_>
        <_>
          <internalNodes>
            0 -1 93 4.5794222387485206e-05</internalNodes>
          <leafValues>
            -1.4933569729328156e-01 2.6513963937759399e-01</leafValues></_>
        <_>
          <internalNodes>
            0 -1 115 -5.9057045727968216e-03</internalNodes>
          <leafValues>
            1.5102119743824005e-01 -3.0868175625801086e-01</leafValues></_>
        <_>
          <internalNodes>
            0 -1 182 6.1897060368210077e-04</internalNodes>
          <leafValues>
            1.1058147996664047e-01 -3.4441331028938293e-01</leafValues></_>
        <_>
          <internalNodes>
            0 -1 179 -3.8534682244062424e-03</internalNodes>
          <leafValues>
            5.4567730426788330e-01 -9.7214914858341217e-02</leafValues></_>
        <_>
          <internalNodes>
            0 -1 134 -2.2210946679115295e-01</internalNodes>
          <leafValues>
            -8.1594073772430420e-01 4.2891141027212143e-02</leafValues></_>
        <_>
          <internalNodes>
            0 -1 103 -1.0432310402393341e-01</internalNodes>
          <leafValues>
            1.2529878318309784e-01 -3.8193026185035706e-01</leafValues></_>
        <_>
          <internalNodes>
            0 -1 158 2.3002941161394119e-02</internalNodes>
          <leafValues>
            6.6995374858379364e-02 -6.3751119375228882e-01</leafValues></_>
        <_>
          <internalNodes>
            0 -1 7 1.4405903220176697e-01</internalNodes>
          <leafValues>
            -9.9575638771057129e-02 4.1012766957283020e-01</leafValues></_>
        <_>
          <internalNodes>
            0 -1 348 3.9295725524425507e-02</internalNodes>
          <leafValues>
            4.8591796308755875e-02 -8.7308967113494873e-01</leafValues></_>
        <_>
          <internalNodes>
            0 -1 335 -1.1356291361153126e-03</internalNodes>
          <leafValues>
            -3.8114383816719055e-01 8.9723438024520874e-02</leafValues></_>
        <_>
          <internalNodes>
            0 -1 305 -3.3712186850607395e-03</internalNodes>
          <leafValues>
            4.4771462678909302e-01 -9.4173863530158997e-02</leafValues></_>
        <_>
          <internalNodes>
            0 -1 334 -1.9304655492305756e-02</internalNodes>
          <leafValues>
            -7.1699023246765137e-01 6.3583418726921082e-02</leafValues></_>
        <_>
          <internalNodes>
            0 -1 171 -3.0445964075624943e-03</internalNodes>
          <leafValues>
            4.0740570425987244e-01 -9.8017580807209015e-02</leafValues></_>
        <_>
          <internalNodes>
            0 -1 119 5.3997157374396920e-04</internalNodes>
          <leafValues>
            5.7831145823001862e-02 -6.9938713312149048e-01</leafValues></_>
        <_>
          <internalNodes>
            0 -1 229 4.4227948819752783e-05</internalNodes>
          <leafValues>
            -1.3156759738922119e-01 2.9877460002899170e-01</leafValues></_>
        <_>
          <internalNodes>
            0 -1 201 -4.3189516873098910e-05</internalNodes>
          <leafValues>
            2.3764133453369141e-01 -1.7046611011028290e-01</leafValues></_>
        <_>
          <internalNodes>
            0 -1 82 -3.5161441192030907e-03</internalNodes>
          <leafValues>
            1.7023146152496338e-01 -2.2409482300281525e-01</leafValues></_>
        <_>
          <internalNodes>
            0 -1 22 -1.0775931179523468e-01</internalNodes>
          <leafValues>
            -8.6112534999847412e-01 4.7597941011190414e-02</leafValues></_>
        <_>
          <internalNodes>
            0 -1 109 -2.3570906370878220e-02</internalNodes>
          <leafValues>
            1.6282804310321808e-01 -2.5456860661506653e-01</leafValues></_>
        <_>
          <internalNodes>
            0 -1 145 2.9761446639895439e-02</internalNodes>
          <leafValues>
            -9.1264717280864716e-02 4.8733717203140259e-01</leafValues></_>
        <_>
          <internalNodes>
            0 -1 98 -5.9673324227333069e-02</internalNodes>
          <leafValues>
            -8.5429638624191284e-01 6.2151867896318436e-02</leafValues></_>
        <_>
          <internalNodes>
            0 -1 207 6.3477060757577419e-04</internalNodes>
          <leafValues>
            2.8859399259090424e-02 -8.4930366277694702e-01</leafValues></_>
        <_>
          <internalNodes>
            0 -1 207 4.4733369577443227e-05</internalNodes>
          <leafValues>
            -1.6759541630744934e-01 2.7421665191650391e-01</leafValues></_>
        <_>
          <internalNodes>
            0 -1 6 2.9476201161742210e-03</internalNodes>
          <leafValues>
            -1.0228104889392853e-01 3.8071048259735107e-01</leafValues></_>
        <_>
          <internalNodes>
            0 -1 6 -3.0070384964346886e-03</internalNodes>
          <leafValues>
            3.7234240770339966e-01 -1.2179928272962570e-01</leafValues></_>
        <_>
          <internalNodes>
            0 -1 78 -3.9302505319938064e-04</internalNodes>
          <leafValues>
            -4.0756168961524963e-01 1.0297591984272003e-01</leafValues></_>
        <_>
          <internalNodes>
            0 -1 210 -3.9876325899967924e-05</internalNodes>
          <leafValues>
            2.0825774967670441e-01 -1.7455080151557922e-01</leafValues></_>
        <_>
          <internalNodes>
            0 -1 233 9.4728323165327311e-04</internalNodes>
          <leafValues>
            6.2948182225227356e-02 -8.5283291339874268e-01</leafValues></_>
        <_>
          <internalNodes>
            0 -1 184 3.8275842089205980e-03</internalNodes>
          <leafValues>
            -1.2674172222614288e-01 3.4671655297279358e-01</leafValues></_>
        <_>
          <internalNodes>
            0 -1 30 -2.2720247507095337e-02</internalNodes>
          <leafValues>
            -5.0036025047302246e-01 8.2140095531940460e-02</leafValues></_>
        <_>
          <internalNodes>
            0 -1 94 -1.0760393925011158e-02</internalNodes>
          <leafValues>
            3.7817320227622986e-01 -1.0727339237928391e-01</leafValues></_>
        <_>
          <internalNodes>
            0 -1 124 5.2815175149589777e-04</internalNodes>
          <leafValues>
            9.0884648263454437e-02 -4.4196134805679321e-01</leafValues></_>
        <_>
          <internalNodes>
            0 -1 275 -1.0123139247298241e-02</internalNodes>
          <leafValues>
            8.9910618960857391e-02 -4.3499428033828735e-01</leafValues></_>
        <_>
          <internalNodes>
            0 -1 48 2.6244857907295227e-01</internalNodes>
          <leafValues>
            5.3660590201616287e-02 -7.5498169660568237e-01</leafValues></_>
        <_>
          <internalNodes>
            0 -1 232 3.9021069824229926e-05</internalNodes>
          <leafValues>
            -1.5092803537845612e-01 2.7315461635589600e-01</leafValues></_>
        <_>
          <internalNodes>
            0 -1 337 2.3270115256309509e-02</internalNodes>
          <leafValues>
            -7.3133818805217743e-02 5.1649332046508789e-01</leafValues></_>
        <_>
          <internalNodes>
            0 -1 284 -2.5614798069000244e-03</internalNodes>
          <leafValues>
            2.2673293948173523e-01 -2.0704647898674011e-01</leafValues></_>
        <_>
          <internalNodes>
            0 -1 242 4.5598170254379511e-04</internalNodes>
          <leafValues>
            8.7983965873718262e-02 -4.4255220890045166e-01</leafValues></_>
        <_>
          <internalNodes>
            0 -1 325 -1.2806053273379803e-02</internalNodes>
          <leafValues>
            4.4320791959762573e-01 -9.2601798474788666e-02</leafValues></_>
        <_>
          <internalNodes>
            0 -1 310 -1.3270953670144081e-02</internalNodes>
          <leafValues>
            -7.3290395736694336e-01 5.7654455304145813e-02</leafValues></_></weakClassifiers></_></stages>
  <features>
    <_>
      <rects>
        <_>
          0 0 14 16 -1.</_>
        <_>
          0 0 7 8 2.</_>
        <_>
          7 8 7 8 2.</_></rects>
      <tilted>0</tilted></_>
    <_>
      <rects>
        <_>
          0 3 6 16 -1.</_>
        <_>
          3 3 3 16 2.</_></rects>
      <tilted>0</tilted></_>
    <_>
      <rects>
        <_>
          0 6 4 11 -1.</_>
        <_>
          2 6 2 11 2.</_></rects>
      <tilted>0</tilted></_>
    <_>
      <rects>
        <_>
          0 8 6 5 -1.</_>
        <_>
          2 8 2 5 3.</_></rects>
      <tilted>0</tilted></_>
    <_>
      <rects>
        <_>
          0 8 18 4 -1.</_>
        <_>
          9 8 9 4 2.</_></rects>
      <tilted>0</tilted></_>
    <_>
      <rects>
        <_>
          0 9 3 1 -1.</_>
        <_>
          1 9 1 1 3.</_></rects>
      <tilted>0</tilted></_>
    <_>
      <rects>
        <_>
          0 10 3 1 -1.</_>
        <_>
          1 10 1 1 3.</_></rects>
      <tilted>0</tilted></_>
    <_>
      <rects>
        <_>
          1 0 5 20 -1.</_>
        <_>
          1 5 5 10 2.</_></rects>
      <tilted>0</tilted></_>
    <_>
      <rects>
        <_>
          1 0 19 20 -1.</_>
        <_>
          1 5 19 10 2.</_></rects>
      <tilted>0</tilted></_>
    <_>
      <rects>
        <_>
          1 5 14 6 -1.</_>
        <_>
          8 5 7 6 2.</_></rects>
      <tilted>0</tilted></_>
    <_>
      <rects>
        <_>
          1 5 19 9 -1.</_>
        <_>
          1 8 19 3 3.</_></rects>
      <tilted>0</tilted></_>
    <_>
      <rects>
        <_>
          1 6 5 4 -1.</_>
        <_>
          1 8 5 2 2.</_></rects>
      <tilted>0</tilted></_>
    <_>
      <rects>
        <_>
          1 6 14 5 -1.</_>
        <_>
          8 6 7 5 2.</_></rects>
      <tilted>0</tilted></_>
    <_>
      <rects>
        <_>
          1 6 19 9 -1.</_>
        <_>
          1 9 19 3 3.</_></rects>
      <tilted>0</tilted></_>
    <_>
      <rects>
        <_>
          1 7 3 1 -1.</_>
        <_>
          2 7 1 1 3.</_></rects>
      <tilted>0</tilted></_>
    <_>
      <rects>
        <_>
          1 7 16 3 -1.</_>
        <_>
          9 7 8 3 2.</_></rects>
      <tilted>0</tilted></_>
    <_>
      <rects>
        <_>
          1 8 3 1 -1.</_>
        <_>
          2 8 1 1 3.</_></rects>
      <tilted>0</tilted></_>
    <_>
      <rects>
        <_>
          1 8 6 4 -1.</_>
        <_>
          3 8 2 4 3.</_></rects>
      <tilted>0</tilted></_>
    <_>
      <rects>
        <_>
          1 11 3 1 -1.</_>
        <_>
          2 11 1 1 3.</_></rects>
      <tilted>0</tilted></_>
    <_>
      <rects>
        <_>
          2 0 10 18 -1.</_>
        <_>
          2 0 5 9 2.</_>
        <_>
          7 9 5 9 2.</_></rects>
      <tilted>0</tilted></_>
    <_>
      <rects>
        <_>
          2 2 15 15 -1.</_>
        <_>
          7 2 5 15 3.</_></rects>
      <tilted>0</tilted></_>
    <_>
      <rects>
        <_>
          2 5 6 6 -1.</_>
        <_>
          2 5 3 3 2.</_>
        <_>
          5 8 3 3 2.</_></rects>
      <tilted>0</tilted></_>
    <_>
      <rects>
        <_>
          2 6 16 8 -1.</_>
        <_>
          2 10 16 4 2.</_></rects>
      <tilted>0</tilted></_>
    <_>
      <rects>
        <_>
          2 8 4 4 -1.</_>
        <_>
          4 8 2 4 2.</_></rects>
      <tilted>0</tilted></_>
    <_>
      <rects>
        <_>
          2 8 16 4 -1.</_>
        <_>
          6 8 8 4 2.</_></rects>
      <tilted>0</tilted></_>
    <_>
      <rects>
        <_>
          2 9 3 1 -1.</_>
        <_>
          3 9 1 1 3.</_></rects>
      <tilted>0</tilted></_>
    <_>
      <rects>
        <_>
          2 9 3 3 -1.</_>
        <_>
          3 10 1 1 9.</_></rects>
      <tilted>0</tilted></_>
    <_>
      <rects>
        <_>
          2 9 4 3 -1.</_>
        <_>
          4 9 2 3 2.</_></rects>
      <tilted>0</tilted></_>
    <_>
      <rects>
        <_>
          2 9 18 3 -1.</_>
        <_>
          11 9 9 3 2.</_></rects>
      <tilted>0</tilted></_>
    <_>
      <rects>
        <_>
          2 10 3 1 -1.</_>
        <_>
          3 10 1 1 3.</_></rects>
      <tilted>0</tilted></_>
    <_>
      <rects>
        <_>
          2 10 12 1 -1.</_>
        <_>
          8 10 6 1 2.</_></rects>
      <tilted>0</tilted></_>
    <_>
      <rects>
        <_>
          2 11 8 1 -1.</_>
        <_>
          6 11 4 1 2.</_></rects>
      <tilted>0</tilted></_>
    <_>
      <rects>
        <_>
          2 11 6 2 -1.</_>
        <_>
          2 11 6 1 2.</_></rects>
      <tilted>1</tilted></_>
    <_>
      <rects>
        <_>
          3 2 8 10 -1.</_>
        <_>
          3 2 4 5 2.</_>
        <_>
          7 7 4 5 2.</_></rects>
      <tilted>0</tilted></_>
    <_>
      <rects>
        <_>
          3 6 12 3 -1.</_>
        <_>
          7 7 4 1 9.</_></rects>
      <tilted>0</tilted></_>
    <_>
      <rects>
        <_>
          3 7 4 1 -1.</_>
        <_>
          5 7 2 1 2.</_></rects>
      <tilted>0</tilted></_>
    <_>
      <rects>
        <_>
          3 8 3 1 -1.</_>
        <_>
          4 8 1 1 3.</_></rects>
      <tilted>0</tilted></_>
    <_>
      <rects>
        <_>
          3 8 6 3 -1.</_>
        <_>
          5 9 2 1 9.</_></rects>
      <tilted>0</tilted></_>
    <_>
      <rects>
        <_>
          3 8 16 4 -1.</_>
        <_>
          11 8 8 4 2.</_></rects>
      <tilted>0</tilted></_>
    <_>
      <rects>
        <_>
          3 9 3 1 -1.</_>
        <_>
          4 9 1 1 3.</_></rects>
      <tilted>0</tilted></_>
    <_>
      <rects>
        <_>
          3 9 6 3 -1.</_>
        <_>
          5 11 2 3 3.</_></rects>
      <tilted>1</tilted></_>
    <_>
      <rects>
        <_>
          3 9 16 1 -1.</_>
        <_>
          11 9 8 1 2.</_></rects>
      <tilted>0</tilted></_>
    <_>
      <rects>
        <_>
          3 10 4 3 -1.</_>
        <_>
          4 11 2 3 2.</_></rects>
      <tilted>1</tilted></_>
    <_>
      <rects>
        <_>
          3 10 1 10 -1.</_>
        <_>
          3 15 1 5 2.</_></rects>
      <tilted>0</tilted></_>
    <_>
      <rects>
        <_>
          3 10 5 3 -1.</_>
        <_>
          2 11 5 1 3.</_></rects>
      <tilted>1</tilted></_>
    <_>
      <rects>
        <_>
          3 11 3 1 -1.</_>
